{"layers": [{"weights": [[-0.15933201995372534, -1.2451476289446233, -0.4346648041005983, 0.8550411818507215, -0.22685704767375123, -1.375009562868926, 0.0424867115426657, 0.18305725616477447, 0.17151147371225592, 0.489649493341672, -0.6002990207501774, -0.3617256895903687, -0.1290830727813241, 0.539456471897971, 0.34586100069474035, -0.7197975919620132, -1.3802442128513097, -0.31617544877950393, -1.0212561009397159, -0.912679849792115, -0.9625063941408653, -0.6956813343937612, 0.23217365250548436, -0.3363362051356419, -0.4529975319431151, 0.9653853607277417, 1.019675728490504, 0.4040450253594092, -0.17135399663231257, -1.2368711122352138, 1.0551258501855314, 1.3484003505853968, -0.5434642779012002, -0.28887897908016646, 1.2950255634234396, -0.3411932109511325, -0.03742537591902196, -0.7647527383126859, 1.3423907429459208, -0.038776012067812636, -0.21497686928965834, 0.5435323337884677, 0.6884181098062649, 0.05322894066946183, -1.2585782789587026, -0.5136171862369646, 0.14731798543469407, -1.7318146795457783, 0.9131160198921735, 0.6961661342201397, -0.12973765174059962, 0.8126968867091701, 0.24360715295198912, 0.1218781109536352, 0.36879436168786023, 0.07516762452607981, 0.2166092395946246, -0.12049269962278451, 0.678151256002396, -0.4190627869837467, 0.7881038771209238, -1.0435211207372, 1.3401418032090406, 0.18916577886634897, 0.5708909075574906, -0.09931667358982439, -1.1068776267534761, -1.9554569347345327, 0.9523036562850538, -0.2073057842594733, 1.4441301348575004, 1.2575413982773307, -0.7776254413737725, -0.8670649605453304, 0.6799451229249543, -0.31503738205920306, -0.17075646633077055, -2.033601422510541, -0.18345886997257857, 0.03886334281923905, -0.7497384071481488, 0.29725599613916515, 0.23283047146169158, 0.9139204132833176, 0.34696117426925677, 0.7243954112128645, 0.7488889889989392, -1.3706727918167032, -0.08723919795615952, -0.13186635010698644, -0.5809433951433166, 0.9823804031777392, -1.6867090967215874, 0.8129203383955454, -0.04126899551661088, -0.8863886040169797, 0.3212014629830354, 0.6081122858897954, -1.680396636217181, -1.6126023724990564, -0.04663661578767075, -0.31624644396096896, 1.4962227236372327, -1.314474380395368, -0.03369901090357337, 1.5776023781416815, -1.1128053907817101, 1.0202647481202283, -0.4940609411798724, 1.5960613431544002, -0.7637042123875573, 0.317993665167006, 0.5619251791365181, -0.0489200628098979, -0.464065811406078, 0.8053531647909795, -0.7186241001485454, 0.9418946014644571, 1.4502861518322179, -0.23465489675656745, 0.5587645620048475, -0.0988146685069678, -1.0886522457556365, -0.1725464499668296, -0.3599862758346486, -0.04669045922393269, -0.5972202948314513, -1.1299698591578964], [1.031661638517049, 0.8209815558498998, 0.4708451054937883, -0.38413269980378245, -0.8615613662477477, -0.47280122609935, 0.055705988491502115, 0.4310924424039339, -2.0237921172659976, 0.33526890556332944, 0.5439596640241745, -0.047420793828451525, 0.7331424428681199, -0.6866540157591632, -0.8124052292071319, -0.046081116991509304, -0.2763338909266604, 1.1793448384662923, 0.11862313311637418, 0.7748877065885224, 2.1032683857032137, -0.004728162367138359, 0.035119142656920906, -0.38815932597854536, -0.6101053507906711, 1.0110506840613571, -1.538033495769754, -0.1545387017255343, 0.31220671856140736, 0.9949991944882036, -0.06112609547364043, -0.30736171788593364, -0.5518424122387616, 0.21884628831494915, 0.7272978540978049, -0.6332013733521722, -1.2144061120431444, 0.22996774902719094, 0.0014567361103417003, -0.024382404648279715, 2.168756621796679, 0.7694472766830033, -0.7474741389124945, -0.4809149461267178, 0.06956541121823, 0.008741363730359802, 2.200376718725954, 1.5478112444722407, -0.22006786827155586, 1.0026117590447685, -0.43186914289793726, -1.3473992924144667, -1.3815547107653463, -0.19456838334559204, 1.4961592192692073, -0.5090356662683573, 0.18665872233472539, -0.29375815058647237, 1.2002228174089054, 0.5646326015279103, -0.3388295216395552, -0.8291929418441818, -0.4920711568265546, 0.83139555100972, -1.0395605789711884, -0.47144380334031893, -0.17611821013158005, 0.08816046961910727, 0.5006680042683622, -0.18726482817994272, 0.5280699197842106, 0.21719620971869696, 0.8622009426269338, 0.5016221619593005, 0.5117227914018847, 0.7850501350766875, -0.5053770502712942, -0.6785875618818414, -0.22471043339657376, -0.8995898284792668, 0.3440933264603635, 0.29074151420201927, -1.3582482382239134, 0.05469854348847823, -0.4456822716667734, -0.7353564998302112, -0.2733385033303901, -0.1450762260247688, -1.0824883737682398, -1.6533298340384623, 0.45672224617060136, 0.12869857613786367, 0.33156394115149795, 1.9369586676487311, -0.36203094352737153, -0.23470286449548708, -0.373005499593358, 0.07040185421430921, -0.9408767050417199, 0.7364955373318682, 0.7671892977185555, -0.08966377399241199, -0.948720116037899, -0.3481479954028744, 1.3147252799501565, -0.7232787125249601, 0.3711438523438991, 0.5942420562192909, -1.0409273121260256, -0.15124706510214933, 0.12407245176623598, -0.4075231444296639, 0.34631319978488306, -0.34508334707061117, 1.3859463842078623, 0.3306339875730616, 1.3000490362924235, 2.6445618517621003, 1.2868391196475657, 0.47884870486684666, -0.5259645046921961, -0.09728480544758013, 0.18775482038427227, 0.0069564386276739, -0.5522528167861288, 0.5804971479812736, -0.9717492367945542, 0.3218374700431813], [0.6688229919123806, 1.5266731237977098, -0.6905585288606154, 0.1145094707222503, 0.44444649237071265, 1.0475352737024273, -0.8958890485835436, -1.39194811051309, 1.5919352985143571, -0.6070555511339255, -0.4234501615292716, -0.3431073447869479, -0.16706975227680884, 0.9540514038942897, -0.042564707207127746, 1.4958618870946367, -0.151947836425915, -0.5778433353828781, 1.3005565187817327, -0.5261632239227493, 1.248139816903604, -0.9316167653942428, 0.6041444441203061, 0.9166537905160358, -0.7702745562255171, 0.46144931711830406, 0.46614953597122427, -1.7283934446457727, 0.7264118433279959, 0.0011852760669131626, 0.2297330231219096, -0.3084735258160382, -1.728229692934778, 0.479482884236268, 0.9488928804918798, 0.15696890859452253, 0.06522344568629117, 0.021636148915574756, 0.45421029969098203, 0.2106478748033737, -0.9014812932213851, 1.4701405698437133, -0.7773185208679823, 0.3096969295867048, -0.044479478228091694, -0.12516458210794584, 0.019301406549782598, 1.335998718214689, -0.5540335958669871, 0.5442932105650955, 0.13053729912254589, -0.17254825435736457, -0.5132477277363544, -0.6606267587416887, -1.2579876787257047, -1.2867276865980852, 0.25070197178758874, -0.7577727933058104, 1.8448390533279126, -0.33988262122511703, 0.26499931111880426, -0.8279285601213908, 0.5368725992074116, -0.17082704516340683, -0.567701304377431, 0.552911678690906, -1.0540230866605302, -0.29717993179217783, 1.318422522388596, 0.09221916985028755, -0.13455917830147654, 1.2709032811104815, -0.18369681090545947, -0.3784360549891658, -1.1235583191353424, -0.1890902023812394, -0.6175889980000542, -1.752396160682852, -0.4990778733332232, 0.7432277640894374, -0.2489143859909251, 1.5134549990635051, 0.7159779750201342, 0.6752462573121765, -0.9506187706758819, -0.04897326803992896, 0.7516604846430922, 0.48635035615618033, -0.1826236548665149, 0.30465666698079485, -0.28089386002727595, 0.06546013957834908, -1.6892593240225207, 0.607112719710272, -1.0172805355046397, -0.1842833924304124, 1.070211657325732, 1.2886106156654153, 0.6642290435315539, -1.060100602372443, -0.46608549269955046, -0.7733537756453756, 0.7823716142530573, -1.035125785444897, 0.49241373573347247, -0.7998065368906654, 0.6277064759780822, -0.32933541381663123, -1.0914674906903838, 0.09715575668106156, 1.4447961507275142, 0.34588549267873087, 0.5372602840577031, 0.7030580000868819, 0.2585812213387647, -0.2395769471545431, -0.30497892505391416, -1.0691541174759533, 0.16092223503796538, -0.32251358632560334, 1.2021391624061957, -0.6315966029800031, -0.3916735698781888, -0.0952541711582881, -1.4592951797631655, -1.3919179744161458, 0.04297190149023597, 0.3019130306922166]], "biases": [0.0006396293529990336, -0.0036142527281862336, 0.0005106236843704667, 0.0009815880063803297, -0.0011936927454379372, -0.0037948679957024944, -0.0037038574792531, 0.0037697376630490987, -0.003962165989258254, -0.002907843894985238, 0.00021345691404272969, 0.0, 0.001942202338808024, -0.006996607549645733, -0.004401927165360364, -6.468043061334905e-05, 0.0, -0.0017175162004538663, 2.75802063393578e-05, 0.01477802960582157, 0.0026772623802018706, 0.0, 0.007276688609625983, -0.0032812269488478062, 0.0, 0.006016328891744651, 0.0016691553756179977, 0.0028112296462659996, -0.004673499044467495, 0.011755384859350715, 0.0015250239555599078, 0.007564809054853207, 0.0, 0.0019292121006323879, -0.0037093592139380758, -0.0003114508552625047, 0.0004304967546602888, -0.009883678635860201, 0.0023898710667815907, 0.008847878330621887, -0.0021831815278545315, 0.006185370553149358, 0.0032818336285077563, 0.0012931527630872873, 0.0006875938909639623, 7.311510390674831e-06, -0.0030205514000076644, 0.0014739558338799708, 0.0005209432808171877, 0.0031513239129124736, -0.0003636041506423469, 0.011497119069049936, -0.0005428818326154909, -9.724375877792038e-05, 0.0025073229575137603, 1.205660379990892e-05, 0.0032093465449837405, 0.0, -0.0006047351331763572, 0.00412217384360678, 0.002853266019254326, 0.0, 0.0032439068443135956, -0.006125096519574013, -0.0003004684424483039, -0.002018514548943725, 0.0, 3.7822514290155016e-05, 0.006271009125083173, 0.0006121096525225616, -0.0015260531678163419, -0.002092266814669664, -0.0014864075789023541, -0.0006390762917107926, -0.003179987442284763, -0.006510064232152058, 0.0, 0.0, 0.0, -0.0012653455101919175, -0.003777391911003584, -0.0008989576916914482, 4.547609508677145e-05, -0.0011018638453921708, 3.5498636923731143e-06, 0.012358095386030624, -0.0008449278718571874, -0.00268533033779594, 0.0, 0.0004608164387855604, -0.007800910199560071, -0.0017291145959006842, -4.750838560737784e-05, -0.0016443179755009122, 0.0, 0.0, 0.0012438084052331252, 0.004921011571992989, -0.0018206613510688503, -0.0012686238240852668, -0.006614525066697437, 0.0, 0.006375009370559092, 0.0, -0.002007917259964515, 0.0035058401932852173, 0.00787842721723836, 0.0016960059524984326, 0.0, 0.0011316975638760492, -0.0027127852917767496, -0.0002459020094740716, -0.007919710462701622, 0.0040571324065312745, 0.0004421070621223596, 0.005542359038677821, -0.006235129812252458, -0.0013830317478028102, -0.003561006148680004, 0.0010496123253126025, -0.0012496643307790857, 0.0, -0.0001325897963951608, 6.121791591691489e-06, 0.0, -0.0006501221766606525, 3.2129951553768143e-05, 0.006215275664148652]}, {"weights": [[0.0883489923529871, 0.10059881738804799, -0.016055390114045963, 0.18875661720447076, -0.0009576087117837507, 0.16455244194776336, 0.06992431053515964, -0.23029682819387617, -0.16048407262698158, 0.05011485245761553, -0.39222655976053866, -0.02033433659839534, -0.09807466162530348, 0.03403513369754464, -0.005545732492084651, 0.05961134529807401, 0.0355501935126573, 0.1127379358611779, -0.006554552320606368, -0.17575062907310732, -0.14029108279182795, -0.014490876542096798, -0.2419126864548318, 0.06197235341552095, 0.040720480933495874, -0.032257021689553876, 0.011103744976072173, -0.16734588211406773, 0.05029004059238679, -0.04820099326610373, 0.12365830433163066, 0.23222874999303783, -0.04389238507139478, -0.2452170815019903, -0.10768874016190289, -0.21608470171882027, -0.12910837634009578, -0.02035551663393028, 0.14588263955811132, -0.05901012567806295, -0.1381878162817143, -0.1887348475661885, -0.02124166861279353, -0.08388206560258221, -0.06403077947802292, 0.13224560737948354, 0.2972771204603741, 0.022052186858820506, -0.04387420020587194, -0.009605125399509423, -0.10859784559441557, -0.08318075955615462, 0.21069157952549547, -0.011437215103027316, -0.09650002142509341, -0.02278186769275939, -0.10802576066359314, -0.2870282373424138, 0.11076482424014873, -0.2260179817548826, -0.014974012673069324, -0.1935269065403623, -0.016338682081992066, 0.055826433390962694, -0.17957304481591807, -0.09559482470934931, 0.1692556274462059, 0.17443322868149827, 0.25646363255052734, 0.005652246381653443, -0.008498071102328609, -0.06445003816870937, -0.0182022374509925, 0.12513930526351272, 0.032998451903696296, 0.10450230050173477, -0.020605423849102227, -0.2330029337015908, 0.14873519684407616, -0.09301648127587027, 0.05870237005746764, -0.09161841858246057, 0.16754061468581227, -0.1925838492545208, 0.001232594363727184, 0.38801829373073854, 0.22764527315143662, -0.06969186940832063, -0.04820897709112434, 0.2427833124717209, -0.014191323811198994, 0.07944524694526071, -0.21970740061406263, 0.059299461296980736, 0.08082833316294841, 0.10038098573428073, -0.06136587591359746, -0.1076146655218934, -0.127216026044766, 0.09863369516922033, -0.05249725309848946, -0.003039925314375645, -0.05191102947572252, 0.019277276314912394, -0.21635271878395512, 0.12639680929689875, -0.07759442058494412, 0.17222546537617614, 0.07710488050048743, -0.2561471253822518, 0.027504654286228898, 0.14224180280768445, -0.0015348875075175282, -0.10600863894289093, 0.05362796896053198, -0.07942844538045463, 0.06649185502966552, -0.06011300254611427, -0.14488925872464653, -0.12831533323476746, 0.018763164234728347, -0.22214588214850886, -0.0029409667979607137, 0.04513175351714186, -0.0077945392295787385, -0.031013429817317525, -0.01306363177522196, -0.005498091482341149], [-0.10595307810932454, 0.15017371653729736, 0.04395132203453178, 0.09664735559130608, 0.03989034031695191, -0.16971567790374692, -0.19507431119137172, 0.20953940498434434, -0.08470757451729866, 0.11486828883733147, -0.06558354098172017, 0.11930434824740217, -0.055493900351973775, -0.05486605266757741, -0.009919889307269126, -0.14725819366180784, 0.07830213175387497, 0.0988661592345846, 0.2566629624363612, -0.3250956103132783, -0.06109908367461028, 0.05527848364788754, -0.03756828227730909, 0.01889688941842062, -0.27736079669190344, -0.031975919616871865, -0.09361852788199723, 0.20250888018964897, 0.019267270890642424, -0.1492287157979714, 0.10872385890310936, 0.0880949546546003, -0.0338696047472171, -0.18623027012579887, -0.1259012668898312, 0.12040400449329407, 0.027498135631899727, -0.040278508759839536, 0.008082378806331897, 0.13982612439134479, -0.20863316883925626, 0.14612384921021634, 0.01917882316062141, -0.007599515193099792, -0.019762963186200865, -0.053884902598393604, -0.14142356162337527, -0.4170154859209151, -0.04227294960898625, -0.043076172274992525, 0.2773049365037998, 0.05975824095033409, 0.029805570999297894, 0.11059693458417419, -0.011028690481770326, -0.04376013599082877, 0.0896000318712667, -0.06769696620455828, -0.2795134460959236, -0.16487615280011347, -0.18510048012066085, 0.04866192334472881, -0.005847524831726784, 0.29743499691280284, -0.07111438765006264, -0.10648982686965876, 0.06134062605085254, 0.2070081940198151, 0.15269448912158232, 0.30617163854896473, 0.141250471047246, -0.11364130341904519, 0.19390650477960825, 0.041793959413875495, -0.17454040540070423, -0.24325530321779823, -0.04144040942575261, 0.08911552671547782, 0.10339595227586876, 0.18289397118272638, -0.221477072102628, 0.019878677825728514, -0.06225693364709009, -0.07271585225367412, -0.08207800086585272, 0.06019132112036057, -0.046988625554863904, -0.1626086201136162, -0.20481426432073477, 0.029480226221822645, -0.004493835885444418, 0.07822923091210393, 0.014966657303653966, 0.011398480764087698, -0.08576535451352568, 0.2831122564533041, -0.15148648586443608, 0.2433535480821933, 0.15767537596355422, 0.18108695043907252, -0.015186385792267736, 0.006805910248822461, 0.06450325289116506, 0.16807816241154727, -0.13331775252414313, 0.17777488047680004, -0.09630157544760047, 0.1263889533528813, -0.13194052527164377, 0.09803309979000878, 0.03346733206069723, 0.12328517647668584, 0.06947317186831879, 0.15052514674574458, -0.21340476597071198, -0.09547813082781793, 0.1670284767617301, 0.004014897539472431, 0.08957363593360305, 0.018914427634506382, 0.20331320122505583, -0.07643517154392535, 0.06511712638156009, 0.20744131882633798, -0.03655609882786447, -0.09870805489594593, 0.049145502067206526, -0.007515666228315238], [0.13201238244363686, 0.04639220589848958, -0.0641926265463611, 0.16490452462081082, 0.06791991861085428, -0.09544715493840074, -0.053842523729742756, 0.02969305674497258, 0.016569587990774695, 0.03010072079925287, -0.04931412434975444, 0.12746796956299383, 0.032969530170490674, 0.08529811569538766, 0.10606790886696367, -0.09355661495761966, 0.028754061380328634, -0.11604315332779382, 0.14389469642562236, -0.01714272697865379, 0.05965693834945458, -0.027606606651689236, -0.19950065416369173, 0.023606710693884727, -0.17193154248198206, 0.34255992837635285, 0.11951630383224175, 0.21011243011241426, -0.10275882858389751, 0.08350890036390465, -0.01484489778734674, 0.12646061501902955, 0.10517790958305463, 0.1185516816639665, 0.17368757634531046, 0.012775269672841158, -0.2858085515149144, -0.1203338252652556, -0.10577590241880264, -0.0014729222075040673, -0.17638615175323208, 0.08298535543761483, 0.03634774042259559, -0.20970990284756194, -0.022771310747945358, 0.0918049106128072, 0.129430798254786, 0.1542860540496599, -0.011688053905330417, 0.03089262609441425, 0.1940625486235018, 0.15501916579280559, 0.04542590007315233, 0.07079572891142243, 0.06436607032023725, -0.13740095084459444, -0.07329223330953136, 0.13699341078863486, -0.015456535617050677, -0.12367534555391425, 0.1206975239585548, 0.01346813938385029, 0.1401599281644476, 0.01651033605087992, 0.033878058460977696, -0.17620369206365344, -0.000555235753061198, -0.04881567898034171, -0.02099497791464183, 0.06315182757349289, 0.021811721222291067, 0.01681706707966624, -0.15006297466426877, 0.15478643195058647, -0.027580444715908856, -0.029419094933710786, -0.061726708575977715, 0.06823632885082957, 0.07870285445194332, -0.11259778030030587, 0.15721282652210916, -0.14405758620607848, -0.055737387196372064, -0.16472774942561025, 0.08949216402247501, -0.07208331034106505, 0.2590837432062367, -0.045659240435834, -0.2701468603963875, 0.056430828555348735, -0.01903036870624407, 0.11158571341085398, -0.025968852293714487, -0.0451633819135273, 0.10142619742975775, 0.06648403227055177, -0.006555992978731508, -0.1872535329906423, 0.0677950658424439, 0.07301523842905899, -0.0327288298021862, -0.07329852768037261, -0.021523837990685156, 0.1318298439783233, -0.10066731785959798, -0.013510798210385377, 0.133464112971007, -0.08739705201334866, 0.026085437350478587, -0.020169429963308352, 0.03574426836582344, -0.09336820597055837, -0.0013548365041489278, -0.06368860714937628, 0.01809032177367214, -0.03687892760268251, -0.19773059651951497, -0.1445170079968131, -0.1672904244273882, 0.04087495969984884, 0.10656392703896597, -0.03805494344914856, -0.22085132367129431, -0.13520158946513672, 0.004696367730244643, 0.156969038375094, -0.1641528672357608, 0.00838071690385351], [0.01429018534346588, 0.09782872686365218, 0.13959113324065942, 0.0518632751139613, 0.16531462160676427, 0.10002408985730532, -0.10815954302336286, 0.058972568184859395, 0.16503250563278668, -0.21083999063399692, 0.11139104562165714, 0.009843819598567352, 0.05774354918564256, -0.083086926680847, 0.13370650280992952, 0.043989755857146526, -0.0494469936227645, 0.08315852039078711, -0.08340024663444703, -0.18144402845046112, 0.1322422151074794, -0.10033764425405502, -0.0015549829153495372, -0.03544668737084367, -0.09840952304119663, -0.03720199506368027, -0.1386052635365154, 0.12126529826186172, -0.002901845874055271, 0.0431860366353246, 0.014198767006661893, 0.09868004268744872, -0.05093297859045048, -0.014523206218080214, 0.024872429127276975, 0.07882441532735246, -0.14700833348918385, 0.015368128785499207, -0.02802346151545181, 0.09857303959044283, 0.006924923051581188, 0.04963454860310583, 0.12828149539558537, -0.13321500645513268, -0.15565283708989264, 0.2538999615230643, -0.09904139479013607, -0.08554608668609971, 0.09075184852899099, 0.08213655513560697, -0.05609480309124066, 0.02101602075048853, 0.016473239853882174, 0.008721844964194557, 0.07012625461453796, -0.1812587329738827, 0.07474920695793415, 0.2105351115490106, -0.11571342993858635, -0.08902416301131472, 0.2482389813263227, 0.053197025290373054, -0.030110713923420577, 0.12363008838796759, -0.245727636684099, 0.24814716465103195, 0.2963101842993436, 0.10646515791081011, -0.013656185574526936, -0.0652974027290141, -0.12216897850853788, -0.023061853888588765, -0.24530762058402225, -0.022691335604774848, -0.12672771751318587, -0.07940042774038925, -0.060670868905380995, -0.19738390065926942, 0.04958287013821117, -0.15707862436129777, -0.15470224975364605, -0.04670271478379999, -0.007391572453050133, -0.10719691080113876, 0.00013288924945241776, -0.05233197258590509, -0.09499003113677633, 0.11585961535499376, -0.12701321367101798, 0.031190376450880544, 0.05925913241307649, 0.11206067542808164, 0.16880578146078598, -0.23394684316284808, -0.204360197084946, 0.056342686740906256, 0.09679955624517728, 0.016484608958456923, 0.01331783567796924, -0.3959938239564669, 0.011851072252652724, 0.16349575373773545, -0.035965798449203244, -0.11109546432243726, 0.07490135117916663, -0.037731465840196265, 0.1604897639194608, -0.057196697167422594, -0.05923980234506677, -0.18206933922994548, 0.2119623226081942, 0.016162734895307625, 0.13280979358079786, -0.10853384191522197, 0.20057135779021076, -0.06789771679581673, 0.03698692007374286, 0.04071081270404574, -0.020012188239594185, -0.05542548445934252, -0.19811040941301597, 0.03582407228163249, -0.14758858301834502, 0.1469286975091006, 0.08604138237173016, 0.2882583706035395, 0.13759127745644356, -0.01745553982881049], [-0.11009783357970118, -0.1842930753586362, 0.1350135273385131, 0.040853562761192584, -0.1070675975281671, -0.0008075033751571299, -0.10078170058277325, 0.021147516231479098, 0.005443628784248027, -0.19091890933150252, -0.07293364293709567, 0.025271243651251638, -0.3284755469870042, -0.011735671271427422, -0.049593156394436434, 0.22644105528223696, -0.051194060774037084, 0.05583342896591791, -0.18979317363914586, -0.07807819556465197, 0.05099559650296518, 0.23927613910599202, 0.024695229130708974, -0.20079744302778818, -0.09602632670439284, -0.051941684592944154, -0.09492307415262988, 0.10576786644457764, -0.2893000915738564, -0.08627410665357156, -0.13891650510608336, 0.09059242130088338, 0.17969286419704034, -0.043393454969463466, -0.05354043287105257, -0.1357453036455716, -0.19928925033902145, -0.014887251226570657, -0.0966107242908061, 0.10265884126831867, -0.11356969851956782, 0.04826641574591445, 0.08883577240032516, -0.1530030640374138, -0.17061866453553232, 0.13140192374269224, -0.12163646097265243, 0.01779114712198863, 0.08755204655635239, -0.10424796246518914, 0.37378180726806837, -0.29108247855733577, -0.1793881073750601, 0.03807410971046237, 0.06378276264683531, -0.1694279549238083, -0.18239735189308942, 0.036261077394077364, -0.1644485219057969, -0.05352988292886818, -0.027647437870995262, 0.08439634407262457, 0.007212856130045309, 0.16108755652587814, -0.2028485718951155, -0.020836627148092705, 0.02535237232562886, 0.11659382907760552, -0.042864630505332534, 0.05372735388291005, -0.038231204878352854, 0.14073938457382032, 0.06102042175814861, 0.05771070780135271, -0.0019068689445507338, -0.026006209941754954, 0.048111267552817596, -0.10871094726262609, 0.05689764986328962, 0.025324479001516232, 0.3054314199928007, -0.04229235723962508, -0.08210765306615095, 0.19012183454546383, -0.12159138638241575, -0.2038143805931903, -0.06261411943776553, 0.00463280735076618, 0.09522690747554528, -0.09836930890570103, -0.09413743477817857, 0.3004424914400864, -0.04663755660801929, 0.055072076880361705, 0.014503614436514128, 0.00356232286373398, -0.13349413191199905, -0.09469385641396623, -0.02669201215289722, -0.05891362178655114, 0.12982253281685877, 0.05786900949886251, -0.04128156947142636, -0.05001182184755988, 0.04263907666237916, 0.14703679272984027, 0.05007895541373393, 0.05365750509018081, -0.07924785786520684, 0.14196614267988347, -0.20428712295676105, 0.2802912784270303, 0.12590937283157647, 0.11221943008667337, 0.015325309329546207, -0.11266717865622651, 0.11922855286321629, 0.11480064614245361, 0.12157432304197816, 0.022836384458877392, 0.18897836614537833, -0.017256977394849368, 0.2085468225871728, 0.0458327840795023, 0.1993724948215811, -0.11039242215355802, 0.06821205708159866, 0.16741387088903054], [-0.32416708221842494, 0.2674590379319908, -0.09395545152479313, 0.204305782035061, -0.06817947569657745, -0.015246387578764599, 0.0020647285727941472, -0.013991902250895926, -0.22908220233127308, -0.15526747979688707, 0.09010754186477933, 0.04423390292186548, 0.13496557739571735, 0.042811111347221216, 0.003745335272781032, 0.24450393251232536, 0.14079390979347034, 0.18420130375985116, 0.17902674138413868, 0.05094574228368661, 0.06989640664284653, 0.03002522550706055, -0.058626345591604956, -0.059502274427949337, 0.0731317672177261, -0.1110522332664714, 0.12264512645614738, 0.020478765247015977, -0.030504233868978197, -0.05831519776640531, 0.1789758024350113, -0.14382977612518638, 0.30666915539559847, -0.11093728710833772, 0.031319099407624645, 0.15108087658422722, 0.0942434308986881, -0.12366778122268994, 0.11018476108081939, -0.10412697397056095, 0.15166634482179336, 0.1648777330994878, 0.144678804341815, -0.013041778338598122, -0.07354919804721528, 0.09421661229527406, 0.08040291821533481, 0.10547505435704184, -0.2708915862012484, 0.1439834466566786, -0.25391435341385943, 0.04453729370288317, 0.05649432890199249, -0.1673622351227676, -0.004101473513133164, -0.1881859672038586, 0.3097594125498385, -0.011836046309793334, 0.0911338578726832, -0.074184791408109, 0.19639546447510406, -0.0879523237618662, 0.030398575278478113, 0.08859080721728707, 0.06342830066447194, -0.1079464777641797, 0.04047136939383323, -0.09982618936913526, 0.052235584802560145, 0.11692550737941494, -0.013453709529803515, -0.07324436790916039, -0.03381087738841976, 0.10586079069320846, -0.09529888411501655, 0.2369170039085888, 0.15619436440761889, -0.10301820249162603, -0.13887252483265142, -0.036186014781882, -0.1619621109918968, 0.033867545779029694, -0.019053953366352353, -0.09181515063106642, -0.04725943719758403, 0.007628829464109427, -0.0770012991365693, 0.030823244010155185, 0.07475959324282894, 0.27866633543234487, -0.019298113016415746, -0.032199574799163945, -0.1730864608951688, -0.07116651379748287, 0.009845941788936642, -0.056832102612519905, -0.004199767103735527, -0.05359320410609639, 0.15235231453444115, 0.03790806390870619, 0.06719470030790775, -0.15827040003256979, 0.12583901254927574, 0.0503705172199126, -0.09655391257558245, 0.03863266463118799, -0.09208563169739925, -0.08212638859232144, -0.10630910009768833, 0.07218923210549516, -0.17237047824258064, 0.07142010153003639, -0.09769303963524377, -0.1818095622481869, -0.06365881260480466, -0.16302612953684462, -0.09449597851346782, 0.035914478781724456, -0.14017254204003898, -0.028711595707945476, 0.11246139876754434, -0.10533918813679008, 0.13391832555104718, -0.027094192124713024, -0.18898863603749688, 0.2072237991830963, 0.13584098267241915, -0.2144667614710995], [-0.0521381181056752, -0.04641326741964494, 0.23564292735658732, -0.027776950615163196, -0.006640375986986584, -0.1775086621883431, 0.026399401575971877, -0.0913817281180841, -0.17756975055264793, 0.056403138714023755, 0.10049215843401901, 0.06786326294269708, -0.3368189884654207, 0.041577435339075916, 0.023062061630993492, 0.06464418290264269, 0.22386164891714064, 0.12293625089582699, -0.11692538842025792, 0.0871119792782376, 0.02885033227638872, -0.1048595968641951, -0.0851318149841396, -0.16855032080475488, -0.1690655613297253, -0.05155265211189942, 0.026296071649682198, 0.213756056981533, 0.0018930119570474328, -0.08958900070648246, -0.20034150792855668, 0.20755670697437065, 0.17080089689119554, -0.061998072399091275, -0.12569488113299776, -0.15801594526872256, 0.1309570783976483, -0.13486299049392794, 0.22830823817303925, -0.024401591486753034, 0.08650164796587721, -0.007730436642260407, 0.15372741809960586, 0.004923383150645228, 0.22118501989686906, -0.1458198504264663, -0.242297072982886, -0.3422227443582392, 0.007369814715468522, 0.003740088569409651, -0.06632065745882611, 0.14689811765076968, -0.08794957027164538, -0.08423008923971301, -0.09866072345148927, 0.008107757470268801, -0.14852402215284166, -0.01688472780491131, -0.0018741368209066129, 0.10502069371855981, 0.12191858408118242, 0.18279506383495436, 0.0016027989234938093, -0.07816452333840009, -0.044048821656608984, -0.27663618040504906, -0.10980699764422701, -0.011595241198087195, -0.07529045676595217, -0.005963851719726974, -0.07874584885096468, -0.18681615401823287, 0.02571086804577934, 0.08605213376342702, -0.03903055663485655, -0.03823560094640376, -0.1806782119121773, 0.09968172043371633, -0.02562474370198851, 0.0787121587032881, -0.02561587246857024, 0.0003353619148568654, -0.028815979652700073, 0.12186194251260345, -0.22911958896713483, -0.1598709494846436, 0.25548245628514815, -0.09805007280961524, -0.005524921553843324, -0.22181859702506215, -0.08263202787564748, -0.1697772786140501, -0.19337795928809087, 0.16449894574052729, 0.2755376116182437, -0.0741523001424173, 0.045934556849302526, 0.008703301959137828, -0.1496014645667326, -0.10045682202120945, -0.08555972158751628, 0.022784000140140426, 0.07904212625606777, 0.11835350792423813, -0.03767939843914064, -0.12966801695556285, -0.043758957835643944, 0.21560696556770242, 0.026937254594761824, 0.2376859077754269, 0.07160408709391741, -0.30297381400359397, 0.09096904060314305, -0.010370008330152504, -0.019982068434644295, 0.20890566189122048, -0.044636355283017175, -0.1676160982732262, 0.10987963865536718, -0.11674361845564173, 0.06378152659847605, -0.049315229102770426, 0.2399286051230683, 0.21906118706941802, -0.020505065875135425, -0.08841305871820085, -0.10291104435474524, -0.2800223777620697], [-0.21768889084271537, 0.3434748496418905, -0.0636214973906093, -0.22840107096234158, 0.06128582551914104, -0.06796263011378438, 0.28184560210707077, 0.10265883272952847, -0.033514577349824055, -0.1184562101454547, -0.04624737707375769, -0.2909793538648039, -0.058340502993611605, -0.013784668364508585, 0.016995969289653703, -0.07219210915016135, -0.08789426989798885, 0.08701835075392829, -0.09509428293968455, 0.1378379767451232, -0.033985403809678336, -0.0722786555186117, -0.014130033083717306, 0.09310664174300283, 0.21947996046217563, -0.14876544699755215, -0.2783353936467402, 0.035380301674586855, -0.14728892915614616, -0.1370038496922344, -0.207615803910345, 0.013498852851278357, 0.1551432146665841, 0.13369818428115132, 0.048022438037215835, -0.03448318565728603, 0.11090596206088915, -0.024282578077324358, 0.11877117945917871, -0.09887974605990611, 0.09316355901211182, -0.15700441713789529, 0.11042644718960054, 0.059727300660892005, -0.029191834744787988, -0.23469007091990268, -0.0011808278389933103, -0.22708317388928176, -0.17596683201597338, -0.09793262642436246, -0.0716814165870791, 0.24125189251017318, 0.13262918880389263, 0.005860930143482816, 0.02816295519975308, -0.045611975622754077, 0.1141857638838462, 0.10866149658228698, 0.024641347890094506, 0.22526562016118917, -0.08735371630742285, 0.0008966156086502689, -0.11075163988506101, -0.08542832565872006, -0.022891032177723578, 0.09740194600821593, 0.04433383270461073, 0.09257156987767337, 0.16226730129258224, 0.0407007921148913, -0.2097457044278135, 0.13270505829055185, 0.09225425834438428, -0.2352790171269439, 0.054067498105072824, 0.10575059937570477, 0.008371809966747447, 0.12373678031499685, -0.022789449557769154, 0.043107048955859144, -0.048025698621426735, -0.06397737838099764, 0.011116201050820956, -0.20131899648131057, -0.13383057612595994, -0.042884979164968896, 0.006706780894966268, 0.12080199659945448, 0.02617040761826405, -0.1280797884189028, -0.03679089833102899, -0.03906519015522785, 0.1164808922715167, -0.15001817586230942, -0.05111612714070843, -0.04821762882491752, -0.11489460470068578, 0.014712619893617745, -0.10768589018351486, 0.10136785080130632, -0.08259536376978123, 0.11433350362770348, -0.13665591639771224, -0.11359985997944343, -0.1065462975175426, -0.02744116641856202, 0.06999275725569312, 0.0766811121401308, -0.050300257422010365, -0.026123698878619043, -0.0989223544513121, -0.18169597075354255, -0.07284379789330644, 0.1736214144738341, -0.06800093588358942, -0.06444174531907333, 0.14275283713674275, -0.001279874236420255, -0.39068643316736174, 0.0345701011849237, 0.017153983792293635, -0.1151636052110908, 0.20404070782592823, 0.05126453623866107, -0.11708565612209311, 0.019926234088196083, -0.0817955245925572, -0.012126479827028124], [-0.09325248658936747, 0.03599072432019888, -0.05014487725768332, 0.1392260256077829, 0.06378005121377088, -0.03934207692870719, 0.007958912513119188, -0.09476433043841923, 0.12259701920811797, 0.0671661414961448, -0.05485877404104849, -0.06404083471487611, 0.015398529033945818, -0.10945440979301471, 0.015133523976252674, -0.04020964429551526, 0.05508474424172567, -0.15626184025937315, 0.13008235422092473, -0.10324032531200619, 0.063526992715524, -0.1111154378142877, 0.00615194711753915, 0.09276192694733279, 0.09535365646654462, -0.13514909633626185, -0.10444937331518178, 0.0854843986152907, -0.16335577845720875, 0.02481029654895387, 0.01691747491003061, 0.07002742576680068, -0.19611200638410478, 0.1829974726865809, 0.07802197258439683, 0.042651047265849576, -0.16021287373875395, -0.04477889967314327, -0.017703492503442768, -0.03234120849480446, -0.02850729531741537, 0.002851982567333693, 0.0779307286427325, -0.25153079006606865, -0.04782856762138934, 0.1476035962780601, -0.06741418722586837, 0.09153217773379654, -0.2683721219262567, 0.07734930204103842, -0.04175682019614135, 0.05823064503345224, -0.018875797148806456, -0.14343137820433308, 0.16206503800336663, 0.0957284094080465, -0.08646701692954042, 0.17095188409561726, -0.14239983671067893, 0.19546568808569378, -0.07565618426144433, 0.04290338643794246, 0.03786092994211194, -0.05451586118346808, -0.030040591619989315, -0.016992768296498345, -0.029326013636546355, -0.10655950803697978, -0.2526789404973119, -0.057440198557573464, 0.06997406529461743, -0.03900165813689052, -0.13436048117135016, -0.12617700156154743, 0.040457435391732556, -0.03465500048439856, -0.13987554082846676, -0.2196066339283877, 0.058042671525868374, 0.00888771477384463, -0.02914600063028887, 0.18293813517856947, -0.091242670308745, -0.23843124586316872, -0.050005547960446664, -0.00855047604158634, 0.014228679692667206, -0.21703391733660435, -0.05010435171168666, -0.1830050707702479, -0.021660706220503357, 0.17488531828252044, 0.13490736242261295, 0.07243740394882817, 0.21257369324502234, -0.1552642309647088, -0.0466387729572802, -0.1818417556288807, -0.024565112404705408, -0.14991905775000097, 0.10657714819860828, 0.027378129400189317, -0.10806165680507085, 0.006149563117592446, -0.08392435635141798, -0.026887290598315787, 0.03593621051845133, -0.249561573509794, 0.07392990927662652, 0.07840026684604545, -0.11601006121554967, 0.2966199835113135, -0.20189445118536364, -0.18577290264479662, 0.003957209671072434, 0.13011809907511065, -0.0005063850923663082, 0.01198787801350837, -0.07124865521295398, 0.07686520249269171, 0.07685818407202438, -0.19674012844087116, -0.009560654349413911, -0.1074082345506716, 0.12228472183341883, -0.17119047161937154, -0.12589270116046744, -0.01635967360131184], [-0.060014982072895844, 0.06082179185795187, 0.07914342311750046, 0.08877858017065733, 0.07958922260124011, -0.02111525846342884, 0.018057531372458174, 0.15185437364835, -0.03462640740133772, -0.14199554485469726, 0.10138808454950399, 0.010259946869052376, 0.27942755485239906, -0.19026451661794355, 0.26271263688745244, -0.3178308604742907, -0.11240484597588427, -0.14534697316646325, 0.18840626838431748, -0.16240387882104848, 0.1743599023104644, -0.13151714090861663, 0.002366845636174609, -0.03265425413305344, 0.07194649345542554, 0.1029272726221943, -0.28464459720591395, 0.13217498517419576, 0.18347291190482995, 0.14162992065965488, 0.15795335848844003, -0.08530842825564758, 0.20954968790767342, -0.16086471907712782, -0.17640639327454302, 0.08375086430041002, 0.06525793175787943, 0.05271173498136454, -0.3829723773885311, -0.08310565059319094, 0.10476894238367701, 0.07768478449925142, -0.2577262893606028, -0.1951624357057681, 0.01783231292173374, 0.04036702383162316, -0.14273540383891242, 0.08259850488460901, 0.14365018149619482, 0.09118116171509162, 0.09568296486082095, -0.2683373334695247, -0.04003810803574263, -0.03567930703326733, -0.16770208725599312, 0.0035048098616691768, 0.04814671367751886, -0.007763244936654105, 0.12257760023954246, -0.0783226853505403, -0.3808391559232664, 0.02635685410650885, -0.07044202636998438, 0.01808333685726954, -0.0020303578345829483, -0.18397199728952376, 0.1564028096589209, -0.1289090926370981, -0.13547677346497936, 0.13750576525800884, -0.10787662260660799, -0.0544721863051531, 0.10744159158229954, 0.01196583539843555, -0.005305307109243714, 0.09526868546580532, -0.13133224104082628, 0.13517980090560539, -0.07838027209643657, -0.01820657006993051, 0.19068251146228704, 0.09280169399019718, 0.031443077869361624, -0.029005044945541483, 0.12431900987713299, -0.04708068354152607, 0.004203362614386241, -0.0782985072096741, -0.011477558576272117, 0.11023747796795942, 0.014230137734212044, 0.07249521493156498, 0.11759967720992441, -0.07097065449110065, -0.21364706945489725, -0.050229889289291875, -0.21648486264617564, 0.1390646628262727, -0.06868040148750974, 0.11318127101799591, 0.20086844682919383, 0.04545654635416667, -0.012667947602523053, 0.22408251192571785, 0.264196904638033, -0.03646422245292118, -0.09049730446072234, 0.038779092304315955, 0.017419384054746447, -0.12874515369840298, -0.08662338809219847, 0.06939502303853018, -0.1435025690125208, -0.10605882558362806, -0.12477619918472017, 0.032747231212967076, 0.11355245456152407, 0.04457095044685069, -0.019738449412111066, 0.08468199502623416, -0.027925539179831583, 0.030145066671710203, 0.16362470207773117, -0.009445660180288083, 0.01433050976903588, -0.08602930600781711, -0.2319524341631538, -0.06903767077462873], [-0.12719069868939464, 0.04438486115941881, -0.13897997312024207, -0.1762891357123914, -0.16732640854060704, 0.07733213124156729, 0.0008893253132003676, 0.05956850492182815, 0.13574596820287674, 0.14242880265329466, 0.015356081866111261, -0.1093477625743319, -0.0025939455801485757, -0.027416384190084245, 0.1461410710417209, -0.05889489739488425, 0.12156715729173455, -0.05808589173746571, -0.038215387196282216, -0.11243725972048702, 0.041629640321318745, 0.000985644331317785, 0.0697567144388368, -0.07705127054605876, -0.11303001477366445, 0.0958581343837559, -0.019319614078398585, 0.11175561439236388, 0.01677520808319833, -0.14608172954955798, -0.0706712419419919, -0.2161252229091674, 0.11683887393329835, 0.0023177591378486318, -0.05755091540668051, 0.09830235377346554, 0.1716138222942798, -0.12033665744836042, 0.003802070571342522, 0.0602938591364446, -0.05364268846537094, -0.0898776634133507, 0.028869363329290135, -0.0433543576334666, -0.0899998834684583, -0.06660802954007658, -0.0774527271550602, 0.10767692763854093, 0.09539160894783795, 0.08091617775940159, 0.1268036752854833, -0.0245987808642276, 0.09273872251500963, -0.1390903975717753, -0.24614265902190793, -0.08622884239460968, -0.29557842856990446, -0.0077734564896799726, -0.04483509476110826, -0.0862828088021802, 0.1366590921760882, 0.10386152664892456, -0.10252942085165923, 0.051465736559118555, 0.050745556389219196, -0.12838703287085013, 0.043023038484015313, -0.08212837440715832, -0.18755311096573105, -0.064864184128688, -0.09145431125273878, 0.07333044365242826, -0.13620982683910612, 0.05920142429206881, 0.14123218376556326, 0.07778924528010946, -0.009902242946525721, -0.12100260604677623, 0.03190093975448354, -0.0015109000981567988, 0.0019635117857866174, -0.0016817038096493717, -0.03437496296410342, -0.05563654572799098, 0.09461533412811993, 0.11809966724050888, 0.05084316253132226, 0.004180812072785603, 0.0034525539537181306, 0.2453263030561965, -0.054334545652771064, 0.10731117733697466, -0.11912130761795246, -0.04997780423644635, -0.09263722050849334, -0.03784151825325286, 0.06528255943797925, 0.021156191233763562, -0.29602135508785743, -0.06478759651472031, -0.012131050647593861, 0.015641258865043497, 0.042990217964369186, 0.11371514938099331, 0.06605766104444889, 0.029383751704545484, 0.06084909106181588, -0.1540220693177662, 0.010475291454272976, -0.0656441251790643, -0.12986753818456853, -0.055827779319631336, -0.18820715698730348, 0.05638453555893994, -0.043521670518185576, 0.020343232083877123, 0.09926597509895765, 0.09534121245406982, -0.07459217284867253, -0.26893000889338897, 0.018013487194325137, 0.12380544422720999, -0.017940227927350002, 0.029767237934285585, -0.057636480155232164, 0.07929370115973704, 0.08353306221459553, -0.049403511456666264], [0.11240269138547446, -0.04437149463393842, 0.13715011371572355, -0.025317686651509824, 0.3078635328150008, -0.1581416874043137, 0.16692531386997647, -0.1871238798709209, -0.16997330284927084, -0.08197028717284235, 0.10049189053899368, 0.09127305615592243, 0.07663183463676981, 0.041964314959149374, -0.04731782906165419, -0.001218991746323362, 0.31908739482597964, 0.21700449767561944, 0.1435901528504843, 0.02663576376926369, -0.028745608991774682, 0.0586173413180637, 0.17013549088907431, 0.21103946732801182, -0.08591918719029153, -0.38460086616470085, 0.1694631498814109, -0.015793591489715687, -0.06769254556718005, -0.12880312392159005, -0.04084022521619217, -0.09278912665474126, -0.14403545876132656, 0.07719768558472728, -0.07336493603236045, -0.025214979816302455, -0.07480133535878737, 0.01201014771973632, -0.0885385413465321, -0.10849487782779758, 0.05978707622348207, 0.027790466368098586, 0.24569866632848306, -0.07375852645269564, 0.04849891910002246, 0.06731052336457077, 0.017348271308825904, -0.1052586411299066, -0.002697910171943674, -0.042706666703517034, -0.0152133246520203, 0.19949394523148295, 0.08457156228613912, -0.1455389299745864, 0.347608787032644, 0.05569705588385788, -0.13116405243319224, 0.027299307863022426, 0.017993286675282563, -0.05467418118642113, -0.04796729348891081, 0.014843352790989226, -0.04390661011341184, 0.1688373173691645, -0.04319406057985318, 0.0574969005093422, 0.020659186077667747, 0.034998119451126956, -0.15514619143418354, 0.012268616321434573, -0.09874638875879876, -0.03485829312879218, 0.23240533916921738, -0.058485956132129424, -0.04289858208144782, -0.07852066668616957, 0.03501632133491419, -0.09935918828420177, 0.10060123527454569, 0.1692010918678271, 0.12007963195637203, -0.13335962153259198, -0.11566742375458815, -0.27458823294795404, -0.021461233808289903, -0.0769480630834626, -0.07289266157734811, 0.11414797052078966, 0.010532720369414487, -0.14493900796406356, 0.08041911273120345, -0.0520891215258019, -0.09731711607361883, 0.23351167121590885, -0.00018157648493224315, -0.10177974945357064, 0.038131995798548535, 0.18823334394441565, -0.019076062538487818, -0.016940744286759134, -0.033265854066962246, 0.16192379760628714, -0.004424557410682976, -0.015632847890223022, 0.12353409212433321, -0.10722282574091639, 0.2542127100686449, -0.0953949826346877, -0.061355339970799734, 0.02357020776834764, 0.13924855197933542, -0.24532548022908116, -0.023365437626991815, -0.026373356101064414, -0.0016295628699121833, 0.009603601478611008, 0.011549878251459278, 0.3416985022282787, -0.02270759527278711, 0.054461343295263864, 0.02325071954011938, -0.12476352140125602, -0.1401590712574305, -0.18751876158847555, -0.024453671082158738, 0.016215309203306653, 0.020731870474144723, 0.019263530372877997], [0.001168759891032922, 0.0661969086752512, -0.03879679584761435, -0.23574800891040065, 0.19688152419141847, -0.08934330248486508, -0.018582650948780408, -0.054453385507509874, 0.06916025760971131, 0.0031661470141187854, -0.04901519602798136, -0.07148339585077049, 0.07181279560414348, -0.2630454973020967, 0.13610823268844796, 0.25184696768596176, 0.029130283072491693, -0.04508471341333911, -0.06556455412793287, 0.06296726167708293, 0.28763742071286585, -0.08782786000106717, 0.004321785716574143, -0.038788701910423634, 0.11604553156576641, -0.047292612880475836, -0.07911677330684086, -0.04979719640521019, 0.04515772757698524, -0.1668805731451727, 0.21070548419591578, 0.0990574473644081, 0.08686072372494935, 0.04478688726429587, 0.06465739221093429, -0.036291856774067856, -0.15852758671949504, 0.031156990064244324, -0.2022672752172203, -0.14541422313054808, 0.03290963333589115, -0.14028707101092053, -0.018754784843649855, 0.2144118058640079, 0.07767602090854649, -0.13498617283270617, -0.08375858133452446, 0.17598394743443502, 0.016788102586794806, -0.2725400898548334, -0.05983967833516033, 0.24271653259982984, 0.028177198370920514, -0.14825649012033118, -0.058958554068374296, -0.10074416776606816, 0.1609103095698603, 0.008067024560243205, -0.06529317927968954, 0.07000634803841367, -0.05510970209643858, 0.1589267738809819, 0.00030236419845133496, 0.13459961639443677, -0.16311681766282005, 0.04464618628307149, -0.05948826329474127, 0.05006375875564391, -0.0411260840962955, -0.2264732995049834, 0.1439473357005764, 0.028600589728071682, -0.0978506228653977, -0.08837469345271558, 0.092132813412734, 0.10970595543902296, -0.10066211100706764, -0.2017770202612561, 0.03433715582397107, 0.012893592660282296, 0.23853301099708704, 0.021948729825686002, 0.11738857927297983, -0.2008697341265494, -0.004484570238537605, 0.10312032488310514, 0.016891794522057177, 0.04314592027459788, 0.01015037820026088, -0.10346557529429136, 0.10021938176524697, 0.023052821853977477, -0.004549715393003045, 0.15085932134013946, -0.1233596695445477, -0.0072117474477849915, 0.24095608156531034, 0.20255694029432136, 0.10849096113897957, -0.07412200741440694, 0.0323548071907467, 0.1247195743016658, -0.06542432789819616, 0.050123404815306, 0.22192331432415802, -0.08449714200237737, -0.08433931992616667, 0.03436976732570036, -0.06033450614482599, 0.0013310250964295109, -0.14399882432224712, 0.006954012242616203, 0.07573812441720285, -0.023159891294287343, -0.05575944218917945, 0.008343797301875464, 0.06205985821597511, -0.16647169329798012, -0.09886531808385499, -0.07609361650458289, 0.22848588853842047, -0.07088723349531205, 0.04306053432621122, 0.04646969516595153, -0.07350893896617894, 0.005559680825948771, 0.16728133442786433, 0.16816900471519067], [0.13344357947971028, 0.07108889505209719, -0.064357992774202, 0.15722190335542705, -0.2268093129747931, -0.22396506097150062, 0.026090894714446596, -0.03403735069125084, -0.17019313018262133, 0.339489760572802, -0.1459424945716448, 0.08063765650518763, 0.09767041616985196, -0.13854378980521462, -0.039089532466852324, 0.064870968355313, 0.2858081558073933, 0.08727612320634356, -0.15052544834430429, 0.034075064698033834, -0.035827657096661386, -0.18054842978150834, -0.1437924945775198, 0.02562353992124876, -0.06771254521815112, 0.08767324249303722, 0.14950096163550475, -0.027201455679995126, 0.20496533389808894, 0.07221965516406409, -0.13880147424569314, 0.23362082316802163, -0.06530085074894926, 0.00048580254671378695, -0.02027635717350638, -0.041827907923986454, -0.0017872099750141424, -0.23422874565333152, -0.11689340932684954, -0.048735224504912404, -0.04619340190614894, 0.04159981740300524, -0.07997853472722734, -0.0627711419180375, -0.26451963924583594, 0.19509460881790303, 0.1634275641496468, 0.22918072249734092, 0.2829387282130492, 0.20778026698294316, 0.16381910591456522, -0.10641110724021201, 0.04751734293809804, 0.038263783094966884, 0.058196319182120704, -0.04590061060481985, -0.12070412411420195, -0.1234965069766815, -0.1256775020797834, 0.22229972041103538, 0.02030050122952374, -0.1839734218251477, -0.1183824246233867, 0.022597711089038918, -0.20763243322160688, 0.022223305494443048, 0.15241895096651917, 0.09591670952926931, -0.05806360422656883, 0.05996350997303705, -0.055490860041185947, -0.0780195407129094, 0.04717936992058666, -0.028978734261777276, 0.1394822860663184, 0.03200014889857518, -0.10590321310370363, -0.043308667074842565, 0.005546947302952606, 0.010132685225649283, 0.1190883465703369, -0.005702817819556697, 0.18085448425758954, -0.10955607314400337, 0.08722697731187039, 0.19657213754072017, -0.002261391716026412, -0.17929096730763203, -0.056023795736177606, 0.07927098351622615, 0.03590133515654974, 0.08958731571387307, 0.11864747841587536, -0.029498259017573875, -0.07477148882669503, 0.08713891674218725, 0.13087126010419645, -0.18518641108672204, 0.07734782876544558, -0.026351910721281825, -0.11590853785000944, -0.2166246296250428, -0.004374787604534975, -0.06064540826520768, 0.11131472458639037, -0.10346621351055048, -0.03733548850483947, 0.08809546952693767, 0.046869102383357945, 0.008455385322759532, -0.24359278295261066, -0.11929288169691257, 0.22804455657734393, -0.1559802526177459, 0.05476177202648086, -0.1993955608513198, 0.10368091932127602, -0.2224455118336155, 0.04765963944893983, -0.25879417589664117, 0.19086773687290987, -0.09385185733596896, -0.17772826815565515, 0.17770189578732004, 0.027422052999059816, -0.05312609363454502, 0.028950003656283047, 0.03485891252883395], [0.11740605830041202, 0.06229761245072801, 0.13562092623153119, 0.15434498473534655, 0.043644877335858395, -0.06135384228800906, 0.05257007719631486, -0.05510897715625163, 0.1907826350390988, 0.03481419146309431, 0.11733674894983571, 0.18134782988406695, -0.049787811019688016, -0.06730680063462163, 0.23920033941509766, -0.050808287238697215, 0.03703989514727885, 0.061377981893459, 0.026123051665323138, -0.15056263295351713, 0.02379071423683766, 0.10444357084543193, 0.3762540335162479, 0.013144069397013364, 0.23502710068562485, 0.061042880507956816, -0.17007549308216832, 0.11980094558254376, -0.02135035879613489, -0.09714305240312181, 0.11478394743281316, -0.04183152618614919, 0.030440079322954703, 0.11554846355764595, -0.13553161348939705, 0.04478154567917241, 0.048497191893648435, 0.0078066715185537774, 0.1211124395148652, 0.18959451981386516, -0.004395271799850945, 0.1300493205819621, -0.08533890357843221, 0.03773906490336882, -0.03612836858989365, 0.025340790950038616, 0.26295869429030844, -0.20090724474356925, 0.04441564871532146, 0.02363000946500357, -0.1490876455110997, -0.05601094455223787, -0.0849840481239786, -0.12107541941844217, -0.07736797587848904, 0.1553042227447199, -0.013707972640648084, 0.010748717840750618, 0.13528043365603554, 0.15212933051956462, 0.05497711252281208, 0.16690554094703572, -0.11284023230308662, -0.14790583785692196, 0.07401691511855217, 0.09323879345793795, 0.1025788381554443, 0.07138775863169984, 0.08367064342086478, 0.025980585038024598, 0.11804905685780048, -0.013086934653485753, -0.01157473166293959, 0.10082282274914017, -0.054004043548588204, -0.0888623377061195, 0.18124512945163324, 0.03099432690508197, 0.0021711796734643525, 0.3343649279947624, 0.13449159264476399, -0.1340991773771844, 0.00983366469464806, 0.07854051055371498, -0.24768704100007938, -0.0928707771636255, 0.0872073055203984, -0.11329589868317021, -0.2771957099416938, -0.04028314739877332, 0.2021791690333227, 0.22019637976001363, 0.22752460706989275, -0.015734177319205154, -0.26112457367711683, -0.21317619223124443, -0.23403876634395485, 0.04711465758216612, -0.07661347443264033, 0.18295528617857937, 0.023470241970454213, -0.20397291266261164, 0.1383507975181271, 0.13805170120321686, 0.14132942693047548, 0.03685530689051404, -0.09206547327929172, -0.25429240714809204, -0.09932050036377346, -0.22585742339111473, -0.015079757453530273, -0.0825295380532959, 0.230351318385767, -0.016062847214871154, -0.12657944478425484, -0.12721653091956067, -0.038399975273016716, 0.09153759266626284, -0.15011989363998532, -0.008571845443113749, 0.0946662904038297, 0.18088887601307652, -0.010665534908921645, 0.04127344598081147, -0.036548093983183566, 0.03377045177437871, 0.04521631860611444, -0.020602243180741744], [0.1005954673416279, 0.029156481936148827, -0.09357728297113686, -0.024320780764517876, -0.15244549481210262, 0.1336554283349098, 0.1507807853092912, 0.1181714433402258, -0.0026411390470258604, -0.029681214951815457, 0.03625512941498492, 0.2787090654082378, -0.007404717684621837, -0.04199790127775095, 0.20723348190269342, -0.0741258714685194, 0.16122830900002255, -0.10820427572805658, 0.14720753012046753, -0.02727652507319229, 0.04151552188376089, -0.13501788406223494, 0.17474600415219801, 0.14561438769367074, 0.22576744600968982, 0.005385324981824464, 0.012284287423462619, 0.19855158524674568, -0.12309551448265088, -0.47099694545732995, -0.22444260861808027, 0.17127710967166185, 0.006032293305889593, -0.13917936003477202, -0.0660549987258488, -0.014412040820960436, 0.07514569024730831, -0.08488868058019733, 0.00010489274266175964, 0.062250554855344684, 0.007685738097466179, -0.10706416623661062, -0.04658699249579905, 0.11207117875534361, 0.021963824621868237, -0.01612241745946156, -0.15838510845772374, 0.06538637861071975, 0.0124476293178955, -0.2274688779963017, 0.02310003009365368, -0.19342893341052467, 0.199608368031634, -0.1734628937881962, -0.047834103738559945, -0.1039232897857086, -0.07887334338924014, 0.1469002379871571, 0.2618219402917213, -0.10336447432666272, 0.09230944110384581, -0.30396389280749986, 0.06586973832034802, -0.026672974734239956, -0.021553579055852694, 0.0826976115586399, 0.14613112760847344, -0.0036868846740271562, 0.0619799017781585, 0.10516226652685091, -0.04871372421541747, 0.14849596123478767, 0.08579347378106693, 0.00018122911016735864, -0.24687837220732473, 0.16290807214364425, -0.04208503348851472, 0.10924277245296474, 0.13266114526788453, 0.034034248319729996, -0.020161752298424627, 0.10120215046325876, -0.3279484000761782, 0.019032900073831995, -0.15877280002691305, 0.29657093117439465, 0.15329450050623203, -0.07292537349219036, 0.12276590271996972, -0.040700585412561455, -0.1601890982251095, -0.03924381342167723, -0.17635131589434333, 0.12338356933036712, -0.11831379588450626, -0.05848631523216454, -0.08669056598871083, -0.08964673320316566, -0.017105176848905435, 0.0674864200496743, -0.08588641130491363, -0.13733972833262556, -0.24179117644760506, 0.03231472672674854, 0.10796847215133304, -0.10829995172639612, 0.047239578316041884, -0.037528466184610226, -0.1715600682430567, -0.11688775556086946, 0.2884613480499768, 0.05233303454042523, 0.0025744019079304977, 0.0702474821139539, 0.02798869237675428, -0.022481444775567353, -0.2571555936425145, 0.005447880929597766, 0.08299617891725121, 0.03940253088253894, 0.05235124787606451, 0.14229952684169567, 0.14031842106203452, -0.22359723835831352, -0.021653120094425517, -0.03815548005602216, -0.06807299061320625, -0.025516471123839743], [0.08738409847206877, -0.03806838072064655, 0.24454344093371327, -0.06836677295553871, -0.03793710635471626, 0.15775626229276793, 0.10262952982210409, 0.05162659054635423, -0.17413701362319298, 0.12753807243969947, -0.06819801657237098, -0.008006549781150004, -0.06129410808849069, 0.225888897903055, -0.08887394954935082, 0.08579114986661868, 0.051741712394787844, -0.15906330079619932, 0.17741162095423388, 0.017467389841441874, -0.0823175759758067, 0.03508761113342773, -0.299763003961142, -0.08668902151740693, -0.11229061574244406, -0.11689777801228086, -0.0031848831384679857, -0.12006845431883272, -0.016885679604497012, 0.10903219356583373, -0.000542516746530031, 0.1679357557387458, -0.029966035665889495, 0.042297357797521834, 0.09512095572469573, 0.1909662486415511, 0.022584222430934615, -0.1229031009974156, 0.18495152363926468, -0.05087491953595495, -0.08966127068344466, -0.1233919116136081, 0.054945250942486694, -0.029453348195291836, -0.04042577344250374, 0.09410382777445869, -0.13660002073446367, -0.006706772360997362, -0.04919086478866897, -0.08462437779038481, 0.32881828890523307, -0.05550008726432789, 0.18484127747745133, -0.03232007327032751, 0.006341665219224493, -0.21257583158883345, -0.0653896123359001, 0.20769344225039738, -0.10330188179519065, -0.2548653308196491, 0.06001408868166319, -0.17637036440215068, -0.025513971732346003, -0.07540896863238032, 0.11036598050050943, 0.28129611628278234, 0.012922585011325715, -0.08292844139212237, 0.036199299970186505, 0.10170878653058214, 0.053159962929796446, -0.001990080427958579, 0.03128927594852716, -0.009891071366067159, -0.10919721584673972, 0.026826549178744153, -0.0718212254421927, 0.31218185127416587, -0.06459427625900802, -0.013880060294704101, 0.0991448929121253, -0.05269645788349921, -0.07936606934065613, 0.01790132195123421, 0.16780399519374295, -0.07549843241811345, 0.17026406271336791, 0.015632841203508722, 0.1430169458523523, -0.13049348164775026, -0.0319946107078377, 0.25005548319491, -0.028727488129425154, 0.20227709031309168, -0.01894969066728833, -0.06343908547341634, 0.06362620775318842, -0.06108222075681013, -0.17612682555800943, -0.24115596829188116, 0.08999589006594912, -0.135476990046536, -0.3253542036127079, -0.11082523222782574, 0.09137751011397172, -0.19947382041334982, -0.09212399941814702, 0.06313602152096488, -0.13294263256654243, -0.04994224806920112, 0.026242433357931316, 0.055794342147569766, -0.06266653507850466, 0.11093825004392628, -0.007832667459005361, -0.08773908047619486, 0.2895500490200234, -0.18377304617733842, 0.09633841072899696, -0.20717348146226333, -0.11457006716297878, -0.14454642763624168, -0.16913980825018302, -0.1887136144293769, 0.05504197557419569, -0.09927876606121054, 0.10528226516938567, -0.019096832120287482], [-0.10567388334642196, 0.22217450376663928, -0.03407409449495684, -0.24334783376170951, -0.0033070316268873808, 0.13921915784673317, 0.030771277150529058, -0.18529254356827288, 0.035250930510136155, -0.00937870210669283, 0.08632254783401073, 0.23410607231519018, 0.11612791252734732, -0.26971669950386096, -0.20675310299504698, 0.06799487478064634, -0.23674319133405225, 0.19554338902123766, 0.24284086715045441, -0.025636122009696824, -0.16492954826293407, -0.21912098279406095, 0.1944774404025196, -0.01710122340981326, 0.08919462537104929, -0.13356907075454236, -0.07887002752051758, 0.10329520088553183, -0.31697192834048477, 0.10232537111259377, -0.15768592876078208, -0.10191685904840085, 0.0965930274282566, 0.057063339116862434, -0.2613105997757873, -0.10042337340822086, 0.09605217076144051, 0.044041449705154896, -0.10253544354277176, -0.06047023945836953, -0.05733343949860329, -0.08248259308687586, -0.054541547766778255, 0.0624875302657412, 0.1370923734147082, -0.013102727534300643, -0.16055865003923012, -0.04888603072145787, 0.018115107334018752, -0.0885850690463454, 0.08782556609915709, 0.07445635883702445, 0.007871912138977156, -0.19636695813087285, -0.006631779318459692, -0.037155555140400316, 0.08601103634748947, 0.11909881299296106, -0.05637233086438404, 0.15929939913130395, -0.09673484966462353, -0.003212429265586421, -0.05834718584931688, -0.23245765650913355, 0.01705977249746981, -0.1821652148504398, 0.1038630712031948, 0.2921386846416563, 0.24695699799252238, 0.02554198256190836, -0.08440825781906608, 0.023202045187480654, 0.04711867393813282, 0.10498461170915369, 0.1600682138279639, -0.10296856587045052, -0.30221596941350565, -0.1010562268952051, -0.009384542100774818, 0.03670204977848447, 0.15058924145702646, 0.10838662567037032, -0.11626687337967734, 0.00048684982946164306, 0.028466500611482485, -0.029529072692051506, 0.1591927501003058, -0.005890576548815741, 0.028628011783699708, 0.11614769367959961, -0.07134613183712318, -0.048413507393303384, 0.021566158004226593, -0.09883154426756847, 0.1831031722893935, 0.006135166360262447, -0.07055219439152308, -0.017030111481833327, -0.019383872463930762, -0.07506769476593009, -0.13537999534594403, -0.08432927921016094, 0.19515017792781283, 0.1148562900930273, -0.10155541713475856, -0.06272222833544784, 0.02467116555137151, 0.08644331041489411, -0.010357650577001637, -0.044999483909114346, 0.018178932607091195, -0.0048598194522295295, -0.07137503178567042, 0.12004890959813944, -0.2858968907036706, -0.11357457557790014, 0.16474720634913867, -0.009043813133841238, -0.2013239132764833, 0.032476022450583106, 0.11654590070695811, -0.029355926998629833, -0.053581204896217385, -0.11080297929538818, 0.03443262277225551, -0.11821767535578617, -0.05899560561592211, -0.22047952260974005], [0.12333466960319733, -0.23593976114825566, -0.06408041786994567, -0.02393124522468687, -0.22244576080854658, -0.04710837145234545, -0.021128754356154095, 0.14125993970536316, 0.047335155023970794, -0.012446991726265469, 0.12278830095997928, 0.05692949504139878, -0.20661721890949336, -0.046852311378251806, 0.002701216757758491, 0.050004810444693445, -0.040136090901526214, -0.2863045109941094, -0.12377831392879912, 0.008090892609789282, -0.007482217217362082, 0.2667627958772017, -0.06291595502117212, -0.010620160604453185, 0.04485558438916419, 0.07607282590886716, 0.08966985779552519, -0.09274411695623033, 0.09039482377108618, -0.034934681371847354, -0.1600905281842805, 0.05379418778637505, 0.06540455668851748, 0.0677382562206986, 0.05178053114688115, -0.15937109716761336, -0.08187846362922696, -0.06022452428477551, 0.06683818563647731, 0.0343085493254884, -0.085977351242529, -0.18512695229131723, 0.23350806783939557, 0.09248157061288131, -0.2268080246774835, 0.17664332455607434, 0.018860864591696967, 0.043171272209960795, -0.28659382284714874, 0.1677745149873571, -0.07272500103917214, 0.06176124670272856, 0.27128902112159003, 0.03094298283246333, 0.15032082658831367, -0.2798920323865789, -0.0022329509150147246, 0.1900064047023418, -0.17066358584470945, -0.11699785717993158, 0.06035040210599362, 0.15986496876383513, 0.011229184485107548, -0.23541125162178142, -0.12434043125098267, 0.015229458991424838, -0.03875862742613867, -0.06697590720986119, -0.2405563760610708, -0.17361236437297287, -0.037162998934392184, -0.07070853969477509, 0.05671327894262431, 0.054761971885513044, 0.025300758515846455, 0.07781916636635965, -0.12204930909200946, -0.03685008716989624, -0.1432435023115232, 0.19883377958279866, 0.24841758113225318, -0.18230482819495927, -0.15121729442597448, -0.10246872123607066, 0.11451844008434824, 0.0005821818070636082, 0.03996976461670913, 0.14771512311446838, 0.12677534566908819, 0.13056604880963765, -0.0743859423250649, -0.0011346270249115431, 0.054805626677831766, -0.03695435141049186, -0.0033384651339126714, 0.07398960221659825, 0.1610967837758376, 0.014844136674651355, -0.13299643026078278, 0.17251099606894554, 0.08236745546069116, -0.10039995349263547, -0.09788783867377195, 0.08756412385191631, 0.039456172905467345, -0.0019227481739822032, 0.15634855149199653, 0.009164475425969694, 0.3229833042732524, -0.2765185423344352, -0.005704500764829715, 0.1676201341206972, -0.042984523643965065, 0.15693303752677362, -0.22904007939521162, -0.06586876214684428, 0.1573046412924287, -0.056855258793888495, 0.02360185575508878, -0.14098050288768935, 0.04033998499645165, -0.051291162624287706, -0.13308490054031216, -0.20672352307292383, -0.0260969442636843, 0.056258196104958205, -0.09883359118359777, 0.11080456016505066], [-0.005257333366204186, 0.015232833485954896, 0.16871749229023295, 0.04103392813068412, 0.09581368324736259, -0.014658936375414617, 0.03253462471736377, 0.18201042324789046, 0.05817045167610994, 0.07579324587368103, -0.08040501293775709, 0.20350507886137834, 0.029326861580632215, 0.006793258753041454, 0.005084789792244878, -0.06733674832512643, -0.12720462005543237, -0.2193440330747474, 0.1474390286593066, -0.12883237681403825, 0.02774210058995545, -0.014008134833664984, -0.03433676937546414, -0.0539598995179565, 0.09791487470866835, -0.169969169658143, 0.03112013782130278, 0.0013642917558791896, -0.08636434787571838, -0.26001900726906335, 0.008633974842363968, 0.2290906886934539, 0.26020713158208464, -0.15818322770255364, -0.040342836390829695, -0.09706438108141181, 0.14760375353515984, 0.1850222073134724, 0.05494324426635443, -0.2404501516908065, -0.22501498204119444, 0.11033289981612002, -0.3041200486236662, -0.1090862184855714, 0.21647215033772765, 0.15251036354693862, 0.006297656324909085, -0.34298642748777636, -0.11127126254915003, 0.049652459147461636, 0.20567416307284822, -0.004754103662599912, 0.09534732992653165, 0.028725262906707173, -0.02442716279937006, 0.10904808905604328, -0.133328303893261, -0.06454459303283985, -0.17850975676696254, -0.16641433178302426, -0.22472686672416847, -0.10995603369370525, -0.05834217088048879, 0.03182694035438614, 0.05034700554694635, 0.04736772470598738, 0.055488136495187, 0.27321979641239624, -0.10210814989348005, -0.24693289339265698, -0.07790538087984317, 0.11189968392442788, 0.03496991974617771, 0.045105011182336195, -0.0733645208906353, 0.02743298067830877, -0.07902728517978178, -0.08179468845462197, 0.04947706166194872, -0.04609680202192291, -0.04484954706686268, 0.09469379243382492, -0.03955945389335374, 0.06940003276898411, -0.07456528923555948, 0.08048770020444307, 0.03426373687875132, -0.10336288591700438, -0.10103894793750882, 0.0661793493450204, 0.061874431912146054, 0.05495325630488488, 0.009321533374652649, 0.25938671587374124, -0.08476903370948956, -0.096263044942361, -0.10456982766407763, 0.03028673458084044, -0.16569313953600318, -0.2097957311474253, -0.09206483475318147, -0.23375989950393025, 0.08717546441330665, -0.06197106807427363, -0.18173122668573982, 0.19309716553368086, -0.04575905022743311, 0.1340781852365591, 0.0759958015887454, 0.25630581800986574, -0.015021423407182098, -0.1493476453981731, 0.28956136460216997, 0.10666661073342079, 0.1454276846777842, 0.034918234815819044, 0.1990484941537968, 0.15078470827674167, -0.1759195145380737, 0.02028692709320004, -0.06964835865471146, -0.15056021645319154, 0.06453232706006344, -0.017687319569519216, 0.03272571623241018, -0.38246421757321425, -0.02496830683548239, -0.052815757361862385], [0.09063328609519479, -0.052968335992627555, 0.12523419540653696, 0.12414911108579879, -0.11890417722169919, -0.1463164535556319, 0.10819095179571178, -0.043699148450952525, 0.03604423771374097, 0.11419449444274142, -0.15363997696722806, 0.08495960342126996, 0.08877952180169887, -0.017463850045923022, 0.032887021463486106, 0.11705617000750479, -0.09835541798471312, 0.24692839356788066, -0.1459810364526037, -0.08157000616701514, -0.12762732353056933, 0.10863607841766033, 0.09443838418264643, 0.0905353817023288, -0.06503404729992215, -0.06795614936695368, -0.3826104374828666, -0.0862713181445285, -0.09022602287097509, -0.1848721727176168, 0.23264810473056383, 0.1666041420021991, -0.027851085449661986, -0.007982756912003418, -0.17997179873935934, 0.1731075778677611, -0.02590560708510162, -0.23053470639861218, -0.05159504224579233, 0.13311132249273072, 0.0336147714397788, 0.10100817382428208, -0.09589329346769751, -0.22167157265556023, -0.07743930942671795, -0.26264919238980494, -0.09217417545025758, -0.1881921672487344, -0.12467644591331373, -0.005303659134922861, -0.009978360130495119, -0.2011106891075106, -0.008344448214075378, 0.19075656227466659, 0.029775163435720495, -0.07377902611532622, 0.08273915143618903, -0.08945283174983565, 0.26524833720131613, 0.0785457591635393, 0.1497206918218355, 0.076417951994213, -0.015863122512292254, -0.01523479855761736, 0.1766539479567559, 0.056975252113303766, 0.11083756398135805, -0.2723257365606102, -0.0006118672802505192, 0.20348708973604582, 0.2437327113166078, 0.0015758043492150905, 0.08719467947210875, 0.0014890722408720826, -0.0742536866972559, 0.02340559321828791, 0.26750283566939403, -0.051796187829969885, 0.011609225293778102, -0.16809139995641653, -0.14038838827237837, 0.12073435374564606, 0.06352189821323341, 0.2498926056753188, 0.35923179739814665, 0.1904815751425694, 0.0013310887278988315, -0.07692253027974028, 0.18368499255866982, 0.0613905799790298, 0.08915318697839184, -0.13154054610457064, -0.06340633246522231, 0.14287852422035321, -0.14900795177631887, -0.08923917824632834, -0.003337438577229215, -0.1480843036506377, -0.010711305782036624, -0.03185198192119023, 0.024155265449447873, -0.13790156582314084, -0.25055652189126804, 0.028832270972144126, -0.06200283797354691, 0.02988098457694463, 0.017757265777522523, -0.17540025017042904, -0.01670123827545326, -0.1037182374503866, 0.13515380911473063, -0.003180914982013363, 0.05857036305147743, 0.025540182429001433, 0.08963980468535411, 0.08911496497504191, -0.055364115334368524, -0.07028824462769137, 0.144796049440471, 0.026839842638749885, 0.03553936661513008, -0.21811740682693925, -0.06323752779113608, 0.1551830965818687, -0.04192368243904281, 0.09604018130344952, 0.09958195732090593, -0.03984530827112564], [0.04625460126020343, -0.08797092583601823, 0.00858372987321624, -0.05210800518495363, -0.02461590429059864, 0.02587136131680647, -0.21509935655440976, -0.021821746766259146, -0.04431376347404185, -0.06322391929549495, -0.002718964809405769, 0.018585168307489915, 0.1430223569282577, -0.07793694890966077, 0.1364280912820249, 0.004613849020216022, -0.2230402576189937, 0.1095548941746434, 0.2364923675512745, -0.046890197272126184, -0.14709938141789974, -0.030151817458728417, -0.05126018366660593, 0.09541627764287097, 0.25951553879429484, 0.16757315557975128, -0.061699235718857014, -0.014956963980421317, 0.08776197604852608, -0.05937415562748148, 0.019386304519923105, 0.25898613673824594, -0.05973654728095394, 0.052899497658985474, 0.07060358061127107, 0.05246958926571012, -0.03364216451572893, -0.10336779093679119, 0.06366818036873868, 0.11351617655552154, 0.1521785136933798, 0.21375540210633837, -0.025901002122203393, -0.044483739002056814, 0.214653693566545, -0.03405906858458416, 0.07388747301974748, -0.06500471408093728, -0.11395959121576194, 0.02850418200911607, -0.030684867674690922, -0.23866027451056293, -0.056938273337234946, 0.02030792703043617, -0.08020658552672535, -0.078906494572956, 0.05732183292558337, -0.1506048474293904, -0.03718353316775806, 0.042748572237113903, 0.05236245751352593, 0.23969242085424466, 0.21231838189889377, -0.11256880160286757, -0.028999603754353908, 0.13959222296775575, -0.15242155860905773, 0.12889444498695482, -0.0011092828364409524, -0.03081698177089891, -0.2258640592516573, 0.07999202027292075, 0.14636455686456942, 0.2927760696941478, -0.02530078298304072, -0.07289694493586145, 0.06491385021720257, 0.11101492810058654, -0.1124138057398404, 0.010906106383192159, -0.03511445773328938, 0.018441896858651174, -0.10914155386112638, -0.20051816831120958, -0.09553129500902745, 0.1175359145889545, -0.004555753988587484, 0.10880544231710278, 0.055591536097458594, -0.057684514003656664, 0.07512092743006848, 0.03634026054330871, 0.1698409968653686, -0.033050239051563055, -0.02039138404514385, -0.06358838556016315, 0.2069557864521109, -0.015862299142996906, 0.09307761480088886, -0.07675096551976782, -0.12885994654008256, -0.06816793847462217, 0.07519221832858865, 0.027172873797231607, 0.03580595304170779, -0.2897329697111518, -0.006928330211098493, -0.12322963663506517, -0.11132529243429917, -0.13218392976144516, 0.07347466735133307, 0.020808452329169204, 0.07409890120065614, -0.39930451461220984, -0.08628191658491376, -0.10493760458719838, -0.024275240423201335, 0.012079480930532615, 0.09434243752089602, 0.09365423540797252, 0.009502162655407624, 0.033628767663867486, -0.11918457122135555, -0.03936475381315952, -0.20218229164903062, -0.020519760836776615, 0.0008571504781913928, 0.028716690698001868], [0.002009212108659066, -0.024841517958301876, -0.08319090227607948, -0.19085076032020012, -0.06065667620041575, -0.039803511669743476, -0.1393503050752144, 0.07394257539036013, -0.02235588895657461, -0.04238064011990334, -0.1296735824311503, -0.11855631842133305, 0.07520192656078226, 0.04781409203513306, 0.005136417052303638, -0.08015073440499693, -0.2604479394042023, -0.017748203206916228, -0.009380323472373428, -0.0017808114749026474, 0.0011302946241651334, -0.010570041959128633, 0.08297068691128197, -0.15707712560863524, 0.020367511375168516, -0.008790095184200616, -0.15634449004536727, 0.10416595382941436, -0.019377083549052702, -0.05527155746518585, -0.09303477599571967, 0.025805339667281525, 0.09600179798429358, -0.21986162316398947, 0.13157356353393537, 0.15227637724352683, -0.03815749699753283, -0.11376695971524381, 0.13095728571880996, 0.08787034293359076, -0.3032846921128534, -0.05333156579990478, -0.047679565430261646, -0.04463187700261811, -0.2411460662191301, 0.04884659916037241, 0.14760858766946203, -0.05199345592465064, 0.003792932477016002, -0.012053033936374581, 0.13026101665640144, -0.1044802721606948, 0.3396911496911932, 0.05691571258470477, -0.0464659709596258, -0.007380905253674074, 0.3091227310653884, -0.15099209623534177, -0.011550546358844232, -0.04534825337593838, 0.03037164824502234, 0.2286541486073987, 0.2652740208264675, -0.04984216077929169, 0.11236430397538232, -0.013909183834628077, -0.013026570824562567, -0.10605570743365778, 0.06133421606362556, -0.14382400516870378, -0.1994402342777765, 0.17407834013852966, 0.10753060716044742, -0.27156798826890677, -0.25802914689601175, 0.055982548553333934, 0.11059362687852119, -0.04935265087823364, 0.03109940499265538, 0.06379190076928393, 0.0024357631368026557, -0.07503109656942486, 0.037546565248268826, -0.02279338330519548, -0.28600772158050064, 0.03325625301775523, 0.017641814164126298, -0.17005267663465076, -0.08565634529300925, -0.04455800661082498, 0.2147504430538649, 0.015850158745965813, 0.14657397729740057, 0.008668368099272777, 0.09777273670814593, 0.17023566492311873, -0.27930771124093257, 0.1173647872790293, -0.12700563988016178, 0.09137578628680483, 0.2962885233203208, -0.4004848565909989, 0.08664057251075287, 0.07316911100235608, -0.26184654208747865, 0.0037357165063471006, 0.05330697336899909, -0.1318305848202239, -0.1471430038228016, 0.06423388228483137, 0.04860730906466688, -0.16512401464644838, -0.011793696531596029, -0.2514290837932986, 0.1944302339794762, -0.08164640954173563, -0.22913467370342452, 0.028493035603488814, 0.034804539706906196, -0.03263166412675213, -0.09259275790223666, 0.10439051445316426, -0.05977546044487447, 0.01862756571406717, -0.08263298249365686, 0.15743101338716772, 0.18749272734798558, -0.008953513273773394], [-0.2017619866486419, -0.04461198245669268, -0.08139506191885795, 0.2596447868275203, -0.0040025478640036615, 0.11327636721879905, -0.000915350923356405, -0.061455121566836225, 0.17418917803844486, -0.09461776145483794, -0.019794850200280417, -0.10350223901292094, 0.16198999392967633, -0.1407256768986845, -0.032123709779285484, -0.11679230365055888, -0.286247717034922, 0.04025626733786533, -0.010433542832597703, 0.07993932301577938, -0.12820422034884046, 0.12432374896462595, -0.11042527702885778, -0.148940881905427, 0.06653211963333941, -0.15895377131263544, -0.1808814936390164, -0.0652203651581344, -0.16873657948529347, 0.008597878360164797, -0.28209257824418216, -0.05186194773946174, 0.033334644365909535, 0.01326856202104728, 0.06220458497992915, 0.06840989666998, 0.12135445095057049, -0.14037739189073087, -0.026398090074013406, -0.013013164705015639, 0.10906322802325331, 0.17755350582796864, -0.03721066431439107, 0.09167615880841717, 0.14922384770907318, -0.1288808624165497, -0.12471843656565652, 0.0512891490910567, 0.21102301105589116, -0.019539597996094737, -0.1518000427002433, -0.027372740778431125, -0.06828733158079665, -0.14428268613479955, 0.4084088661973383, -0.015103762198712426, -0.11895794605983705, -0.10291941378782438, -0.11256964405610691, -0.20425956293734293, 0.06670933981049085, -0.1056353256407032, -0.019185111806175607, -0.02394690820627986, -0.18242082398946677, -0.03266104962918049, -0.07463228762920221, 0.18542354954860232, -0.04582127163222339, -0.11029521164247488, 0.15453255868889884, 0.015994259497439347, 0.05481333437551387, -0.130687498234088, -0.0055085752758364005, -0.26855943850590985, -0.15155241612984643, -0.04886111935350359, 0.014425767414778141, -0.10813708764171476, -0.29346400818704826, 0.08884527086525952, -0.2883987189075962, -0.016546120177314775, -0.14664282473561965, -0.021128502628173937, -0.06792594298095607, -0.0154912590900453, -0.00295866286923709, 0.007258998924496703, -0.12487070994870957, 0.023136858859221267, 0.16348836614140932, -0.07981247100627115, 0.11282486638833439, -0.0782460502268851, -0.002274423161656498, 0.04786702252794506, -0.043993922859456726, -0.21840521892820192, 0.01758304789749048, 0.09492499652468377, 0.29363685987645827, -0.11884171096680403, -0.048361321024682456, -0.08152489699760342, 0.06653516620830661, -0.23359438152887782, 0.1051358033188358, -0.16043226506029215, -0.07062424496581768, -0.28540376773949483, -0.18413890632208757, -0.024620783970110485, 0.029376778621012525, 0.06313822952459619, -0.05445759813138851, -0.06949807072077432, 0.13463872983196246, 0.25037009113397235, -0.22200183159231637, 0.2256983973705849, 0.028792161422419603, -0.039064526992181256, 0.3545185155075661, 0.09255767397427976, 0.10194342630493204, 0.12505017065088958], [0.06134420171818252, 0.03246808843177469, -0.04086854418382823, -0.05522802238464596, 0.15197667597209036, 0.20527420429988116, 0.04204864211709069, 0.1434662354814117, -0.05016221153113319, 0.16785815021385436, -0.27606392254801654, 0.11487333574482479, -0.31352566062945136, -0.1306497894418511, -0.0013961927614046677, 0.11955480252842049, 0.11004289567585637, -0.11719170165237758, -0.22154530254180566, 0.038360614087272926, -0.013611934848642268, 0.051744661212524794, -0.10602790812352522, -0.1601908901600585, 0.15422519155817255, -0.22501700441473646, 0.07956323314427927, -0.03754032450749167, -0.08030102853120187, -0.11958169644575951, 0.3311407838446979, -0.13643456766123788, -0.13156421985340117, 0.13847924400020192, 0.22903841925634036, -0.09038443898227252, -0.022764210608734504, 0.024860734615041777, 0.07590113453567959, 0.2574470056752464, 0.04291572437232478, -0.07422326495847775, -0.04550930373488664, 0.07166159162395327, 0.1835122372559932, 0.10687152148335584, 0.15763610567960498, -0.1596003348450827, 0.0755162141633776, 0.09043020933227311, -0.13167803715322254, -0.15253068116692617, -0.10714834306235352, 0.2109843837396399, 0.04401040470605795, 0.02796381487446817, -0.04162559839319627, -0.12424018658187243, -0.17623188688741245, -0.16905790422263992, 0.1653706680852364, -0.03740318771177331, 0.00572955285118932, 0.062314184046514266, -0.14672423549349345, 0.18426572245921363, 0.0391080477071087, 0.09963299109801199, 0.1383988567507711, 0.1315995710195039, 0.060971566989854814, 0.07335319466328769, 0.019211350190591413, 0.1368401103868574, -0.02039573690624577, -0.007144263811915077, -0.08711882297630992, 0.08661807488057865, 0.03436120083346191, 0.010573720091058315, -0.0350744465534538, -0.03837599804630364, 0.06448046354238447, -0.23492604709714915, 0.029173814095484342, -0.20985714545887071, 0.0052816046830265525, 0.14750797329692006, 0.1048977696332423, 0.038551566655982535, 0.01795827244478883, -0.12811786114457901, -0.08207649247709173, 0.15099283623341817, -0.03330712889873023, -0.13632662061252462, -0.04511844477709006, 0.015361111538813647, -0.31189817982143847, -0.11638677053803725, -0.011673225796814181, -0.14330121849234478, 0.07977254944315997, 0.16465782235329324, -0.041416197311397354, -0.0015121383113381865, 0.01195695529559883, 0.28741002271344407, -0.11052506361688397, 0.03288003502663782, -0.06943623837176022, 0.09074637764416248, 0.1794890041601886, -0.08439955720097925, 0.10951452593548319, -0.03308032351783123, 0.07279939417217218, -0.09943701516535819, 0.09861691987062718, 0.0227687343797615, 0.006963616135442687, 0.20207503577876826, -0.19744275690123178, 0.024131494328880482, -0.1802535876065503, -0.08729604937915549, 0.07572202323332329, 0.15909798504154193], [0.04068649241721693, -0.1097485904473029, 0.03055198086031007, 0.24339124449202695, 0.03767577518419097, 0.12655321683537962, 0.06650009505415617, -0.007278534058023988, 0.045154715377031064, 0.27435277376117045, 0.04558328515983604, -0.23847461926267616, 0.06313887580800263, 0.05957003061262876, -0.06833271888432828, 0.0783802085867799, -0.09452592070392855, -0.13587248967348448, 0.14166943642325186, 0.11312561425350359, -0.22290321669006322, -0.0041123370692667405, 0.01506881710353531, 0.19455272256983988, 0.07271820843919367, 0.029788765204670387, 0.14851608341409495, 0.12189845802964525, 0.16376744811758903, 0.037438155751980895, -0.1302537205792105, -0.08869603539627315, -0.1438065570947136, 0.26186824068547304, -0.15241630726022473, -0.021603232223138424, 0.09483258889447961, -0.027411781761546884, 0.08709440899956064, 0.006407473070310664, 0.008551591039098813, 0.0412815275658436, -0.1850754894424116, 0.034816448875180143, 0.09715491879535004, 0.0005711554730190313, 0.13805208885875234, -0.008878266947419656, -0.0066067321272079, -0.03091941018189957, 0.1387128289484333, 0.1980254899454979, -0.16762276453210473, 0.17278016827926296, -0.017324328699708232, 0.009383108015787458, -0.08428261973287283, 0.13467343632323242, 0.014909032927709918, -0.0943927879436852, 0.08520445668106051, 0.0117122919505154, 0.05975339000221294, 0.0003815218394739013, 0.023154399588843702, -0.10221883405387683, -0.0070214344267430714, 0.005678087252356199, 0.10728594434721561, -0.14426254430160274, 0.06300941150448594, 0.06397387166280587, 0.02799889790874371, 0.1262904538061031, -0.1513266732360995, -0.08951418864528257, 0.06605103172269379, 0.27743535129636954, -0.13527836100323545, 0.026890104935023047, -0.25353406871200984, -0.14223964477627757, 0.038431225324871, 0.03450632633325128, 0.09483410708147581, 0.1298929327692887, 0.17313670164105213, -0.023408082731420882, 0.2057049101422717, -0.10072619122367704, 0.23364947646525752, -0.11670739139170037, -0.09810463366199723, 0.08264915459870353, -0.06276270269105004, 0.14947959463938656, 0.05875209048509224, 0.07393716855014106, 0.05599976018858396, -0.05498168163235017, -0.19610602885718853, 0.08226576884052939, -0.20660802283466878, -0.0529555878271465, 0.11666973946563987, -0.04661307922385411, 0.02836669380454977, 0.014368267046222499, 0.03572355383258398, -0.028325591094671435, 0.11421693982643429, 0.09229967042748276, 0.09123388353769911, -0.22686486194303812, 0.011172936869930929, -0.042464607867083684, -0.12947431002114781, -0.05071395911120048, -0.12459040961728303, -0.15433415764442088, -0.09721899221464314, -0.04503173809068269, -0.09798006583700425, 0.1527250665615584, 0.002920526161215435, 0.009849707248189874, 0.04314166228711179, 0.11239096769593208], [-0.13554958830004696, 0.07641452827217027, -0.007115678744799622, -0.13990616560923821, -0.2017668890223088, 0.1473806009417912, -0.013640499749518786, 0.020973818224091115, 0.0463767838139651, -0.000505872776841098, 0.08313726335909914, -0.22879111298290633, 0.07592233337098284, -0.19555039370491062, 0.07181742715437171, -0.0035462774262250314, 0.01741193199799413, 0.00951827278869651, 0.12870275022037256, -0.17936327118865858, 0.02926039081659746, 0.04020053673829789, -0.02256288343092126, -0.015923003490859847, 0.11717982956019302, 0.015741379366356282, 0.08927871588610983, -0.30913506298849064, -0.0056165129380588786, 0.04718983077127589, 0.23368203919229497, 0.13455521305851356, 0.10511695221671521, 0.04517778520969001, -0.057830497711497605, 0.06938059866113627, 0.10059905434654742, -0.0021489496462226737, -0.001993582545232458, -0.057058949046007966, -0.05953657231360365, 0.0708755517003256, 0.21991613912884753, -0.06711617797372535, -0.24605702680826774, -0.07550240434585433, -0.06136428987227345, -0.00526261719701904, 0.03122910061221005, 0.023078208482926917, 0.0686658415425485, -0.1536856765038205, 0.10457521626504471, -0.23636252016847398, 0.03730251971695493, 0.09066356582327685, -0.06441837725890769, -0.21791631610276926, 0.09238276118086099, 0.04070106115076478, 0.01645199017990441, -0.209080405201456, -0.009943716803125002, -0.12619230695241637, -0.21549909097029413, 0.30957798972690426, -0.21452102647000312, 0.0456057678142907, -0.021620688616617062, 0.048240672968496705, -0.1604825061249062, 0.11801380573499977, -0.024027835108481794, 0.0864848821409024, 0.04254424946518873, -0.10769586181568479, -0.01578625656576403, 0.11867731729589232, 0.05118489967123968, 0.023253534475599025, 0.01993841956913614, -0.22642620111690545, 0.07055355236289668, -0.03926718756330091, 0.24519371019594335, -0.09896488529713122, -0.26789840829942724, -0.09021884822316215, 0.026908181436517513, -0.02601577713360221, -0.12825221595473854, 0.03978558660665505, 0.1545834949958328, 0.1373842550064256, -0.12887394982869352, -0.16831717820483086, -0.11828958814310929, -0.12250379428562434, 0.0780481472692348, 0.11742153967607329, 0.046981515204021565, -0.04139687898755312, -0.2568151277229411, 0.030090211141894568, 0.05541607648483924, 0.06769258145191576, -0.0982645538101318, 0.04844521207683529, 0.21221074469057694, 0.09922083854842896, 0.17365734007672384, -0.15586899725591097, -0.19819339379710696, 0.03416073223044926, 0.10376042763734505, 0.180201517832453, -0.12823203787171927, 0.24527025861727567, -0.05316749208328844, -0.11511787595113701, -0.0016927091963317507, 0.012876645438603252, 0.05467017213254503, -0.055504303905531, 0.12231715491696604, -0.06274356727619729, 0.03781863659187431, 0.12675683111434977], [0.06367246645516846, -0.041246378441623835, -0.04834069651571845, 0.09488274542206923, -0.08905404797710476, 0.15277074855536668, 0.1377674608446079, 0.07947227229172936, 0.007598350669339295, -0.11125145321998862, -0.030685879847052008, -0.05971738397062305, 0.046825040388807936, -0.060815320566560464, 0.08950404978255469, -0.12946263554103926, 0.13889627245397485, -0.013805971607991026, -0.1051922697106908, -0.04704522848020602, 0.1495719637018534, 0.031943865208491753, -0.1336087431355771, -0.10590520280877748, -0.2035326945691603, 0.030425525348187432, 0.0733479966373638, -0.01702249887948672, -0.0775401463473044, -0.07000838754686164, 0.170790083086625, -0.08790075922441301, 0.2079953343289396, 0.10937415862698661, -0.1652122928823162, 0.019085104672362612, 0.010511227929860983, 0.005991181295546415, 0.00791794712910486, 0.2784212352032438, 0.047363629218631145, 0.015349413240713646, 0.21317817720394472, -0.12308146056195508, -0.001205602968005925, -0.1496144961163611, 0.05915206203057463, 0.07003581784915738, 0.022625930008423223, -0.01050236736275865, -0.2505899192884523, -0.049156431576342405, 0.10369287075696564, 0.2469745170323595, -0.10245369620483821, -0.06581670138531491, 0.04794397015435844, 0.032504015530407264, -0.025409721444929267, 0.021398909131483734, -0.30004722207558504, 0.069167468394903, 0.15537208061204982, -0.09959690602405233, 0.05754502386394884, 0.05275749691953402, 0.1842847034427762, -0.014724825244338028, 0.019553915971246717, -0.137198403256274, 0.10665929575789715, -0.057111138177001586, -0.05095615130366051, 0.059928697692231886, -0.19604060417416158, -0.11186184648846073, -0.09321553089717322, 0.28989701090126835, 0.04477309782565151, 0.1257444990046055, 0.016956603627101816, 0.08793293212518108, -0.23577293862252224, -0.025577984547497237, -0.018787981632407018, 0.08108280609688666, -0.015832258719108053, -0.023278519721317975, 0.08621883751531317, 0.01187762073091911, -0.0781480171979631, 0.16526130638873102, -0.042476613652972214, 0.009232354550369923, 0.07013016744860885, -0.19516651147543443, 0.03215214819296133, 0.07348895986743323, 0.062223094446602366, -0.06788120250702609, -0.25677716173477333, -0.06269378109536076, -0.15027293597100935, -0.157781475630073, 0.25356496266437184, 0.05949713742797883, -0.15030407651642716, -0.09344398616248158, 0.16235003136007936, -0.005141628833690061, 0.0604397551575709, -0.1279190576984025, -0.07727095501784091, -0.2212830303730411, -0.04409723411530414, 0.049507949450446564, -0.0992620081569931, 0.09828015852076591, 0.19390758512708184, 0.021969226035332176, -0.08255664911949201, 0.08629760869488895, -0.009580085550595403, -0.08904943545655702, -0.2599653799506206, 0.1669653673336127, -0.12080724586612253, -0.1263563291626393], [-0.13167833932302087, -0.029033265309665934, 0.039579208968595146, 0.26880460572983317, 0.09022835578145272, -0.048728990270747875, -0.03452896210111653, -0.09269704551573349, 0.2127896274499064, -0.06757023497945572, -0.0031590123377684518, -0.26810995935015214, 0.19391083212370114, -0.11584390634851215, 0.18036885856562915, 0.0681147835862695, -0.025481082889757874, -0.016182474766427375, -0.14013710840070537, 0.027630780489250453, 0.022615017078898944, 0.1160226497056258, -0.11696792916267276, -0.24384231884551227, -0.013916982685503008, 0.12173726747069126, 0.05096921526112616, -0.08103511680605213, -0.040291397325201796, -0.008883421829684247, -0.14757097262218513, 0.13430420871940146, 0.008131255884613595, 0.05041133575611243, -0.2228138062031229, 0.06466535167288269, 0.09622769108000892, -0.2680658986973918, -0.06389542917555993, -0.11224573680830387, -0.18017811793651012, -0.11904468947897336, -0.02242384141127597, 0.21755372634736353, -0.0375929532276286, 0.1411506674148298, -0.10823042080267223, 0.013229089797722762, 0.09006280648256822, -0.043273518162875564, -0.11464310153807274, -0.15857188296029084, -0.10874551060838074, 0.14489741408052687, 0.08819247816863304, 0.12165230289978345, 0.07354545589656508, 0.038402272076558726, 0.10752957902261748, 0.12495423523552526, -0.04971916434493338, 0.1856102934957513, 0.08797517962696534, 0.014258824217696534, -0.10155551202204606, -0.03396587775172299, 0.09399089840087789, -0.15708845236177757, 0.11073621852202756, -0.004042666887846406, 0.026259820051450358, 0.141795087611911, -0.13044459746179102, 0.06771095392858942, 0.062050464253470446, -0.026261019958737142, 0.05147428989026629, -0.07714242942139475, -0.08917296644678123, -0.07050971020412193, -0.038672510354633656, -0.08243884270825899, 0.06216921352811618, 0.0945707070407013, 0.19624354001490138, 0.027924762815682555, -0.05624533087295266, 0.055026309067768564, -0.0812002786673158, 0.056935627184582345, -0.14648895107669996, 0.11119088973134157, -0.042162550858815116, 0.2774946481586552, 0.1082676636912825, 0.186765426987944, -0.09362708529900345, 0.13315759696825655, 0.0750278056873499, 0.08793365692103358, -0.07191526981614757, -0.15430272901601313, 0.0019914607444363143, -0.1439053723232561, 0.013813774915198949, -0.1806563979550281, 0.025950659265865903, 0.02883835228322752, 0.014460462905397145, -0.11745204377831078, 0.023654286406381696, 0.08010343002828517, -0.03127664438008606, -0.02883886619703106, -0.008818298316563115, -0.11723229978699454, 0.06569766178180317, 0.028410996677661286, 0.12688010611286554, -0.045763443594023345, 0.030843770888430794, 0.17715504271805, -0.03620882017431233, 0.001825566818062941, 0.15542221422126454, 0.14730373486772608, 0.23016136435874046, -0.08267186879670085], [0.2309720149727189, 0.0472114288403283, -0.16800047561871415, -0.021714571207521197, 0.09548733109229886, -0.1525356141505302, 0.3430488031979267, 0.020699788889537295, 0.09972602553509098, 0.16683263287968078, -0.13287763972426495, 0.1958340590917062, 0.07024968971965523, 0.11751206150894852, 0.14398940193139748, 0.06978652091670111, -0.1624101413238336, 0.15051239853175147, -0.2090700286801666, -0.00436509296541512, 0.03410451372270034, -1.3939042112094785e-05, -0.19962731639518416, -0.1595140621981104, 0.011951976583342894, 0.12128210301577433, 0.34919314535973, -0.23605743748853983, 0.03237273455155971, 0.25248435498361593, 0.040281528606930385, 0.03627824909197289, 0.12100116047919673, -0.10704648273281704, -0.035721196227912, -0.08675768422280367, -0.016946924306399644, -0.23662091279834546, -0.10004646858156979, 0.005252991263365291, 0.034127998891446694, 0.09568454426555462, 0.14464635542765839, -0.03048496361880012, 0.008260701869819191, -0.13562302668692983, -0.06769799250016205, 0.08515015914160483, -0.13477472283159775, -0.14645099739260897, -0.13800385220101258, -0.03964455602159144, -0.07123186594482693, -0.08730253512426563, 0.10404213829581603, -0.06888717074202413, -0.26161645371164605, -0.08754948913691048, 0.06586328499047918, -0.010665042264718514, 0.09390812007309932, -0.10337194760821564, -0.012255650813978867, 0.14618512534986142, 0.04761499693173053, 0.06856271501728606, -0.019974330557406755, -0.19034440351287962, -0.1763962247827014, -0.16053475828295474, -0.32228679977238495, 0.16734209803017874, -0.09858089033132385, 0.15321910889973392, 0.09819022469400765, 0.10158505845670077, -0.01289539018998453, 0.017140569609435725, -0.05651295943439705, -0.16863248867574132, 0.2073999709141424, -0.053431868789378986, -0.2726343771428726, 0.11961562173971915, 0.07378270584456686, 0.055644043562469735, -0.03197248555038588, 0.15975159902142563, 0.06177145776544063, -0.14902300830738524, 0.0245779576433524, -0.0593464613119181, 0.02124537353877991, 0.11578134215223038, 0.06668889237588334, 0.05792494875287931, 0.2542315361322372, -0.006665897541557178, 0.14699846856933874, -0.09368041906087672, 0.12748117768830153, -0.10708965722543082, 0.031540752804384405, -0.06046733565617855, -0.04723707102810899, 0.034042745687826934, 0.05950323887411728, -0.25382440598690054, -0.10561878430773802, -0.09134771090437899, 0.12269374474497861, -0.007830399446843127, -0.1094415333403437, -0.028714372150229046, -0.0710460238304449, -0.3066759092917843, 0.03726018816904471, -0.01531452008851084, -0.12410406509729209, 0.2506569365181335, 0.10986244161168221, 0.09896066276518706, 0.1888830341083869, 0.06125520133880766, -0.15427171889718452, 0.09423755937862101, -0.13544833653247268, 0.13578558560784892], [-0.003811806606179908, 0.31922972535963295, -0.030125187485110696, 0.06527870622796432, -0.08223318279949635, -0.12657680150742967, -0.0753178413947851, 0.20141266372786956, 0.283126565311517, -0.10034835994347353, 0.27386739197730997, 0.10206558538897159, 0.14468194832982142, 0.002159324571404085, -0.1900118315897389, 0.008437281610893986, -0.034541191530244944, -0.062190198108027235, 0.046031627826407726, 0.19800794459438073, 0.1269025011714733, 0.026036475410579303, 0.1605288412104921, -0.0453796607608703, 0.035274535541433075, -0.05174055758620381, -0.05410639429572989, 0.08501553776016833, 0.0175876942802771, -0.1010358838061923, 0.08748915370999341, 0.11349571129419635, -0.18571496629190884, 0.10184962616216693, 0.09545462598385457, -0.1577274091604397, 0.16078463158748146, -0.17060208440168625, 0.05781976036039516, 0.0425839478490799, -0.10698546071226192, 0.03692977742241409, 0.0035056424208547233, -0.09061650172301776, -0.21790670829851372, -0.028334273771297075, -0.06728301708673216, -0.11549890281374901, -0.05363307282939474, -0.025356631450005364, -0.1407161509697259, -0.19663359893359744, 0.05762713774640473, 0.1398846026850373, 0.2444849927939815, -0.17419715016461323, 0.007004314423941951, -0.001862148617441943, 0.17690251389767805, -0.11467596818763, 0.08557267594239659, -0.11589298068388154, -0.06287531736697767, 0.1398192079685606, -0.0426540000534109, -0.14604141426560194, 0.048691176909955676, 0.013444743643883844, 0.19221664613277167, 0.045409024295932084, -0.07779982915369955, -0.08890909590277342, -0.2566935484932068, 0.00941442878233675, -0.1551994810051207, -0.04404412416060463, 0.08821171917314553, -0.08622721915131551, 0.09862861075417177, 0.02270820638395889, 0.19080755853012396, 0.11481631380004373, -0.2344378425707989, -0.12516387464100218, -0.13124101140562505, 0.1946894119462109, 0.005552061750812644, 0.017980117033556488, 0.1785511500250769, 0.0658166704859688, 0.03339520216979379, -0.3007736938647639, 0.3760283554697073, -0.10415272688107546, -0.15979288296940056, -0.05482926366986761, 0.028678878263910013, 0.21119751072404697, -0.20578424331786163, -0.10856149011344465, 0.0691714078262538, 0.09738968467466895, 0.04142897281596483, -0.11424061058252025, 0.08069992894880855, -0.05432999666274671, 0.13240304559306224, 0.21679883242453588, 0.006272001498320066, -0.17559377886996796, -0.014116031768157507, 0.11322092885319249, 0.11312440467218424, 0.3931415628211756, -0.2207875329764119, -0.1215069715863041, 0.14869780853995604, 0.13659278883429604, 0.013424002099715579, -0.18439067539600648, 0.11845895504919308, -0.05211013291447054, 0.12004445386010541, 0.04321942250366915, 0.056361908092022954, -0.07767317564976352, 0.020115159658571188, 0.1595794713288037], [0.09203476650436765, 0.12082761819483827, -0.09036352796664282, 0.023111061605794802, -0.10970434331484022, -0.00241010494258936, 0.09275757021818776, -0.1561315576319845, -0.00695169980802201, -0.05533870342586959, -0.002230729094260667, 0.05980563880952021, -0.15651315026218898, 0.18094419067025586, -0.16185799086007363, 0.17547664205613633, -0.09457495233299748, -0.0038085690529734064, -0.01894258676529649, 0.027254377797809044, -0.04422732768044934, 0.002621770694080586, -0.008906583891502316, -0.05010588675586866, 0.19397582074657238, 0.32033387739162256, 0.019977622083568316, -0.09474162754608484, -0.11948769159823001, 0.09620439586866762, 0.09658217370495034, 0.19993368715175183, 0.14351822001225104, -0.03654608329366126, -0.04535825161706641, 0.02000327681667059, -0.3243041686289544, 0.10410982818880467, 0.21076852137076202, 0.10219951670926407, -0.0533728091405258, -0.004798547619831938, -0.15908466712590547, 0.04025354349584573, 0.021384201947194606, -0.02949378201125604, 0.14439035492888652, 0.19867039780430368, 0.17075164344731483, -0.18965465729834982, -0.08421884426009482, -0.05588911384477747, 0.22301836851122048, -0.0015905466110750282, 0.16732584362344066, -0.06946035201077448, -0.06632583009574257, -0.17562592012647715, -0.018052959602307742, -0.11705863258603628, 0.09246730431876418, 0.013864864409750563, 0.24508497557602474, -0.12240671699979418, 0.14718514028098945, -0.011073741902993412, 0.2523365833416569, -0.06532893542191984, -0.12296741287851785, -0.18584558078455518, -0.10207231649242511, -0.315130763736332, 0.04956791765483446, 0.16727624415960413, 0.07640435933269561, 0.1841488796809619, 0.09145895705048916, -0.09467460979021064, -0.1384582737617867, -0.026596741212904333, 0.01136358710277317, -0.010674900939979371, -0.026042259431534886, 0.22956857559348934, 0.019896624672942648, -0.10655429782212335, 0.11604769574258651, 0.0007682123831626094, 0.15418121606723095, -0.024784367876666602, 0.023337879157809546, -0.2574968690647303, 0.1146714746703657, -0.059752752562498374, 0.01855113990032521, 0.022804468611118806, -0.13605145600657753, 0.04740845901491253, -0.14876878182717976, 0.0658890984233984, 0.0480786241794752, -0.05802641565148144, -0.039345958463304125, -0.20323930753921557, -0.12721967016052055, 0.166656760970537, 0.06615570595360168, -0.017412196763424946, -0.03910361936720831, -0.11163470641901684, 0.034613440244762796, 0.04179767833303552, -0.19162926529659882, -0.058596532787746895, -0.009394815666071832, 0.017180556144484622, -0.02579408422986184, 0.11272014603514628, 0.11518040960303526, -0.2912816286768777, -0.08083613367113078, -0.17841566706426357, 0.1441519562428816, -0.08031745743602091, -0.18472337710305387, 0.10375609697811898, 0.0572543560956513, 0.060360803576860585], [-0.20732309732354645, 0.08007046538616969, -0.15176866496931077, -0.06185518273183274, -0.11318767322284227, 0.09080713091883622, -0.14916087415247392, -0.1258416715410302, 0.02431069265088514, 0.14286933083149891, 0.04175614219623627, 0.21418033289730318, -0.023469109462015025, -0.14503310565085933, -0.09541890042233163, -0.16260280012490716, -0.1303601314221838, 0.06833825322653174, -0.12341573168325068, 0.10527000440706091, -0.02290542092107943, 0.014971277200210811, 0.15785854696255075, 0.03949561849447172, -0.14552447706018007, -0.0212064980587709, -0.11183100904285224, -0.15775163968488864, -0.0667605300700116, -0.10278904021045997, -0.019694240641519624, -0.08764506521469678, 0.06626642916778205, 0.005428982785051758, 0.055690563045597934, 0.2231143256488601, 0.2701838949843612, -0.09577606114842879, 0.027443466471687068, -0.06902568254890629, -0.0552403389857712, 0.0959078840511576, 0.06918918521720117, 