{"layers": [{"weights": [[-0.02286988364191337, -1.3901620280448639, -0.39238122037654305, -0.2634275237750967, 0.7142965168580361, 0.3720911173652349, 0.4237256769832362, 1.957638533351583, -0.11617412848806094, -0.39121737781174853, 0.3258272599689093, -1.3094661442123245, -1.0122703523030652, 0.34171522380256525, -1.3448423067331032, -0.6548873057809885, 0.32839728372143095, -0.36662711297442213, -0.15048639535071512, 0.30139420152439195, -1.0781272816451781, 2.503117898528365, -2.4230430159750296, -0.5542352027903682, -0.24709845114643786, -0.7510407899591445, 0.6352570220077176, -0.7371855536614493, -0.31624052844135947, 1.4773105662984276, -0.7393082535979908, -0.7403344324038305, -0.16404086428550335, 0.6879775884295403, -0.613876793723146, -1.7022202112641178, 1.633875364121081, -0.7197018742993646, -0.7497868371181408, -0.1374286101183389, -0.9475844438481504, 0.12652821780097667, -1.0132069330453415, 1.9366943012227336, 0.6401479088561911, -0.027127253685656442, -1.3416385005663982, 0.30786378675884574, -0.32570556951047364, -0.5003520948781233, -0.34698927713738204, -0.7485063408630189, -1.2169396439037876, 0.753535487449744, 0.4504353275766714, 0.09932183035855847, -0.3635395632686044, 0.9386460763339164, -0.07516300294567158, 0.024959974275222487, 1.1329088010276152, -2.26807801901943, -0.3051070458725036, -1.0201972698943007, 0.3072725874487848, 0.15571706078608458, -2.115144191453646, -0.17407069689943921, -0.062023059975994776, -0.1482967372388543, 0.02957329754608755, 0.11483371056108223, 0.611931010477954, 0.16171074754294787, 0.9795703371733819, 0.4373975183790496, -0.521961144877341, 0.2640132623378455, -1.8722429473136395, -1.1571986128699487, -0.9281201485678243, -1.437614865326509, -0.9719969153264804, 0.38596630252037567, 0.48811738318114256, -0.32530006580409654, 0.450732536846178, 1.3715753557915324, 0.4129466738559912, 0.21420124210153368, -0.08287009201833072, 0.7735146826893716, -0.5926373819341367, 1.2975572747251576, 0.23413399808063576, 0.264803322728153, 0.6341733417226308, -1.7155202119615673, -1.2705866200198603, 0.3204139400439309, -1.1172234575779179, -0.09223796254622123, 0.7135619755103162, 0.7498000931387464, 0.008813698461617787, 0.7170806327025502, -0.9663279147876249, 0.46515263594180806, 0.8550619306956064, 0.35687601204051683, 1.0327222972429742, 0.48495130751846155, 0.14405484913445088, -0.29724611164622106, 0.14975036897831165, 0.2526098241435839, 1.1575920124246506, 0.626960613344521, 1.4595467690962236, -0.19383952898076695, -0.7333507836465152, -0.16715631717146587, -0.49864090920193394, -0.7080928599424572, -0.5148258297481887, -0.742082431382281, 0.7220550577412983, 0.49608062506781364], [-0.9651408217464018, 0.41802795934612746, -0.5876538978908987, -0.7754750176339239, -0.5317833100383423, -0.7168251719191973, 0.32689004121289383, 1.2925480384252612, 0.3427931444251272, -0.47600843636679513, -1.875528354936288, 0.7127377327238911, 0.3750804584309408, 1.304036103383174, -0.0526369775503673, 0.011335795279876515, 0.1074809966322834, 0.586528683965699, -0.15937317166149018, 0.4418401901341625, 0.2910474758306153, -0.21262073883244934, -0.9759210608891142, -0.5312920806004314, 0.3943785493939717, -1.1081066562017636, -0.5237758400024178, 1.1135563849306935, 1.1120385024521282, 1.0758461732365114, -1.7671820475477837, 0.2336042214003272, -0.30983741590493213, -0.2695022547249445, -0.13715602805370547, -1.2184862325713837, -0.46061276785673316, -2.3857831506380824, -0.1144169077474365, 0.16557947233825246, 0.029356636833146127, 0.02388487856522168, 0.06919425974766863, -0.781823687109782, -0.2934159351245472, -0.039494862581671966, 0.22263915898857453, -0.10260981921997896, 0.8570819494956138, -0.5471782411938791, 1.2860890127437234, 0.7441959282188616, -0.887017057813205, -0.3096271309908665, 1.7398240221620909, -0.735536469815693, 0.1883642359042291, -0.5092781638832877, -0.44534875448153666, 0.17385433267315956, 0.1622820563388206, -0.46516334571771606, -0.908132927131103, 0.6326526707946849, -1.1065817694677826, 0.07262194626763319, -1.2062683304178816, 0.44641416087911295, -0.41069434905455315, -0.21732543120355138, 1.0002201090761524, 0.4641169462358863, -0.8286593228262148, -1.2531071216079432, 0.053285800688768876, 0.6653249827453797, -0.6471826774504816, -0.8026133251300738, -0.8679613275752158, -0.23252117627075106, 0.4244825949491106, 0.16434852363259908, 0.42539047656519724, 0.5193228757575881, 1.0570416036400807, 0.04388622153989258, -1.158142506451425, -0.6100538726676183, -1.8657282957678158, -0.5783703076315322, -0.8823438239799574, 0.17877729669389275, 0.15441299855615273, 0.08983071130749172, 0.7220716715235084, 0.17654021302179967, 1.0882888652430074, -1.0408047764016743, -0.45821288880403555, -0.07430630309425272, -0.5915010434168221, 1.47661867953673, 0.9327514866430229, 0.5505666141322619, 1.3056757627927327, 1.95367261735546, -0.186733700441108, 0.4967311585965748, 0.9680101227523723, 0.37261994065443776, -1.0184223006930604, 0.31144476196548426, 0.1752610069491439, 0.7172309051199246, -0.6653895809480476, 0.14298721210675305, 0.26215841290931496, -0.34400904608885763, 1.4359000527125794, 0.15906045910889416, -0.3950301927499963, -0.7731131445243531, 0.14640495962309832, 0.0856944144822807, -0.5746874730363715, -0.23825437404129252, 1.9505175096475806, 0.746072280524306], [-1.1146321155550192, 0.9205537283893984, -0.7024687189069213, -0.749440654996666, 1.4953819862257762, 0.3951857291050402, 0.7336229748285835, -1.195521451581256, 0.13823647388659902, -1.0271926160401554, 1.6597244406864204, 1.3863692819828708, 0.10306392136190404, -0.6764839172355216, -1.3905296192970145, -0.1631690391396506, -0.5626473751935545, 0.0051095940077997256, 0.9121109606959767, -0.25378500391340003, 0.9017780478774953, -0.32596983662290197, -1.1121594103700043, -1.9804039799293387, 1.862394286758766, 0.16810078964232472, -0.1803363052932463, -0.6482163983002768, -0.46889973875884566, -0.9137524782812609, 0.12740296965811487, -0.09107579414126366, 1.010853950985827, 0.7141769948148556, -1.520481901845239, -0.11405048631537884, 0.5386337994713885, 1.0624820832123745, -0.44864331515142936, -0.5527445514408025, -0.7896572279042768, 1.3614673135091, 1.0852576934857951, -0.4961454732972285, -1.1639602962034434, -0.48485864115063515, -0.747292041900881, -0.21415681271833872, -1.092285083490601, 0.36737902512359427, 0.3800113538065314, 1.6472285267083622, -0.3577285858250937, -1.331715377082061, 1.7273672292359612, 0.16123957890027737, -0.06615178724025493, 0.4117118890120099, 0.7878002772270342, 0.7282845812521417, 0.9035563820262317, -0.16749094977118284, -0.22500536150522876, -0.3026320624113201, -0.46868406122575934, 0.7540104368157092, -0.5488320507228758, 0.427283993753331, -1.438718595208916, -0.4914810337308314, 0.7959519707147729, -0.17656837270502196, 1.1727746784797122, -0.2294766649589465, -0.6957645079870771, -0.07201048213647146, -0.3592997226522739, 2.1361320674450304, -0.15901129156836535, 1.080682904906701, -0.791432403669427, -0.7451410182766743, 0.8353947560205441, -1.2119584480719852, 0.0798512602538061, 0.06563840890794408, 1.2880471367791029, 0.6980359794944199, 0.5004228370612509, -0.8047682866174718, -0.03828675022563871, -0.7371503707683138, -1.5577236626348059, 0.12763453974555627, 1.2895779721093996, 0.4271584802137566, -0.6185573351499042, -0.03316351511342409, -0.8544378192624988, 0.6894193563216804, -0.11445726546111931, -0.9840189853763553, -0.6482548642019272, 0.4774655535799743, 0.41399013277567676, -0.004766804588194329, -0.6129319638401762, -0.14473125105904425, -0.9601058296630569, 0.861289261324832, 0.04620929849060419, 0.27680698038550317, 0.0011225760786413997, -0.1479230882391023, 0.8265537279746609, 1.007068271448402, -0.05441244634309878, -0.8407884547384017, 0.14645006987520232, 2.3165251947391887, -1.7137358753463838, 1.0927019915529592, 0.3636107143961143, 0.6889104501741251, 1.620076753020168, -0.19507177479241625, -0.35764903914460794, -1.0074997123053444]], "biases": [0.0, 0.01597571534029624, 0.0, 0.0, 0.0038544832399187274, 0.0021208657039488332, -0.008390728601577321, 0.02746166112105251, 0.013578747198389364, 0.0, 0.017697282093411974, -0.0019875659320217312, -0.02724704991871283, 0.02268308700776073, 0.0, 4.5865120723563454e-07, -0.014790282860783958, 0.003743899870833314, 0.003429602001441803, 0.0005891476349971148, -0.016770643393713362, 0.044345790971399526, 0.0, 0.0, -0.0035671392694330267, 0.0, 0.018377347548194655, -0.0006884365465701181, -0.0044681729338346115, -0.004122087783906504, 0.0, -0.008887393373119754, -0.0036355703852977922, 0.004871682184020965, 0.0, 0.0, -0.019961439586394954, -6.291264851839331e-06, 0.0, 0.019905315533299738, 0.0, 0.004243950922950474, -0.009520230578516916, -0.014036530358084522, -0.010079543907385491, 0.0, 0.011315033919535417, -0.011443314216638531, -0.00785967351639168, -5.091430466860116e-06, -0.013069766836454649, 0.01574725834758212, 0.0, 0.0034123769362293843, 0.0025888333931733502, 0.00749889673150995, 0.009439619999389288, 0.008943369315768975, -0.0011250383768620917, -0.011291185664744349, -0.0009408812671015396, 0.0, 0.0, -0.008405132802469654, -0.009263528895338536, 0.003930956245728306, 0.0, 0.018885305239803443, 0.0, 0.0, 0.008878178552876106, -0.0157059436883028, 0.026445201660623883, 0.0007635352678460231, 0.01337627421618937, 0.0037056540385801773, 0.0, -0.007815217120752836, 0.0, -0.016188214212717038, -0.0005974336100242, 0.006322399499160545, 0.01072079505167919, -0.006516728782900075, -0.0058492823879732585, 0.005436341709720219, 0.008064449157437696, -0.0008507624262508364, 0.004952867301151003, 0.017188002476325688, 0.0, -0.009965506043638543, 0.0008097342155825719, 0.03661023025554846, -0.011168967324575618, -0.0027563616895491328, -0.009160550255559204, 0.0, 0.0, -0.007057853661219727, 0.0, -0.0029364250145494128, -0.009709868680078556, -0.02503109007109837, 0.01150185091593407, -0.004153159175398732, 0.0, -0.027526761369561694, -0.021263220921123847, -0.024119914202687755, -0.014978433494418377, 0.011248105447663704, -0.044370481270165185, -0.001215535553266627, 0.016308333566091644, 0.010894456973475236, -0.015844072631561686, -0.01461381893341972, -0.00020210499820793557, 0.002811515605231821, 0.0, 0.012385172609073021, -0.02234080314218632, 0.0092443042550495, -0.004948840592275934, 0.0, 0.011214232946762291, 0.010256150168706386]}, {"weights": [[0.02884156544516063, -0.026185892935151677, -0.0920899614459155, -0.1043112345707087, 0.09050527318657163, 0.2211967047317421, -0.09219917512048538, 0.21721266574079817, 0.15126130790076875, 0.11149792768599137, 0.11521996355285294, 0.03498544889294984, 0.0007907269743473522, 0.16864991447369382, -0.048239066370854525, -0.006718308970299279, -0.14467447628299562, -0.056379551474994995, 0.17721470303040354, -0.12075226356154038, -0.03673469595425768, -0.002533963928565835, -0.024901431654264103, -0.19890054290123074, 0.09643647723324386, 0.1357855585705344, 0.12555890666735292, -0.022691213811288687, 0.19388478141145377, 0.017928881867140655, -0.08393552114346604, -0.07620137188979756, 0.10000775045971103, 0.12129882007571419, -0.1614503256058089, -0.04017996494025316, 0.14226254548381012, -0.054514789734474725, 0.08779479614156993, -0.057892998474612906, -0.10415084020226596, -0.03949442754552014, -0.12224816459529239, 0.18392852248673747, 3.6750989965118696e-05, -0.1497967547923146, 0.16740955541654248, 0.13647539605852554, 0.16240769772528574, -0.12813676242487365, 0.11391921108312861, -0.08668365813657117, 0.07938838025971978, 0.14167213219357314, -0.063115419925807, -0.09899920523345011, 0.025324920851107078, -0.16127538803318905, -0.017411548291554554, 0.03514335705512538, -0.05497705961704539, 0.04636250135644819, 0.15602233668043838, 0.12703904766407415, -0.16569373557023415, -0.04773595513143232, 0.04215291508132999, 0.025333858860063056, -0.009254925319253936, -0.04291421640367773, 0.02167370837780817, -0.05873428986243663, -0.06077926859890608, -0.28444080927331405, -0.046784720993466096, -0.15564754382295812, -0.23355599243434222, -0.04287598879873137, 0.06721508095404759, 0.14721088838351332, 0.12023534461972808, -0.11846034273557253, -0.16439484631905796, 0.04857723305184756, 0.06431978508767167, -0.14299892445525667, -0.04125818550036188, 0.13174268377666212, 0.04892043918644169, 0.052068574386986345, 0.10735409499801975, -0.12174766981063175, -0.12937048362201403, 0.11181287592662169, 0.08857196965293355, 0.050955616110286955, -0.0775102090724857, -0.07429599181170889, 0.15590526189623125, 0.10133583697947522, 0.03933223575474016, 0.07327688175214149, -0.13000153846157037, -0.14628043278586791, 0.041807007775991896, 0.19781468210127823, -0.18070152628700267, 0.11071035494669144, -0.10491179847997423, 0.05860756249111568, 0.09717924936300339, 0.07219884409803168, 0.23579278299714573, -0.026600126358210036, 0.1071701041632951, 0.011220632522544526, 0.07025095990925169, -0.027758638815888057, 0.06315963154198581, 0.13441415557592584, -0.0048314113830306045, -0.06892409360363685, -0.01060678861260787, -0.11348100417269325, 0.03191323135971612, -0.1018791570585457, -0.1670708876633591, -0.18853949667407804], [0.01751300570310978, 0.11860834018103375, 0.006516742987772261, -0.10214996720700348, -0.025909590123029562, -0.11075628481519795, 0.1619955225229389, -0.18331781871879688, -0.16167636253190698, -0.01342757918240635, -0.10537966539408097, -0.13082695909734304, 0.050133163892775556, 0.12478431007131882, -0.2127080702104575, 0.21271219013028922, -0.0969134375069271, 0.18068181639151148, 0.09632091244919264, -0.04626394982221951, 0.02148958693728727, -0.10992372014774794, 0.030977196425222574, -0.08338607345018983, -0.17902222867970852, -0.08279079538623818, 0.09172174934260567, 0.14448823894611243, 0.11020420894755978, 0.06304448518017802, -0.09626823281131647, -0.08581389175744959, 0.1417432913155808, -0.018305259024236412, 0.08356538288887753, 0.0400465332777772, 0.002975730323334962, -0.04048161909005834, -0.08164175704098266, -0.05128048148724608, -0.2051426368215486, 0.08418817745871368, 0.11289206801231864, 0.1449559347228833, 0.13435319357438463, -0.04718949445408175, -0.07239869171527114, -0.15809348091754377, -0.021132976795925885, -0.2936434597936998, 0.015372584744679355, -0.2524207705271795, 0.05420098367062963, 0.03617020515301766, -0.12648393870664482, 0.027277732375604612, -0.07969660950870829, 0.021625719880948975, 0.1442605728682656, -0.023878822473472085, -0.002061934832373239, -0.03142834126130489, -0.03401601277535866, 0.1817830303437661, -0.155410633289302, 0.060348867748197234, -0.169567608230911, 0.06556074929193847, -0.07617507998165564, -0.03712807527464156, -0.03222687438386387, -0.2172337584922971, -0.08599842324342441, 0.25191574045101883, 0.07199079735416733, 0.07893998210784006, 0.24517011616594497, -0.018924744497309666, -0.07330427491690293, -0.03887003795472148, 0.0019807743906227774, -0.04253516552220018, 0.014974371371140471, 0.09703943240857439, -0.15570108269317445, -0.05361623659791135, -0.13110078333294106, -0.06948354554667631, 0.027816656351339824, -0.20286709853460105, -0.06717785376750231, 0.0059561982033726505, 0.04043608277231861, -0.20056919882740065, -0.030067388487954178, -0.0043280475260796, -0.21297913665836288, 0.049903937958772786, -0.010508320959817349, -0.044492285344394485, 0.3188127745423631, -0.04916652587065428, 0.12518179245035624, -0.4051973961767453, 0.03979517675061564, 0.009327917015527222, -0.12925374279986718, 0.1913166896990939, -0.14439856780446714, -0.25658390131216957, -0.052027988018700566, 0.08527814404554027, 0.07583640130549851, -0.02948443317408324, 0.01092292554459088, -0.15137998488769464, -0.001556255098038384, 0.014881180628650983, 0.1849781003196887, -0.08853518869015226, 0.018565159602337632, -0.23158790459869433, 0.09080733190246865, -0.14784843289595287, 0.16523998501742282, 0.12683482409920466, -0.011383356931477729, 0.1504267341292836], [0.13511124381915937, -0.04237350064342148, -0.13613421775582304, -0.06002103547947235, 0.08761231480812137, -0.06831145107220278, 0.028993209545644997, 0.028177859091250965, 0.07014402473865959, 0.09137916223266167, 0.20332009865922487, 0.02079071871698021, -0.11098446233846855, 0.17247143188982347, 0.24316653716504255, -0.07893544817158128, 0.07627119092686627, 0.008680803577254089, 0.027251024528107962, -0.13624672021781956, -0.08718282343997863, -0.28415599277382325, 0.24631267174336477, -0.15787198247266943, 0.1033929025438546, -0.11641477903067582, -0.047829984716198544, -0.25340176469031506, -0.0769291182936821, -0.10993546678142704, -0.007349501246215052, 0.047324638346318705, -0.08644159277797481, -0.01631143068761436, 0.0042088691918923, -0.07549251466206648, 0.10714057420662636, -0.19761527328252107, -0.009077446027658892, -0.06840149249387105, 0.013278220738326789, 0.06111137289680409, 0.009687571196393192, 0.15625708033017932, -0.06275048345120736, 0.08873838599095854, -0.03054027442130252, 0.09224480448986155, 0.26191122642213077, -0.04691921545673982, 0.10731735160419915, -0.10741132519060825, -0.19738097760921722, -0.2225133103859814, -0.06156045724651376, -0.2773407143674989, 0.023384211863593324, 0.005353560343322791, 0.10819982825305476, -0.20133829924407257, 0.22518545028565162, 0.02144180014205262, 0.10584832245764901, 0.025642165346864004, -0.10681137169752804, 0.09212008741879903, -0.10681857958893223, 0.13778618651335356, 0.03315311651297882, 0.08581846616953548, 0.22643474238324685, 0.15894367038956014, 0.05471873412424845, -0.1250687632703571, 0.2315877924102952, -0.034139677686480095, -0.02106087053371495, 0.0063162174978968234, 0.1454354148065765, 0.045324899572486844, -0.09478450315342897, -0.11437693132300827, -0.03912615753871315, 0.011877731572145611, -0.17915931364218537, -0.14212604075354668, 0.31993838198700913, -0.03855815144652219, -0.14559425837173828, -0.007850532541913384, 0.017855919191373835, -0.1326253181540018, 0.03718425142085696, -0.04734517774748064, 0.10738236691194933, -0.06924256490309096, -0.057727160020620734, -0.06219701828978669, 0.2562525907874183, -0.06814878481193143, 0.03293094859228076, 0.03685368135470312, 0.0878089329562152, 0.02338885153283436, 0.08091757845070967, 0.1343345491150975, -0.2388271094710346, -0.04393857264363832, 0.06958248990847003, -0.009392030803586497, -0.16184281627847655, -0.2725988012277875, -0.024935079989174797, -0.05930469324377462, -0.2537816987122341, -0.009194537694339582, -0.30052292618275156, -0.08674276778227391, -0.06674452151099013, 0.11435903175617451, 0.01774412287596177, -0.0337618217615738, 0.012505775551567903, 0.2767385046840025, -0.12194714529797551, 0.03397845373279265, -0.0009992475913148352, 0.023542764441067773], [-0.14814096703210414, -0.17172280117442035, 0.029088096575914078, 0.1823788650746091, 0.15531289043974497, -0.11333362172498217, 0.04552464186678496, -0.07257439495825023, 0.18432994947718787, -0.05813715453479921, 0.14416925233648578, 0.018368546399674376, -0.08593798486385724, 0.11442486204234191, -0.18836409575588808, -0.13608965625690947, -0.10673310851829922, 0.00015686551212590156, 0.051718235029539726, -0.29765328103786765, -0.05143703933578198, 0.036857064160504875, 0.11439898147768668, -0.10190078328690275, -0.15498565268867082, -0.14269425973412408, 0.0912839763801782, -0.13571561842853166, -0.20247531036868816, -0.16212852534868874, 0.06691846582349431, 0.1125763341784201, -0.01248289826975733, 0.27533545529975395, 0.0735335749125907, 0.0028061103188738138, 0.056910775431119304, -0.09041709581047729, 0.053048759285170104, 0.08063499876371463, -0.0263277488594753, -0.00817843781012597, -0.33725861837305426, 0.05994239965716298, -0.12336218779106371, -0.1233047508414712, -0.11142811736464475, 0.016369304209480073, 0.04073687406455537, 0.029168263509215368, 0.007678560835157152, 0.03390498550468076, 0.08527491032258962, -0.17438276973130923, -0.2594889424727134, 0.19306406888783756, 0.11709428335062011, 0.02510249247194703, -0.19728350911270043, -0.125639890844815, 0.12758476638101457, 0.04394094696740116, 0.08318561248776284, 0.16873529287714628, 0.153234570846883, 0.0843779292401378, -0.06681660215552875, -0.03520983891181192, 0.13112323142482812, 0.06650050289723121, 0.10759748853641671, 0.09877896190678025, -0.297755738353047, -0.08096851831224533, 0.15374028155832972, 0.07691200989072867, -0.05586456883330124, -0.0801774713685746, -0.2575173993198617, 0.034734681064277476, 0.014730607795906433, 0.004396166584763458, 0.09104537586083887, 0.09150519898512792, -0.01961117148058072, -0.010623183876887175, 0.13158627080069252, 0.04256662161207747, 0.0505730029331126, -0.09015676275832496, 0.10447210498235268, -0.14196458409820906, -0.09750514112108878, -0.03517113810480619, 0.09710676601560514, 0.09876632086664974, -0.16288214643329796, 0.13924517720783217, -0.25596385522920306, -0.3842784427756304, -0.138401265870558, 0.16726947645275472, -0.15752375691343593, -0.18188568228650573, 0.1106539894186179, 0.129999050672378, 0.0033743952996386777, 0.15330535675036158, -0.10026770675342028, 0.01939008429747466, -0.0030799882285341587, 0.2201707953434828, -0.1443936893438563, 0.15113792005042728, 0.2286105759328653, 0.06823860208408646, -0.0029703044483553537, 0.05387942198489259, 0.0953708240048797, -0.025976557585599365, 0.1551671422497473, 0.10487485175317553, -0.0901019501694408, -0.002746179577336198, 0.14563546403825106, 0.19295407528077332, 0.1184830224926726, -0.1304027690324861], [-0.1555938243851847, 0.09921256277700198, -0.09393355216636096, -0.015837005692730756, 0.05787870974929169, 0.20569094742479435, 0.06782587554051443, 0.031745568079164094, -0.2548220704750329, 0.060812249609935747, -0.022425643584255497, -0.04272303249617399, 0.25284929037545384, -0.056710918651320504, 0.07368155328233852, 0.4490609471992305, -0.08765414353482935, 0.040061049937365305, -0.15853883675311894, 0.010756264201452266, -0.29121461817338135, 0.10957382421146601, -0.20771481277955783, -0.023307848027530977, 0.16904745606224236, 0.028068925555591925, 0.12900858513605715, 0.12264150261477076, -0.1588097692125774, -0.04886718095241983, -0.09987129668776411, -0.09041804861385645, -0.0606275721619924, -0.13332642907992898, 0.0784251775035154, 0.08325712247731329, 0.21788240768121953, 0.00012833495194187512, 0.05296112922726998, 0.017205984788577187, 0.05620273794044304, -0.24068547468917198, -0.2122503759807188, -0.051095460996935176, -0.039170641187636454, -0.0023518948506812136, 0.11200569736837532, -0.04208966370259432, -0.12708717045312834, -0.01753079764693307, 0.004919436854658277, -0.12553357792168837, 0.05062374686687304, 0.010997927394349124, -0.29260735571847774, 0.02780275099718571, 0.004710035468833039, 0.04908142306607777, -0.17489086634117124, -0.0806454332018309, 0.4819923578951652, -0.13622694287935214, 0.0581480223924087, -0.1325663576803425, 0.008102098754387319, 0.05672119488129274, -0.21930977634354895, -0.033282894440101705, -0.03274207750654178, -0.014717385662444371, 0.030554977535326894, -0.060643219633529775, 0.00600729427903691, 0.21093502353877175, -0.1501206632224584, 0.03404405039437095, 0.15175699353074476, -0.36849462106629616, 0.15318488486822135, 0.2361759351011682, 0.08644356770874077, 0.010774786717760358, 0.1431166253195057, -0.034741911049998825, -0.07254678342052696, 0.13139194867393825, -0.20921147712058347, -0.24626378597898896, -0.037557802418784716, -0.11466202489816933, -0.022302448830841107, -0.0320619807159542, -0.1573630892363486, -0.07062174792572147, 0.01258790781002444, -0.008457214150500407, 0.16491940627215834, 0.2258436663906916, -0.1416026169065898, 0.021922641596129208, -0.07119941149057292, 0.07426831674719706, 0.0799547256569769, 0.18013427654377334, 0.2005932542894862, 0.0752492257078615, -0.01938625252641109, 0.1263924944493061, 0.03896254822687994, 0.07900646673498397, -0.08129320118636037, 0.020572709790785442, -0.13232880728955546, 0.007962384030614698, -0.1244341865326197, 0.16760423959041545, -0.14941855048810487, -0.04067274453664398, -0.01640770712878524, -0.15772283503657966, 0.0033054806317566235, -0.08551466959844498, 0.0416918055288579, -0.18452907911841784, 0.06436019279253356, -0.09541150541785512, -0.01562430663140855, 0.024298457966159284], [0.02679961559758514, 0.036701594974773835, 0.14077570221362687, -0.07105258669194044, -0.07207127345574574, 0.04954231059061669, 0.1060336147966342, 0.17390651632109572, 0.15116687058337672, 0.28131780081100083, -0.0006613337755772779, 0.034839942278861, -0.24328169467341526, -0.12652323351710454, 0.06081253714728284, -0.052548318870328736, 0.1403926843372876, 0.039242747162376294, 0.0611404706429259, 0.0893343942586066, -0.041576612070126924, -0.055574413347821865, 0.2417111680341732, -0.08897558149105453, 0.06803068150555587, 0.23335969151033586, 0.04254513288721005, 0.10570110919922418, -0.04799354819600051, -0.07333395406564783, 0.008412711281497827, 0.0675862945018163, -0.05377940880287462, -0.025515608479321064, -0.1507350442868757, 0.02161911677947847, -0.06512681091799082, 0.05685640261286168, 0.027536551384567363, -0.15740141951753442, 0.23199425288477799, -0.07565626113320545, 0.03234822505185388, 0.09982082328110997, 0.0756504273965891, 0.011436236876921897, -0.06170732502858618, 0.22096156189779237, -0.0738742020313164, 0.051295942759744174, 0.16513128382989178, -0.09057671951181942, -0.09147830060528335, -0.010878937952023219, 0.08533401057582221, 0.09743662518438663, 0.055577349464570464, 0.08950555077843667, 0.05614106228227551, -0.3335829660443448, -0.14772381550152852, -0.0820810774898, 0.08095034559087713, -0.07094522685211078, -0.11725702146263112, -0.0005816462151734066, -0.039110745008900216, -0.14482898107975953, -0.005420152009210924, 0.15406832102006457, -0.013384708916638574, 0.045870395512290905, -0.02361744034045175, 0.10304378843793621, -0.018643041773740134, -0.03056977958174286, -0.07552078157547656, 0.21292641628057943, -0.2404558450047105, -0.013143717298903684, 0.06910442750037053, -0.11753433856477695, 0.23785879342752234, 0.09867609314364749, -0.1139535755176616, 0.2353227337729316, 0.2108432573856183, 0.1634939270737358, 0.024739886240313515, -0.033866678940155485, 0.19142433580481027, -0.019364856369633428, 0.03089475850882487, -0.1685680401079768, 0.03140477316637252, 0.033227927198940695, -0.08932293438240128, -0.0773653735896052, 0.11717607453432079, -0.14151554994612267, -0.0321520123100459, -0.08240672068638197, 0.19274530914078536, -0.031198753462981357, -0.1546270905035422, -0.0015809105801216758, -0.013863087838660521, 0.19070300655420455, -0.09814766105736798, -0.033833104024169613, -0.1223300599701111, -0.08922596227486405, -0.23082368138872572, 0.02997583206783535, 0.13206362596975857, 0.04092438775652438, 0.004143661114759809, -0.17979872411047246, -0.156444601728228, -0.12090079183855705, -0.061533678948703006, 0.002678957173399604, -0.04339369483659837, 0.05690419488823205, -0.04128394523472588, -0.11554775510851727, 0.027826517436217883, 0.08059499334443443], [-0.27280150029949857, 0.0019674573558557816, -0.10363314013938, -0.30776374872858353, 0.08415894738546126, -0.07932458424213572, 0.0005131398532643396, -0.02875295607417927, -0.036217087787009064, 0.048053368696051986, 0.017070668402815223, -0.08820738187661425, -0.05245312403961389, -0.2778960857300873, 0.1849663944174641, 0.06692026975910781, -0.058729823733277224, 0.009963620120665826, -0.15343836530058685, -0.031894837653828716, 0.18752562185016888, -0.005522184844375337, -0.07475264710862589, -0.006079907484640583, -0.021972458757440857, 0.05254248295021075, -0.004236007212265122, -0.02018120928806841, -0.04344564608496336, -0.24088111430217943, 0.0750625409821346, 0.1278912406053656, -0.036176033103587524, -0.0007302595249796294, 0.1094668595018085, -0.005030561142731219, -0.12984206047513533, 0.12477656016569222, -0.1994349601071951, 0.07463607434549546, 0.07795372956413138, 0.09561971992037699, -0.08691992783407711, -0.035750676026582676, -0.11716960525805474, 0.09222488705349736, -0.012236168168386038, 0.022344766154483962, 0.034315565048749455, -0.07572201859941374, -0.18773413261607858, -0.1373760119301044, 0.16942082736749683, -0.09444383579818644, 0.06293359318221162, -0.05876320820372962, -0.05535254391563713, 0.15781715808991845, 0.14203457446130482, -0.03675062571396883, 0.12474391057811765, -0.02246886890107608, -0.11895223412694438, -0.31568370448700334, 0.07878979256984667, -0.06505750649052432, -0.039036096505035305, 0.07437606347964819, 0.08541997496932498, -0.08149698471794238, 0.14986516599313296, 0.05457593679979513, -0.13428970207165397, 0.18986991435330053, -0.06695953190533477, 0.0943664023823906, -0.0808525837194701, -0.014061562618838638, 0.13471477947372432, 0.10153551414366953, -0.07871298350311763, 0.061918458284332775, 0.004649351376455113, 0.04553938494372454, 0.02466482032500159, -0.16822887645387016, 0.014288791854749313, 0.051871006439445616, 0.0832839537763629, 0.18485135608934355, 0.06569771707375893, -0.13359608404446566, -0.1247966383016828, -0.09499901173181052, -0.03306267502432663, 0.11317285862798161, -0.0802036613298778, 0.02690770657389274, 0.02505792509825345, -0.020425551687080667, 0.14218667560339246, 0.04803941218309202, -0.17073933299854682, -0.0986120953465257, 0.06042831261035679, 0.109657374799539, 0.044790896101854605, -0.1531286821390953, 0.04861229263883584, 0.018929955819008523, -0.13296909526388512, -0.12241099500046823, 0.21076767820562176, 0.05857306062484973, 0.06462875054692704, 0.029558166188614073, 0.10748192245151986, 0.09490700879066026, -0.23782156877606686, -0.0493751914487588, -0.14868404138236252, -0.05829698605909798, 0.010739469096456948, 0.07798758164627295, 0.04259702814400616, -0.17190493495355208, -0.07177532512877707, 0.0396965412029788], [0.04471116271871379, -0.2589657204020486, 0.11313054366455035, 0.0516564829741687, -0.10673064982165674, -0.04722569986343055, 0.1046879184229388, -0.04110988774588141, 0.048597472678717404, -0.02365720747808237, 0.08649123003291063, 0.11013673304011537, -0.18466734003426855, -0.17596430238407554, -0.1925473795807181, -0.015287774089371564, 0.008547417213737325, 0.10146787590285092, 0.04989184561886508, -0.15237127601929187, 0.09891326667776937, 0.011901574334426589, 0.015429637753339083, 0.015355611254655724, 0.11064596235048459, -0.20830251144828132, -0.09412413828295425, -0.006794774253167938, 0.13653789011905856, 0.03237653291181958, 0.13133082631302842, 0.05838058952728978, -0.15914017595195493, 0.06134729876663479, -0.05553674152495952, 0.03376717842983491, 0.04143700196745501, 0.10967705977810172, 0.1463769381479608, -0.1301919669787296, 0.1154047641007444, -0.08304464855505905, 0.18400494354976535, -0.03300986157261646, 0.03639062101126959, 0.11750840204128106, 0.09044046720193745, -0.18993323200021878, 0.016136581089196012, 0.12314643216044509, -0.2002168206297124, -0.031222177739764177, -0.054279263564747084, -0.03090313288944974, 0.08519564370955378, 0.034060447518495435, -0.04480706759082844, -0.044821060182471784, -0.04705887299284894, 0.20300774763067084, -0.14377283896294954, -0.17243577543622238, -0.15813894013904667, -0.046117417673569396, 0.10556923044758652, 0.03484877936646472, -0.02142963492833487, -0.03708286681083916, -0.026541606643164756, 0.19514301179449872, 0.027216758037990067, 0.03800171457852593, -0.04670159170943783, 0.015058408634786389, 0.04290716297204436, 0.11523534795854942, 0.061208932239270555, -0.06741037264463653, -0.05344384110580045, -0.15509919029367245, -0.2083137956924458, 0.113510205583935, -0.21947101125742297, -0.29449190280777154, -0.14316148422080527, 0.0643917312541466, -0.14360437929054473, 0.07083380579099752, 0.09209612972153558, 0.0008609908598746384, 0.11274447677746201, 0.027894900970037967, 0.02222534890867702, 0.08511707145259112, -0.1852668677282044, -0.08475942255458575, -0.15638318973426238, 0.04467337280958593, -0.10536706777808726, -0.1316694134120696, -0.004885237205178778, -0.05506995518348521, -0.11118115570964472, -0.08545968795912062, 0.14794013906606687, 0.04231945486765622, -0.05216657712795759, -0.0835472984961865, 0.19278628023303954, -0.034822067394486664, 0.01327494798400081, -0.07267003380661538, 0.011251965574846772, 0.03060322960825472, -0.033184107719165856, -0.09405648068887817, -0.08479320053714633, -0.2533690185755209, 0.08950553019346662, 0.1877012275705746, 0.07013201652042915, 0.011121232451954555, -0.15101171860924612, 0.05854398962963285, -0.12104353313884905, -0.03788694724713595, 0.005217723287073929, -0.08889347001881605], [-0.2690579624423881, 0.09850639785490192, 0.05306470914476167, 0.057745100424092886, -0.01811138930890006, -0.1313123456521493, 0.04869211176793149, 0.06275074064812912, -0.09737263288794538, -0.08478980636873533, -0.1460690404379026, 0.01833886908499501, -0.18832206292608641, -0.10730283378585358, 0.1329777789549042, 0.01578851775654672, -0.0449147399291581, -0.18174645011461016, -0.015601199269651403, -0.05989626558177973, 0.16390897282696415, -0.09518468318325632, 0.036796304720669845, -0.02025535566160315, 0.06717553430414297, -0.11343561610115929, 0.1128882637640478, 0.02638982907062294, 0.027152301446534858, 0.07776483863688989, 0.0634108505717368, -0.13351078966277238, 0.15129035233420507, -0.1441868755093221, 0.18852266118111383, -0.053177214799844844, -0.07120505731921244, 0.05254641126674544, 0.17701962579616834, -0.09595269526064178, -0.03318078322024896, 0.2454596698292901, -0.07450431891042818, 0.11348276873964863, 0.09286511432865094, -0.1943468042418029, -0.07692215039145402, 0.10700709665060269, -0.06278998400165073, 0.11097853809350784, -0.060990948578311895, 0.09598996131495835, 0.02080093915965684, -0.02116618643409663, -0.20374616953566457, 0.018085328743515323, 0.013841845585515617, 0.0059829969053225955, -0.21168788068487268, -0.3279199046574599, 0.19726225584385837, -0.03410154292014521, -0.0746947906745681, -0.06926596828665482, 0.10863811778725026, -0.02100771036563128, 0.20042472607375564, -0.06740328730814725, -0.13594712262560307, 0.1555097739664721, -0.05845260623951613, 0.23825921907517775, 0.07512311239418863, 0.1550903480724604, -0.14877961629714134, -0.044468891164286144, 0.08064412721831062, 0.01856249726090852, -0.19246218459794015, 0.09530890486313191, -0.314679861868456, -0.13391105812015175, 0.21863944238790464, 0.112507948187221, -0.0569671709340256, 0.19130256476503796, 0.14047555933858905, -0.03115867579528609, -0.08353347429402799, 0.03548608864331383, 0.05684646981873563, 0.05258447643212738, -0.022441547365659564, -0.13041449466384247, -0.2786686607685385, -0.01684409835812295, -0.0690926071806784, -0.07294650991881588, -0.16863955495233143, 0.03422771642694505, 0.02363701530511054, 0.06927536358371017, 0.16608169068588907, -0.057398765330574725, 0.042391113145986516, -0.12609066482017314, 0.14131934111716762, -0.08967603153354507, 0.10357313125813167, 0.06811269202343696, -0.07207397433194473, -0.009220485840513156, -0.07973777057862352, -0.021045206165032387, -0.10317475226066454, 0.06654525693389662, -0.23361435398878536, -0.1919707168036823, 0.13972523856177743, -0.11671419156660587, -0.0816613049793306, -0.12644296279717215, 0.05951291557740409, -0.020540815258583565, 0.014555683392135888, -0.21318561874910746, -0.02865676400725839, 0.05656007968605113], [-0.0030439250440701714, 0.013963372238991462, -0.17528604438065146, 0.17179617892107096, 0.16867797238765728, 0.13744398615774636, -0.06341006688847935, -0.12222564979070322, -0.0030428700993388705, -0.07407308774823677, -0.16946918824903073, -0.016255240090887288, 0.2684993085475703, -0.0032360231818309745, 0.07006021399750981, -0.10601673767227802, -0.13345099867541016, 0.1588376079893097, -0.22003976696770866, -0.05630518154289755, -0.022252026947171176, -0.08638660970927331, 0.09844824852776723, 0.053371539569160645, -0.1903875890876757, -0.004336648613958924, -0.16629574875673023, -0.0017883775082034106, -0.18999777806064214, -0.03796751652472751, 0.17050596086610137, -0.001940377812277838, -0.09181641405001925, -0.10781665151362596, -0.05406816527880739, 0.06153695244482554, -0.0706900094663371, -0.05035526393606143, 0.0988816910153671, -0.11136206097305291, -0.08028711315270062, -0.09680486117460768, -0.02357679765220727, -0.1719168144140794, 0.046008286860754415, 0.10534429770598508, -0.21973336095115514, -0.13314132558561872, -0.01189251111484446, -0.26671639035003936, 0.23520567794564948, 0.01842908211545659, 0.09419310245737365, -0.2083706797703351, 0.01569812374807006, -0.16233223775151423, -0.19695478429993257, -0.04375019507031898, 0.13847749660867031, 0.15952340366993548, -0.04185066082132862, 0.25805112439113026, 0.3709946242317967, -0.12475994521704283, 0.07642195306966106, -0.1498528465196838, 0.14279476122545126, -0.15783595627223462, 0.050398393967818214, -0.07949788720431636, -0.05298809615299929, -0.0873036914629751, -0.08562621458360976, 0.18495667489136886, -0.14397477632728467, 0.03924924939897695, -0.0015219942817635947, 0.12827128371886803, 0.11620981756457072, 0.007515033942256357, -0.2872616518937695, 0.03760923865255783, 0.04074752941699828, -0.324919343300944, -0.047210218458459546, 0.2118965016419213, -0.13398494100694408, -0.04616637554491104, 0.057694131982952854, 0.21620520055983802, -0.03377051089161267, -0.15397300763503302, -0.2001829239932978, -0.21523929551175497, -0.005065147124168364, -0.09176608088707024, 0.05247762737410809, -0.10334790138875953, -0.08830653997894648, -0.02660519107874034, -0.16377102680605488, -0.1653791568105803, -0.04279821330679769, 0.011045690977311631, 0.039404680659346006, -0.08118645263027442, -0.09224272020187194, -0.06587278797375973, 0.023429690592677823, 0.11819855793354749, 0.05368741131383354, -0.07761714614367021, -0.07047373375171881, 0.13664860242526092, -0.0468322969486877, -0.20705331105743627, 0.1632797182397391, -0.07807924233086631, 0.2452669233922743, -0.14781419126927356, -0.07086674844250661, 0.07514643859919878, 0.02479322024489215, 0.03318312906330182, 0.172012733528644, 0.08548623235022165, 0.1046703791090949, 0.08514726493328344], [-0.01685048535325888, 0.08420967150716777, 0.07508998915677187, -0.2731894467401964, -0.0010820558601147723, 0.015513475029780545, -0.1122771096043941, -0.1562499386560295, -0.2686973846646236, -0.25424157286946586, 0.034568403458769305, -0.028426622626349943, 0.21394551659853558, 0.11754427990800043, 0.22296675169952074, 0.13937018538048218, 0.06311241246084913, 0.12438156285868376, 0.1467706654537387, -0.22097920839597704, -0.14739484901492, -0.21901394175069264, 0.12712050480302836, 0.011649865845340291, -0.2267798479669231, -0.05516057622487181, -0.11943546927286146, -0.16163159542299832, 0.10575547885992519, 0.024751136284214912, -0.09052026594195255, 0.026774065048835317, 0.05539845258975522, -0.12388134852176819, -0.008777679249185386, 0.1310128303205964, 0.15748343946453333, -0.07637386412954521, 0.018839197309870034, 0.11094035984466041, 0.1034571644060758, 0.08195417674118824, 0.07817195321090828, -0.23662308651454822, 0.13841523370056008, -0.19366851918790667, 0.003916442668773327, -0.12063901092545952, -0.21881307347666007, -0.09838578404482613, -0.08109624295564706, 0.1267999722408736, 0.05463826532979833, 0.01817420534997126, 0.04198758940982527, 0.05016548643341528, -0.017423916101001434, -0.1109416916908763, -0.03145641689274373, 0.09235022692537548, 0.08438636659020807, 0.1260899523939654, 0.07451669671210802, 0.5201391154953213, -0.0878280514324959, 0.030950744740752552, 0.1510523317310722, 0.4086543155766368, 0.3113670631127625, 0.05076517437485675, 0.07466059587491386, 0.19890111015418507, 0.005108361138257554, 0.02956450815914158, 0.0240397583329219, 0.0354623884271433, 0.10791050343082689, -0.15063845445233792, 0.20335938645278007, 0.0704020867665505, 0.005326631077191695, 0.04632471882603994, 0.2770026191983402, -0.018490122764040152, 0.34721028473905113, -0.016561585046733367, 0.025583088291922636, -0.0411849389900603, -0.09312766893450426, 0.058865585997320974, 0.018172415103469328, 0.008920626952094467, 0.047251236119172604, 0.009934928287755164, -0.02758716531602586, 0.03905662790134028, 0.0006040321534808409, -0.07059071769934948, 0.039179603881021347, -0.048555153433955084, 0.01766322850834482, -0.11626336012237333, 0.11737074282226011, 0.018948728611308866, 0.0802102941981617, -0.2507877629673663, -0.048301522864656464, -0.23836539705296497, -0.1382546990528002, -0.0792058599600805, 0.15278532215251983, 0.3575268873179075, -0.10679498798276058, -0.06434978649651586, 0.16161701627271008, -0.006191221345427718, 0.2101960019693127, -0.009868806792726174, -0.009460913997938076, -0.00879853723073896, -0.16363578166404788, 0.026543891798020785, 0.08129399977635673, -0.10541154303573472, -0.01678393779632114, -0.024598558646084838, -0.06515474417708951, 0.07382050435965305], [0.032543423649774375, 0.07680174294591695, -0.02830634524094086, -0.028259358211965874, 0.10197680003333821, -0.18657210724656992, 0.01337027586268176, -0.14489408209829865, 0.058203624091135976, 0.05385524129577297, 0.05029508873634796, 0.27107007886316264, -0.11718304179100222, -0.2112072267999989, 0.11975732106339233, 0.0374795183940774, 0.07321660796104816, 0.11504467380732629, 0.09658778132647144, -0.003919201707246279, -0.05944640626888135, -0.022115932661172937, -0.027860902333712276, 0.48190908403938104, 0.0833092936808993, 0.07486651687590486, -0.01871579889238981, 0.007380534391056445, 0.0015904329220633535, 0.08335014439961698, -0.016239981154972768, -0.22766190199652256, -0.10273890052616036, 0.015853759078134338, 0.038038168282686816, -0.007515590890868724, -0.0978371126938367, -0.07732936526131466, 0.0646841484519812, 0.08337690971480921, 0.053288994494966206, -0.026681547275917823, -0.12154846658872744, 0.0033846439742761295, 0.14666983802120623, -0.04515316330247341, -0.00012517607365236547, -0.19324071393461903, -0.07531339709516569, 0.13150653267544463, 0.08990186919843239, -0.15274885116749617, 0.1443506812008132, -0.1371800118474413, 0.09869406914611524, -0.0726241872520112, 0.1554109277577726, 0.24979645844899667, 0.016288837205569277, 0.205626151391855, -0.08192817576043013, -0.2160110622138336, -0.002597751786294869, 0.016289813426046084, 0.17503190263678625, 0.022221751538775196, -0.2323474142367933, -0.08075532701717421, -0.13085223741060772, -0.04362871340364652, -0.10404348168941971, -0.06181038820974573, -0.15696713501030207, -0.030264667010845448, 0.1668571609104346, -0.16892124377362883, 0.020122169270807923, 0.2520264644622591, -0.06799822828756583, -0.005708278606511725, 0.07667064824801921, -0.22370505490269874, -0.25179615543632095, -0.002003804808658941, 0.056881256414893604, -0.09225200424370399, 0.09869453679546249, -0.018412810449650832, -0.003401581137183199, 0.13680466259116936, -0.14595280959020776, 0.03042436744629996, -0.13837949771516053, 0.11326135647465452, -0.11695393990225138, -0.17813383677513736, 0.07995460303384908, -0.046573890446495035, -0.0639854154501312, -0.3575427344069006, 0.008126106414819886, 0.11215684197058873, 0.13350012452131269, 0.10730676534346655, 0.14399550163035224, 0.07079767353957521, -0.05405608765692777, -0.09792696814931506, -0.14906108626490497, 0.1565603537965869, 0.28331793856578485, -0.004367033324266099, 0.08879637770199053, 0.16204063773815425, -0.011643509077559499, -0.13329933119258705, -0.0639779332776479, 0.1856196868378084, -0.055906665760726636, -0.0846792919985504, 0.028596853232190765, -0.3380794546341967, -0.07145643291503596, 0.14032542066579115, 0.07092274494253116, 0.07495561333320686, -0.084690913003587, -0.12342280855065632], [-0.01091565087939553, 0.166070109847794, -0.14997162510178552, -0.11167536181606455, -0.14748478531666956, 0.02255665738010641, 0.1201138406793684, -0.13225314867892277, 0.0324695293154937, -0.25505253285137286, 0.21149763143802397, 0.02070538280476607, 0.013944992074825798, 0.03021856331631589, -0.05772474281318818, 0.009059268938277082, 0.27064974331546765, -0.06688125713772829, -0.0719214407537271, -0.21887156384235323, 0.03490142395796202, -0.15987256039876072, -0.14429314393603954, 0.1915598853317289, 0.009900177122867922, 0.002940899266507344, 0.006824954160004784, 0.15013267824964757, 0.10000132769762149, -0.010100356887281987, -0.22287456723249058, -0.2165806813598697, -0.01839413802720505, -0.017073954698740477, 0.130458231955875, -0.15299555895010272, -0.2605600542937143, 0.13079924641261037, -0.043015617746224845, -0.055949185222941865, -0.021857282788096243, 0.05940357462210508, 0.13396438282663867, -0.030925258000662644, -0.10390506503861845, 0.024879290750161626, 0.05267558677281175, -0.04068996907977554, 0.18070827486812568, -0.0687097803958031, -0.10784586358958208, 0.09246444571084755, -0.11149712733507287, 0.2750876906861006, 0.04841368142730335, 0.13082492208226434, -0.01477259600233721, -0.07680883764615755, 0.18572142586585685, 0.06608829026262705, -0.28117397905956537, -0.008498682462759527, -0.06612899301688402, 0.16486681471203615, 0.003168473574734213, -0.0036425697988455357, 0.15724531880792794, -0.15378642852118365, 0.16600045216011255, 0.16780892472396075, 0.09486363265294577, -0.10288815325390828, 0.04765041639260906, -0.055524085873473024, -0.22513791039744904, 0.3097190373138772, -0.008661959151065905, -0.03155442572054063, -0.3338122714450412, 0.15894976083818824, 0.10019206589267346, -0.03243086757505307, -0.07982675879141782, 0.047162361271799354, 0.12369651387383515, -0.01836438817646598, -0.1264446952149799, -0.014831316629490358, 0.09294148796892196, 0.0693835634131018, -0.03193698101029782, -0.054151695061243274, -0.17481999023444525, 0.32042882076026136, 0.007616183518347573, 0.054731901065505295, 0.09510525811473841, -0.02483371992462682, 0.029314588553194024, 0.06925781752223312, -0.20931333414219847, 0.09619820637947249, 0.11873488094162475, 0.05902362438992456, -0.1637842017247265, 0.0905923609561687, -0.0368619130374214, 0.17237234653295616, -0.10581595678247108, 0.0348337091384483, 0.04107758967705943, -0.08898290882871908, -0.0995815465195838, 0.16516781366937192, -0.048479351588272795, 0.1829845807980799, 0.06076796056260617, -0.14793791189002195, -0.07650652162773029, 0.007125810521778617, 0.04028579030041094, 0.05236780368625077, -0.008751113371761791, 0.06201833727363631, -0.06848896826706129, -0.09365027736131529, -0.155046178330574, 0.05297840222529209], [-0.1640387899584607, 0.2633194776464442, -0.012744392969518166, 0.06165658442042795, -0.10944402161225403, 0.0010566612108771397, -0.12005993384680622, -0.09407524170629762, 0.17958100259880555, 0.03280157495851958, -0.01244176503839406, -0.01226247402345807, -0.0027045395716917744, -0.09456425587919948, 0.06353211816954933, -0.028108909931216466, 0.016624991364311722, -0.006383933386113979, 0.07224521129429434, 0.19569590699199935, -0.05171529036245716, -0.05415416898808147, -0.023162723530465015, -0.05202051430581898, 0.23394836785968776, 0.1537637712860828, -0.0006768084040329763, 0.11356765236796713, -0.03043641681061864, 0.047821692053149574, 0.05431655747528199, -0.029731502346245806, -0.10857829489476145, 0.1008769722341966, -0.17811085313326816, -0.03497303272741389, -0.12235777349465167, -0.10328414403163373, 0.22309196847018956, 0.0758412454182248, 0.022828689713009612, 0.05488696722727267, 0.01910215805593113, 0.10446396019308579, 0.057257129247745335, 0.06508511958422729, 0.2085791171107028, -0.24914955534591413, 0.3308195201172281, 0.11119145146537074, 0.12678076979534836, 0.01575591674921479, 0.0869319819755272, -0.04063784357605035, 0.03360213656091737, -0.13280205192907224, 0.07980712806711858, 0.08385446973708376, 0.056470180534941614, -0.08111026897948834, -0.029314320276185996, 0.2135245702525609, -0.006325784341646283, -0.24647930867864024, 0.035632128362323996, -0.04594627560308179, 0.019062398755721976, 0.15447741123749492, 0.10571841638941434, -0.09261885546690211, 0.06632702092500467, -0.14163086626226895, -0.016833334188711534, -0.04623211370696786, 0.18585270484589417, -0.1448123816419555, 0.11491885986308964, -0.09417096214879594, -0.027220629120940042, -0.00903329592274506, 0.055186643447063304, 0.10609848246688898, 0.19767946115028448, -0.2128063394452535, -0.10637492457492971, 0.003900053681328259, 0.07917166299618235, 0.08719405093701013, -0.3186981002531864, 0.047855728578297785, -0.027448872878809722, 0.029617627333346084, -0.14894368346288428, -0.0631483689509834, -0.0031056404193645286, 0.12682890963566903, 0.07511644913748991, -0.09025992206870738, -0.15168011569935314, -0.07899604557840466, -0.06348786866997197, 0.024225135761615144, 0.3680297756496004, 0.04218047576836874, 0.3031571955781762, -0.11966578105399425, 0.028264088693605055, -0.00417900910078547, 0.15467797504597167, 0.18038220672960226, -0.03562096159339149, -0.10078745532126075, 0.1352327942622874, -0.15882568127557004, -0.12182326987399662, 0.11129259362575382, -0.0442284483573632, -0.01912365650082545, 0.13013666947598004, -0.0014465788521884682, -0.12232113650400839, -0.0480580417264179, -0.09815500868607643, -0.10568174894174773, -0.024895466838885997, 0.1567178155220696, -0.09244207030524049, 0.029436450714168037], [0.15785288758655733, 0.08130108817643615, 0.12629278121659232, -0.10993590955374828, 0.002888541221659689, 0.0913596652773707, -0.06391636170754209, 0.038161863962193385, -0.12908216199699027, 0.029899937658891915, 0.04011217151525165, -0.08463556985474631, 0.2581312693747488, 0.10437500814813051, 0.013291655184831313, 0.005952180296555578, 0.06117270100417625, 0.12155334191693008, 0.027721731614937163, 0.12469902708292915, -0.039116718762469825, -0.1782091249688201, -0.08839814989629177, 0.14608260389055822, 0.04038906267267202, 0.09832260622962924, 0.011217969984504606, -0.01375643910833589, -0.0845777781738373, -0.19635036814526594, -0.04115180214556261, 0.007461251063779118, 0.05297446316099011, -0.048411952814006655, 0.08541511826610212, 0.086714312865141, -0.024930832974415586, 0.12134392409948078, 0.2898809242086372, 0.15076216777286908, 0.20080212119623006, -0.11681597458105474, -0.12751167125714893, 0.037192149980515066, -0.05070191814141777, 0.07637449050039824, 0.04883406870310298, 0.22987795342345885, 0.20464294166505692, -0.1665346660657895, -0.02580021473882557, -0.012745683116070251, 0.03672931095284998, -0.10436974863170354, 0.08102167479723299, 0.22913674169703463, 0.06694130405175473, -0.09272700932085103, 0.09016214762294093, -0.1736416407160374, -0.05352962064398504, -0.1596607999434471, 0.06665195649190503, -0.0731945246077008, 0.0594677825261655, -0.028971700137911113, -0.0965408647904772, 0.25763877210264213, -0.04657955941951258, -0.10306871267387353, -0.14377971876225187, -0.01586250862404509, 0.08749266595863794, 0.18384894112910727, 0.1555039763306635, 0.18821803261497305, -0.16647689024612283, 0.16657555278515174, 0.21709367603887128, -0.11623491414484133, -0.03848103789009407, -0.15527350715842306, -0.15581093926332765, 0.07125446765262246, 0.16602352525731662, -0.21818545133284925, 0.17294099496110263, 0.04479397944949324, 0.048764307967736974, -0.152628565342946, 0.244056874119725, -0.09190758429942868, 0.006111331328976993, 0.051243874297972836, 0.04317185110610978, -0.09845089710978407, -0.01267678780225036, -0.05368734308255295, 0.019192912852819027, -0.18975404661907816, 0.005432122792235248, 0.10062903929263096, 0.07891728767977416, 0.07463394186918244, -0.09768635515992326, -0.08419519185247601, 0.20396533713425122, -0.08416362910102844, -0.07166447415888728, -0.06170990540314208, -0.12247729583400872, 0.03222573581307298, 0.014507154246015235, 0.025321474822453435, -0.11718359768214187, 0.04169095282737052, 0.1704920719798748, -0.4101153315834735, 0.004436936356287265, -0.17186339605480502, -0.1108255077695096, -0.03488309754536493, -0.1857945763017946, -0.372637443514453, 0.15003175068994873, -0.06259268552523975, -0.216719017690546, 0.016682499877809683], [-0.049830579617233355, 0.12156467695427388, 0.04918009114044856, 0.20045533771684523, 0.0928909050356551, 0.24366037228825596, -0.06558896053332731, 0.08929441809407206, -0.041844407885084506, -0.07689108132743311, -0.1359729496912399, -0.04326334575331796, -0.04896022450718805, -0.015942055159656094, -0.04918563025857508, -0.10757519009602996, -0.08444607474849783, -0.057775352449800046, -0.06608518656262709, -0.009711818834041241, -0.09632008177880641, -0.07037480065255675, 0.03354763652069896, -0.07227433771711927, -0.13625241167750898, -0.010531745245544216, 0.1302222390179268, -0.077474549475699, 0.11539493035136807, 0.13606047800257054, -0.11907066219826637, -0.05015052891920713, 0.1078924224825911, 0.06597762139036824, 0.014405888895116993, 0.036589011891466384, 0.13691895135284443, -0.1965175873077714, 0.17220844503430704, -0.19063429367666085, 0.02176385700105996, 0.17829120676832863, 0.11531432002227204, 0.06026194391892968, -0.09377192281373074, 0.08794088009698671, 0.0038735242355863184, 0.17902076115723287, -0.09218485425721491, 0.0395733987333934, 0.023340987945635428, 0.3560717633902102, 0.07810979545605728, 0.08717400497845364, 0.17091558629977924, 0.09058868182239935, 0.10198083022166797, 0.11879103503982251, -0.19275579028310263, -0.061346796159736754, -0.18642408147465359, -0.08918954383422656, -0.09497697561792695, 0.1609982863261988, 0.0796292456522994, -0.028968976196438852, -0.08218520337626842, 0.17891378673697317, -0.1859990814065815, 0.01678300822346474, -0.13276131091203885, -0.22732259790122458, -0.012835969044127721, 0.24188784564905277, 0.11195312787903082, -0.141461141079885, 0.04893957617974118, -0.01419831838952235, -0.051268196344719304, -0.15072165966597995, 0.03289158315263098, -0.12535239756016017, 0.24637487728885185, 0.3303203777762371, 0.19137150638131445, 0.06572984829444403, 0.0892639618691827, 0.10901132370969012, -0.02824861579092627, -0.04589669590569664, -0.04490678584540085, 0.011626195480059604, -0.06177514397972088, -0.033689888537398585, 0.1699248612053897, 0.03252576869585362, -0.09702955037541552, -0.12731522491132993, -0.005356527102206402, -0.15174244064600312, 0.1193331564498347, -0.07532175056014144, -0.1116251013541281, 0.04202356077141929, -0.06961903181912953, 0.24026715588230485, 0.06876912273021449, -0.05833903029977286, -0.03732818873947865, 0.14266062259797957, -0.11616516027552191, -0.03809846038335196, -0.05907201578193675, 0.07525643052219808, 0.1801661342091703, -0.18532543680055116, -0.11766633525889589, -0.0013083603088477635, 0.07312706941710524, 0.2054095904326049, -0.10599873644343417, -0.2830270157664077, -0.0790305718140848, -0.08416473386707508, 0.1282923245050365, 0.009501870885947184, 0.11915148155452954, -0.09151277096327033], [-0.09785344936774053, 0.049276451955260835, 0.012652065810999277, 0.2676859265626018, 0.10843436734303097, -0.14006034508433857, 0.10955917589711568, 0.12266746732658843, 0.1742884492019058, -0.0899929103213395, -0.10268789398781664, -0.2562068549119642, -0.1114534694539379, 0.02613066011128631, -0.0939740394855914, -0.3103076823721849, 0.01318804242804392, 0.03816733550382425, 0.14815913812454765, -0.00846500930452772, 0.2151353524251325, -0.06232584106325241, 0.09499720496581121, 0.11095685700047597, 0.152131535823897, -0.056218427858150184, -0.0655675539073476, 0.0017346041081454692, 0.018991100077596152, -0.004563103554621127, 0.14962384102018028, 0.06192779601421805, -0.038660594468909196, -0.14728676633537485, -0.0233879573583736, -0.060607136917526255, 0.10468299740687581, -0.2298312232377372, -0.03495441180660522, -0.12684264195741954, -0.07325384341841398, -0.1463026380962877, 0.1165270296079043, 0.1736361825552037, 0.2513614836550931, 0.025575058224196208, -0.026933309723738214, -0.22358090668971367, -0.08943291093214938, -0.020204505117482445, 0.014753642826365956, -0.08098579412867365, 0.020449327229992587, 0.0063770580308361675, -0.027426378110393092, 0.1237364764511887, 0.25958972262856833, 0.06868656558593507, -0.07446188222140669, 0.20068507750505826, 0.11349594351551401, 0.07127455355634722, 0.13058625643984928, 0.04884515833178052, 0.027777980822094685, -0.07443925923945993, -0.013569487870537005, -0.2565398676433595, -0.06270612975784882, -0.004326844710754417, -0.0014854738403098473, -0.02243898655988993, 0.06055965442935312, -0.07837619089693036, 0.3506771297037352, 0.0028316397640727325, 0.23800898031984674, -0.062049191726121486, 0.0007793159815021992, 0.10092474816911777, -0.054432353065076135, -0.01566827263270631, 0.32634692026355255, 0.0860419201600404, 0.0233254118286018, -0.06960170044711349, -0.11068489267456821, 0.02158835923376088, 0.2235948298122412, 0.01306887650131748, -0.18444832627670416, 0.07219252465209296, -0.13835942528024336, 0.008009018277997505, -0.27714896040389914, 0.15154151549387754, 0.12590967392462452, 0.061105397976682976, 0.10007986678622417, -0.040672312881180325, -0.12123614207991884, -0.03589227450709717, 0.07502927564439034, 0.1978620635646609, 0.07698410354224526, -0.12464742875122518, 0.11542398787227189, -0.09315188661724615, -0.10901655134920744, -0.054548641851640364, -0.10227101044471855, -0.053050396615287904, -0.019631764053433868, -0.11102067815677466, 0.038458479922906144, -0.07654693157559794, -0.1420591547695181, 0.09562369420524577, -0.08610818123356224, -0.1180566488176118, 0.0658410803840423, 0.07467827214532217, -0.3326183262763046, 0.014017567293519828, -0.060759521574365344, -0.006383533551754248, -0.09240248956724212, -0.0026509481217122984], [-0.09902189602818208, 0.061000791391547106, -0.21115106403158204, -0.2013954463897703, 0.19376169575328064, -0.043110127242704493, -0.01820504870413081, -0.1369872580570087, -0.10177784591077775, -0.1447602865520327, 0.09028264000693802, 0.06532354515859098, -0.048104308946089934, 0.0003712380661463709, -0.07233898299045424, 0.10729616210947819, -0.11329496253505306, 0.030817968936782743, 0.002383772523948512, 0.006854558099778216, 0.12813415691045343, -0.09047523622894349, 0.23038408454917714, 0.023997848780136884, -0.0015084698842940134, 0.03915520189982504, -0.08058924776481895, -0.18773796528322165, 0.030878557003284, -0.044775854286536236, 0.031915370160684034, -0.024914833439209607, 0.017947999853976212, -0.007921952630574975, 0.04546192720680872, 0.2336356293275248, -0.07040086934663066, -0.08601749502103441, -0.043980471203500876, -0.013498893200994337, -0.09099575880643769, 0.09040877754155004, -0.021829901516517387, -0.01481856457617074, 0.1623711651452944, 0.13840202757185757, 0.22073327402893775, 0.09187562486477634, -0.23379937842888895, -0.020575795624108037, 0.05359788878400267, 0.11327030312364994, -0.010874177070792041, -0.07996012881599444, 0.28291174643455974, -0.20473826197452072, -0.15733316841482792, 0.05599019388501087, 0.12276152620238923, -0.10455895793958934, 0.19116565367490287, -0.01829159297983725, -0.210571211694079, 0.2572296216477066, -0.07078577404974205, 0.25667878304384406, -0.28076585921783087, 0.021011353327469413, -0.18838193307176834, -0.15723265478240694, 0.11957395426137048, -0.18312165414650655, 0.05290782500613243, 0.07778404862075954, 0.17473541105246324, -0.03602288456792859, -0.09318946804333607, 0.10560084862920885, -0.07293111553256368, -0.01600689877169924, -0.10281556565268472, 0.019163522200796347, 0.14430489574563468, 0.21392737951482932, 0.21660159226396608, -0.3112847410567136, -0.2359529541594677, 0.02097547816459539, 0.08184746720891518, -0.24807663668217547, -0.09107784743574654, -0.10470427658603666, 0.03294282854109477, 0.13655228339153738, 0.1413665838933595, -0.0028086612917351994, -0.15060605391511644, 0.3441136905464149, 0.10861592596991267, -0.018180926949532234, -0.05882684232063886, -0.0628392620361747, -0.18591316729955573, 0.01761891002043555, -0.04192063171345438, 0.030161798745218016, 0.03925945609024945, 0.08867890033039512, 0.06793438610890777, 0.14848855082756512, -0.16249661986186836, -0.07414359518299984, -0.08448281327212973, 0.10409382499681935, 0.033514943004763875, 0.03578305866769424, -0.08921436242457503, 0.11355605219038736, -0.19186227143833884, -0.07911348654332336, -0.06451181130075777, 0.05800259863822582, -0.008006325610700752, -0.15209259973740832, -0.10023530762024736, 0.008323708886267088, -0.11719068835428385, -0.15079381536853967], [0.015356569554295398, -0.026755393461306034, -0.0920214822863805, 0.33125738948190997, -0.12037112423044537, 0.17882994721619053, 0.01945340811936172, -0.0314469682072025, 0.11713687490793896, -0.04448671081935166, 0.1161339892548699, 0.04991926426806167, -0.03264650866182622, 0.1254816412068653, -0.01173382139712149, -0.025784468254625638, 0.06268775875645562, 0.1294684689958287, 0.14076807108101616, -0.06103182894896002, 0.06434265035234081, 0.22088636352278795, -0.15836720389936307, 0.13484759994362575, 0.04581802280666101, 0.10732375619612121, -0.13615418780985214, 0.18521193134673422, 0.1180387833973564, 0.08563603027181182, -0.017723323271071376, 0.0863678940473398, 0.11268769283798902, -0.06503512603971483, 0.19370786383509644, 0.1356094478943501, 0.09452451714566268, 0.24199625076691406, -0.056808523956041836, 0.08253808359631588, 0.09152037687013645, -0.035991550530184886, 0.06435653486259271, 0.211641064351501, 0.031414205010196206, 0.15385602924169411, 0.17250938221214424, -0.13683897970966297, -0.1203324189293452, -0.06471061443847835, -0.09343502246548735, 0.01516649642533244, 0.25393387708238485, 0.0279449748314048, 0.08378259462803521, -0.04942878753637043, 0.014402282328098625, -0.04290642482337097, -0.09635575846733467, 0.11031911758180829, -0.05619516963643656, 0.13555247890790897, 0.042968945092629725, -0.04772390173201474, -0.06833917444946544, -0.12260893755337428, 0.1376135743597025, -0.15855406396821148, -0.025533614914728567, -0.014782734006735354, 0.14042822940108865, -0.039979230061193576, -0.10135774636128461, 0.09463959382960098, 0.042300101691391125, 0.1075916814379404, -0.09228294822982192, -0.11650696707381872, -0.08398727375697047, 0.08957907990463385, 0.29381249291993206, 0.016202181909682308, 0.025300133928431494, -0.007042660428360506, -0.026604559715834242, 0.028064350384755184, 0.03462190063425044, -0.20874353167116355, -0.06641116552753204, 0.13127615333379772, -0.023785184497514936, -0.3961544159140075, 0.21935080079806912, -0.09695488996249037, 0.08440292715732681, -0.18648237561019748, 0.0981539970747942, 0.20119337845291702, -0.024311038644959843, -0.14052102373084158, -0.09235936265373251, 0.0469558772876065, 0.03507360570630084, 0.10963579849533577, 0.06988551839704508, -0.20402400858518538, -0.11802765077045815, -0.07714690441886804, 0.025577499400594252, -0.008804077113493534, -0.005294724804172276, 0.1473171410293954, -0.04234292027870866, -0.06891666434776582, -0.16107465688756448, 0.1258506864358774, 0.16035834822739853, -0.06984764266503007, 0.0321407764361747, 0.12619772016726033, -0.24095144288771722, -0.2140067497416168, -0.088611825216692, -0.010999565690138234, 0.12159954751148433, 0.05266280598847009, -0.09389295576670717, 0.02659388297908798], [-0.03063098560209045, -0.14048442121093363, 0.005797599816510831, -0.0547120892075143, -0.12146284873381456, -0.19548179816034644, -0.1774429698185391, 0.041488218831459055, 0.04156386918818167, 0.0957150105304692, -0.2203944583888703, 0.028056545019695733, 0.11223035290493391, 0.04242313377862343, -0.13790040408501972, 0.09198693318173701, 0.2051885946375316, 0.14952376471014714, 0.07625708785740327, -0.359763322772723, -0.00945362178280308, -0.16009241736972302, 0.12760542923732618, -0.019609414712917703, -0.2431813975892836, -0.08150955310285117, -0.11142603559165129, 0.06596574234021146, -0.09760348411251295, -0.004761179460155135, 0.0055399864695304425, 0.07234035453751442, 0.1172306571219074, -0.10296620358749405, -0.026764157887360977, 0.03829506884963906, -0.17469753214692754, 0.0030540855680403355, -0.13777868137089927, -0.040783340424521676, 0.017538609461031883, -0.23572030160939836, 0.12939050845516192, -0.13104913505835109, 0.06591461371202974, -0.008549757380527247, 0.08636163323612607, -0.017909531365219937, -0.11945758552063787, 0.0469774625183492, -0.047669553007023704, -0.0743928206573003, 0.12815861042130608, -0.2749484551294502, -0.10333002986258429, 0.036151753081978995, -0.012861286096344264, 0.05576561731092195, 0.013397799649889824, -0.14032561720848966, -0.07422186173781534, -0.004501675596933612, -0.13770945337664658, -0.18909325091980334, -0.11566173830122904, 0.008430544369714495, 0.1496788009336192, -0.11227187300675344, -0.03216423294218869, 0.07153495192903771, -0.14149740506618444, -0.03455006087364813, 0.11909316546537481, -0.04346466588539204, -0.1726824790912191, -0.052610098548271596, -0.07716818512341898, 0.17741695429567994, -0.027815017542054975, -0.03176422141968923, 0.05362557468007546, -0.10778030230068023, 0.14704628877865206, 0.12922316921671534, -0.2195365414020795, 0.14272992544368868, -0.09039076436145446, 0.08664455236155467, -0.007949645524732396, 0.0429222021836915, 0.29569190264886375, 0.07857992772091324, 0.050637361765406855, 0.03150762150831543, 0.059355087278319195, -0.17446422239087678, -0.15649512406833596, 0.062598686932679, -0.23508256963814333, 0.1702813286612835, 0.0978040096845205, -0.2630583017606685, 0.02886915960707587, -0.1697613223874374, 0.0737781547487844, 0.10193733360704017, -0.06578492439505687, 0.06817656932524359, 0.236522790185882, -0.05718359216517508, 0.12387941058192295, -0.287128744574845, -0.054632968658809344, 0.049792609929793286, -0.1575453296027149, 0.13743776953391967, 0.053421436081481366, -0.07700327610097589, 0.06470835970173372, -0.03321490894952437, -0.14996064709751397, 0.138302084683052, 0.044030832757873416, -0.12108167314448562, 0.23877399372967015, 0.03962888461799028, 0.16340861964374412, 0.1649249947607716], [0.05994489416593528, -0.1350446254773254, 0.09878589320678084, 0.10632038800595102, 0.18846312579295396, -0.03302032392234954, 0.009256261792848405, 0.062282508669399675, 0.040780103088633717, 0.02079371197289209, -0.09057686035116919, -0.18212427197647257, 0.08773815070907295, -0.0038142712269046883, 0.06701807125233489, 0.15160541476873457, -0.0687670870811254, 0.1209719466598001, 0.09962242276810065, 0.0011857173378078045, 0.11921120749328919, 0.01029929332362701, -0.2888620654257548, 0.1743155758385672, -0.014410937267560818, 0.09265631345025767, -0.043537544397765096, -0.023998977079355062, 0.0911796659838174, 0.015403701296604804, 0.2017491452850907, 0.1780256576271824, 0.17520397504525365, -0.022203314302248454, -0.4101472687262397, -0.014473382747742179, -0.1902797097008269, -0.19222267326964357, -0.12134384482004963, 0.1586939046521075, -0.059057980974504105, 0.14581964943889233, -0.08754857559160889, -0.026377290672122487, 0.034572679525020675, 0.14924599121933638, 0.19311997424932859, 0.07138016143115587, 0.2031135043577352, 0.05458960107359941, 0.04605673889034345, -0.025777499164711438, 0.06816390434508005, 0.024535567544984413, 0.023901202976204766, 0.06286922812313922, -0.048152444301389805, -0.17857269297727574, 0.0695371341489968, 0.02474170429721453, 0.09788956756483291, -0.18071328307579634, 0.24639734314307693, 0.035155750022469144, 0.14268754310033696, -0.017975931498684344, -0.026413651937760057, 0.1494255334625944, -0.11200316614588023, 0.10973746666827852, 0.157142756628162, 0.07329971906943761, -0.05094875488354248, -0.03186635529263282, 0.18034074395231428, 0.03872478953097762, -0.013366902505220544, 0.3243970604923246, -0.020409864109568368, 0.20799408038571535, 0.12409303344568548, 0.08899970373063916, -0.14997886434880298, 0.15275285370840594, -0.040639624654568406, -0.16883362176948724, -0.04868759519987642, 0.007156426712115972, -0.2119479815394099, 0.0013960792941132094, -0.08600248349658107, 0.05212848615276277, -0.1307977149773374, 0.0008136750291239471, 0.225308268387443, -0.1829910238825752, -0.07142645698921378, -0.04427224547073936, -0.1233214501050255, -0.02335990142749921, 0.09909637624533665, 0.15753660825361326, 0.003917232082852085, 0.2115527040879702, -0.22028869434322146, -0.08342511536503389, -0.10214279103569376, -0.2036435025438686, -0.3280626077351394, -0.10721488128511825, 0.054554549145329284, 0.11865645615522391, 0.12101360192873536, -0.03732676796996171, -0.06461939774089155, 0.10285446016539923, 0.10087108332077495, 0.0439311819911849, 0.15014654837587318, -0.022438756763675037, -0.17513804725311136, -0.05093811736197879, 0.08298151047150291, -0.03444476511188755, -0.08683588310967892, 0.05727536723836725, -0.24693808046457658, -0.1618766786316131], [0.08654537886935439, 0.08881974737368403, -0.08713578252371353, -0.1432972931807581, 0.059978539229092576, 0.09730807278191249, -0.1094511697604638, 0.04114217147209785, 0.22176575672142576, 0.002006926916332826, -0.14330913755267752, -0.14357858414464172, 0.2290628400936468, -0.054549108926573504, -0.039845770785186016, -0.007532660585464193, -0.12422592008836465, 0.29868661782458344, 0.18212892741171333, 0.10264637275240979, 0.0331880624242109, 0.09209258042074954, 0.10595218849577787, 0.3157498974663915, 0.09154006619977383, 0.17601773155137684, 0.23017904963877125, 0.2282705861683055, 0.27574511643273375, 0.09460824119734307, 0.1079579988079096, -0.012883535409982277, 0.002931157174651638, 0.06917058716324072, -0.12777566610430705, 0.04611109713418459, 0.0414941396055031, 0.052019490415278605, 0.100490659193902, 0.07885299551226374, 0.19135224255973715, 0.15783744570371708, -0.10694427738216922, -0.03574031461257467, 0.017149919721635275, -0.17461809995680483, 0.21215739889003882, 0.020200693448298935, 0.08348452348338362, 0.041098759987158284, 0.0504974417202505, 0.09707573031032553, -0.1718616685433166, 0.09247096883011288, -0.02459960761946793, -0.21163176093721414, -0.0891231529843197, 0.17061644938821194, -0.1721861190096373, -0.06003608781983864, -0.0957200668773395, 0.1165725823793895, -0.026582840283221866, 0.18819597934153873, 0.10378495799181246, 0.017180624760530876, 0.2391377800433194, 0.023675091368639774, 0.08404507930830889, 0.06488183026441836, 0.030432348716281858, 0.010290504821682285, -0.0063388544494670076, 0.04648157972420159, -0.014594269540731317, 0.06000481878047744, -0.04578089206921176, -0.14614774645691417, 0.06726794877661585, 0.02881244195687173, -0.009589879824092111, -0.03562421512314693, -0.07503616239278152, -0.01147083808836107, -0.21686772182431815, 0.0839334700999769, -0.05152641874126315, 0.1650386521661561, 0.12098944559639305, 0.03692386013593006, 0.07610743047576018, -0.17986461307725646, 0.13482807421943274, -0.07087807032817584, 0.0796294551974317, -0.02700282542305141, 0.04008303319937852, -0.0283854496241062, 0.11613360092939512, -0.08984856563636813, -0.037401531881888175, 0.0722375894230383, -0.3297529233272467, 0.10939543628261907, -0.10707485900903756, -0.03681457759015331, -0.4304404096005368, -0.19147263389940342, -0.100963202737327, 0.20876677225256388, 0.08483968520890199, -0.07771034392349599, 0.10784048586193852, -0.16057819123009867, 0.06852311801899502, 0.08921075060172699, 0.27567767000155674, -0.0009415678312998282, -0.04454766261433122, 0.05916318223456525, -0.048482553035540436, -0.003513835637256873, 0.056747721521237575, 0.04137651519587028, -0.16523477460542493, -0.04128053584954608, 0.06504418722739347, 0.034150107945059974], [-0.07319781507950587, 0.12897160453515435, -0.07027796641220983, 0.016162988798379147, -0.17971573854771017, 0.028957181074733284, 0.0430555070145287, -0.2080483939869071, 0.04144959889500419, -0.034948183209520194, -0.08522188893981189, 0.30732594548744957, -0.26815404610185595, -0.0208334641958625, -0.08771625749111417, -0.04263407269921451, -0.13707028353788092, -0.20671692192610006, -0.18964351526976894, 0.12025503259316832, 0.02590578222165222, -0.10550389745708291, 0.3205440780448382, 0.29354186448315056, -0.06791810899630629, -0.09367963571607293, -0.04751808977747738, 0.12396587437854575, -0.10174554925359273, 0.07446513874250046, 0.18811417891839877, -0.18963738708676228, -0.04362119823727378, -0.12644859118373547, -0.02234730274377239, 0.10179232783132798, -0.11165653592500221, -0.05388389582590673, 0.07203679449804767, 0.2821391948510462, 0.09906155523397919, 0.1508394532168475, 0.01846796632844699, -0.037830942844007606, -0.05034459280920509, -0.05051516711145053, -0.03068635265003019, 0.10072059913949664, -0.11547840033216177, -0.10035866839818373, -0.05061774780312674, -0.14703667872011494, 0.08938200004586684, -0.0948217722689553, 0.04973140926456829, -0.012440286866389164, -0.04807537493959114, -0.01358863570453435, -0.02686346088470119, -0.2879513853878544, -0.046612485881384946, 0.09931374270689404, -0.00989094857073834, 0.21702721342011838, -0.14206633307544955, 0.16339628133704964, 0.06929641679895861, -0.04497532223493435, 0.09135917783648784, -0.1404852206277748, -0.1847004447168845, 0.000825899602438978, 0.25601604222184765, -0.13110772254927178, -0.007808640791106363, 0.021558524509788245, -0.0461935681459759, -0.0745513271144517, -0.18254282967779642, -0.05806723456057933, -0.07578527375199197, -0.03146965854476272, -0.005869720220752676, 0.042488139288134774, -0.08232134377970969, -0.008200468744970154, 0.06666474454119481, 0.041595090751750635, -0.08376332295161065, 0.03203508220221723, -0.05687677733463828, 0.05697043948081364, -0.030252010971535424, -0.09973363002765055, -0.23091613715899545, 0.10420338421102836, 0.08515373677229966, 0.060964368075211876, 0.0179436428574168, 0.10133494388008146, -0.02947978078705544, -0.07452880091817739, 0.1671046814961488, -0.0414435346868875, 0.14038549416336885, -0.019461249168609453, 0.055206903816505115, 0.08734367529649266, -0.09539020616391151, 0.2175462619909876, -0.11135023649552424, 0.09110417292307436, 0.1945425708369877, 0.09413538445374826, 0.07011530926829004, 0.1520540032206221, -0.06351408486514783, 0.0016697916582776014, 0.12947943571387313, -0.033553557410008115, 0.08274972641872609, 0.010451080040385594, -0.1072878118858526, -0.032772368410541174, -0.08866054126497237, 0.2584053631276908, -0.055795702077389465, -0.010163217645277839], [0.07562915065022108, 0.027617423306232965, 0.03203491154107288, 0.18577387367917325, -0.08564671189208362, 0.12797079788889093, 0.014565028572577644, -0.2529590734137478, 0.03915017256987159, -0.09413608105607157, 0.2116013047685796, -0.04030822364763699, 0.33109836637266865, 0.1075162973262292, 0.024774826122242712, -0.15340439441219295, -0.15956096599468564, -0.35970374644469527, 0.07012844310271024, -2.1576276952819613e-05, -0.008667571190651834, 0.04152381125913913, 0.2054272399173389, -0.08565473334447812, 0.07753808954201905, -0.14576232373567038, 0.22284824178161391, -0.003871736743866382, 0.23694854741656363, -0.18306601004287515, 0.2940494031464447, -0.039694995648856174, 0.07551396561265943, 0.027455042654266928, -0.08731264428128603, 0.06436550158292352, 0.05397980235321665, 0.08663288736170364, 0.13736187252263046, -0.09471226783183885, -0.14480732428738002, 0.03794399973050417, 0.15358606594928162, 0.22490648404791092, -0.05445225721783063, -0.22418370417061498, -0.04605558808874083, -0.08121939453485566, -0.012704787784710977, -0.1796682779226714, -0.07441926203008227, 0.0861020139071025, -0.08866587793931073, 0.11679234279326539, 0.027169026689641475, 0.02976995342929165, 0.1057504844214172, -0.05048089400212578, -0.07211374796798499, 0.11105140749829769, 0.19829865321291315, -0.1530567585335818, 0.08185983061736195, 0.05382340414035397, -0.018069598443823148, -0.26024812838396394, 0.12125473724326546, -0.15611804935058154, -0.07573709537026117, 0.01344763604801149, -0.08233861460872592, 0.13125543424710062, 0.08136658548139684, 0.11198740521054018, -0.03271749381590248, -0.04300206244292709, -0.038836890437597894, 0.17960064877078533, 0.03307337744993445, -0.08869609378007, 0.15484891996191721, 0.25486964589575967, 0.0491063338480967, 0.08630815600471886, -0.010440944340330528, 0.11829054862669525, -0.23233643762764777, 0.1375109856989693, 0.28983662052561937, 0.004040270258733732, -0.12424744182180003, 0.1532080463718877, 0.05863139297419674, 0.17191523105418063, 0.11672741380063122, 0.08006170890766919, 0.140911777321339, 0.18365860348341254, -0.15971173203594843, -0.22859762931525346, -0.07802853653849266, -0.05199715966282755, 0.05181239566383619, -0.25164463207677273, -0.01613588320824988, -0.13207571712328572, 0.06396075056718166, 0.0037873459373437795, -0.11102133555079233, -0.02492310614661763, -0.15497824106573097, -0.10056549703650967, 0.1309523846240897, -0.07500820509020015, -0.2037293962690759, 0.038319713765797736, -0.24666510218914192, 0.08270933662651804, 0.08323986133807634, 0.0597158126712577, -0.1494658366235952, 0.058550334636743126, -0.02717269565604819, -0.03117794818054643, -0.03841270038570293, -0.112898386818461, 0.06159802307344882, -0.06641524304212908], [0.1438890311836351, 0.00039519180861081316, -0.18245443478567025, -0.10902099620100313, -0.008962005092098933, -0.007444520423212253, -0.05373158542054922, -0.2864880061108247, -0.044952051594650176, 0.10770626497484476, 0.008769127520679555, 0.21761218083287978, -0.09942384118316898, 0.02270827885876354, 0.021344137849134016, 0.04135928591173754, 0.1754813633398729, -0.1466018435220272, 0.2225722426635187, 0.24867539699555186, 0.054955782725670865, -0.07424474049331656, 0.11009570320768508, -0.08377425578680205, -0.0933379893287718, 0.26065524430799875, -0.001726335028179101, 0.019544696205468715, 0.09911361902231058, -0.09125725245103773, 0.04724982708251204, 0.08135750324910691, -0.03636998563901596, -0.16770259741819946, -0.13944964950128785, -0.0892225803767929, -0.13095029209202744, 0.12992126863226258, -0.14783746105103346, -0.060362494961932606, -0.1392766572842586, -0.02062882845821262, 0.08983093958456789, -0.07691093623369971, -0.05691075698610618, -0.03478729808366317, -0.06663202806023656, 0.0529060798967889, 0.08556370968565227, 0.08676964320644748, 0.22642718046298255, 0.1432010860728662, 0.07542649076894649, -0.03384928972295583, -0.0704129445313177, -0.07468870361945926, -0.007469019926394477, -0.1585194403859605, -0.14110315799795767, -0.057962281594832736, -0.09583536994223806, -0.014530912617481316, -0.08332927609724164, -0.11068228182920752, 0.14958455666563614, 0.02571254291897296, 0.09860546668718086, -0.0620448487735694, -0.18543579558071266, -0.05114910713709176, -0.111468815984446, 0.02118072053325498, -0.07309083869936135, 0.047521212871314125, -0.09566805935386424, 0.09238638050700203, -0.035807375669850317, 0.030763261975197218, -0.12534094530768164, -0.26610550084788803, 0.05463624615205069, -0.07239464449659776, 0.034091219131057116, -0.09365224604853874, 0.141934633645712, -0.03169493577240283, -0.19913501358596733, 0.1571868591597768, 0.041539121640598024, 0.16985771507268255, -0.02387470074165109, -0.23818320661169373, 0.06017380638444708, 0.04802473347288378, -0.10666130463233094, 0.04953263195184331, 0.04491670241143154, -0.08680519365725557, 0.07900604652768858, 0.007971528394011542, -0.0010957084881465914, 0.01651657143465338, 0.015998074926524986, 0.13030715709930749, 0.006660709948220632, 0.019117014366214557, -0.13952078792413802, 0.011428591651624031, -0.20115687131671794, 0.06815498142735348, 0.14051585130483393, -0.15770323120580013, -0.09073023881639358, 0.015721118770961124, -0.13688588577210825, -0.201473968049053, -0.020793150613302936, 0.08281019261439938, 0.07580807557690973, 0.1281353857617066, -0.07578662402235027, -0.1707787250261167, 0.01059205211013664, 0.0004698204749062553, -0.07311543057459631, 0.2528561165377076, 0.019612785186851975, 0.00010617753523738368], [-0.14785669526832587, -0.06563061023457491, -0.06872350892013941, 0.018084463722683516, 0.10676896514793492, -0.12393561616452824, -0.14179679461129488, 0.08503676420016473, -0.021277237292550998, 0.18162593554989462, -0.0795928010762838, -0.02589680587210775, 0.15194243264982107, -0.024516552476077053, 0.019677601032873176, 0.031173124206726934, 0.0038759023988583024, 0.13300185479570673, 0.09042387672240144, 0.14785905624918635, -0.0034939379865814063, 0.030849413315274507, 0.15027418980488969, 0.022291707669796695, 0.022417410126915234, 0.0005124321581786609, 0.15135141188495385, 0.04689954057071079, 0.21459176174833022, -0.2743925872367821, 0.02003605999754828, 0.1313878424727461, -0.16712446873652528, 0.0008193006661375426, 0.21417062200205383, -0.07629731338461089, 0.2505450949587261, 0.00887450701217317, 0.03593015891179609, -0.032779112119711025, 0.0789652216064898, 0.058546398133095486, -0.04461168922326756, 0.039675732250389194, -0.02566580340316856, 0.02864966389534493, 0.037587016415285446, -0.1881323159966537, 0.20214645144944174, 0.10897316430367487, 0.24913408142677004, 0.029825638040311873, 0.020267560241646665, -0.32609689289731625, -0.006141221055479539, 0.01961535148509937, -0.01322663143959336, -0.15438595489494286, -0.11246004628153437, 0.15099182003547482, 0.28835274609518796, -0.02013720632152443, -0.12064120331015067, 0.005445214027225523, 0.3001505331427621, 0.03224646531476818, -0.062077565514795416, 0.1895931005499267, -0.10470851706699903, -0.2642294065087129, 0.31492589704698953, -0.06337992513849702, -0.026616516110715555, -0.12058188067936083, -0.18253844987083306, 0.06272440496196055, 0.08634881674953229, -0.07115670071111634, 0.11489852395368835, -0.1114941847049359, 0.11011388982590099, 0.11436236354338535, -0.09059536354310338, -0.16797089940411822, 0.0003112715354244801, 0.21454450202495887, 0.05003300613287886, 0.07919029298694949, -0.0941988596694521, -0.0022820229286289223, 0.4001454615462999, -0.05063229860017321, -0.15783078330949815, -0.12797440519894665, -0.0754482275574308, 0.06565188479477299, 0.09149858692902503, 0.03978927706852562, -0.003182085166825377, 0.04023127455516163, -0.1016503300529646, 0.05241350231754236, -0.03276624107804474, 0.0034364002520219073, 0.14556258528842933, 0.08363494295192457, 0.09346319710176147, 0.1456278724518712, 0.0828234292288114, -0.14994590437330757, -0.20239575586694078, -0.20193963506195847, 0.051123184169338615, 0.0009256291057386002, -0.15607401192753537, 0.1216812853101869, -0.024379645198698167, -0.039430273310529486, 0.002324041467569417, 0.16646997246392917, -0.20463863414620972, 0.006084156625449948, -0.26221070325880536, 0.06028661599782759, -0.1045275007548621, -0.11339392563182546, -0.15961247368020864, -0.024246361214993906], [-0.03679875416978406, 0.13271152862883137, -0.11648871954728936, 0.001620786620289988, 0.1332765703190429, 0.06912431586629304, 0.023192549819170797, 0.07758550121030576, -0.1293029899933714, -0.14050399741193337, 0.11549129313571664, -0.014195260274507062, 0.03427103672277516, 0.16080581526270654, 0.041755310769076355, 0.0461065966282796, -0.09517635363062245, 0.05708200671403511, 0.06534523624371112, 0.18854603125556663, -0.052479350023672836, -0.011997126293020835, -0.10611487345281176, -0.009834044613561138, -0.17405580262495074, -0.03736399112134485, 0.2309063017602357, -0.104608679476237, 0.28500665503262085, -0.024659261921667983, -0.05992253041845998, 0.11756978034364297, -0.051125572742906446, -0.12659675143667398, 0.11212134616025447, 0.020780120947984374, -0.08302298552093718, 0.09009068755009116, -0.01581652888612286, -0.22322039944293748, -0.10798186337258645, -0.03307883159551615, -0.05046768100011161, -0.06080165192211029, -0.10021115425171177, -0.14721114291313828, -0.0675326679109057, -0.11368566919622107, -0.041950663110593735, -0.10765725158918961, 0.1593802683925673, -0.0006440697721353034, 0.05648326224482532, 0.05411986107560543, 0.013779502084427067, -0.015477572341132955, -0.13433328262324024, 0.007814865360564518, 0.011382648747057725, 0.08353010421212544, -0.006955249044176442, 0.1237683659247135, -0.09660193608590956, -0.04441674468884917, 0.001417880194726358, 0.0653218408526119, -0.010076083175825529, -0.12514989145458086, 0.22645164003698223, 0.046450460663100865, -0.09064914270429855, -0.198623456009035, 0.0478877493770563, -0.24165286730328994, 0.15105611561392224, -0.02431766934770187, -0.04469627608020145, -0.13165871298394416, -0.062452223530319984, -0.19064631510945684, 0.011805628158939417, -0.07935435138435952, -0.018043509005146282, 0.15916548155229948, -0.048567574539848016, 0.004496312292285366, -0.059735891520213455, -0.15013239767412098, 0.1159863611671026, -0.15178851578640315, 0.24444087217781568, 0.10116177195406938, -0.06754983491865602, 0.1191698710842327, 0.15037055970243923, -0.17487940939728772, -0.20462139059670478, 0.05063351752701815, -0.027189506547518467, 0.08403217991899782, 0.17757782833262697, 0.024321316087322468, -0.015299047072488504, 0.004985182203211142, -0.15554199250631548, -0.2828624492805915, -0.030988615581317436, -0.24023645761960408, -0.048153332110714354, -0.03480123749072415, -0.09848891692234184, 0.09110507597582194, 0.1495233070165894, -0.016462350447362235, -0.0036983978492107234, -0.09615237260856666, -0.07137978935349963, -0.07018177876638314, -0.18986475109772788, -0.17089195460629514, -0.06582383319854698, -0.24502244047797864, 0.09446396178970348, 0.07730154812305273, 0.25198523647574383, -0.056917110382962446, -0.07566079086481192, -0.09635303287612411], [-0.151791748512185, -0.06603912072673081, 0.2178791932557023, 0.030614291571227185, -0.10774806968749186, 0.036907585131607676, -0.09407024423994004, 0.1017896190970548, 0.04231221306857659, 0.020495451277565472, 0.2090181557966002, 0.1471342340044143, -0.3120957006907111, 0.23006508152710675, 0.1421604035432351, -0.052940915005429044, 0.004244333857874001, -0.07976953234797185, -0.05632514857612572, 0.03144682917048291, -0.07322540838754742, 0.08449675884742294, -0.16741060598354102, 0.01397342846079073, 0.14742611176095288, -0.32079515741665515, 0.08276953762340952, 0.2952177321427134, 0.03620957871990118, 0.021754284444043006, 0.19576362295318062, -0.2190965380581479, -0.2585246514817047, 0.09180110603719731, -0.03722112011011467, 0.004559809135987217, 0.07461210505981536, 0.011521828662900779, 0.04494945238669178, 0.3016893335892361, 0.21892671904482844, -0.03846622176574233, 0.06608167813445479, 0.13521373970023037, 0.0903594776043357, -0.024702447900684845, -0.07764953190306942, 0.02624283735695567, -0.14358021006854507, 0.04721289117015284, -0.095988879904471, 0.25383577351700537, -0.17037809442744978, -0.04708006721795295, -0.04658352695096463, -0.016756746068599674, 0.05278287045071252, -0.08784438488502841, -0.40661612843152767, 0.04571318679070071, -0.08265030834103324, -0.24129589304376337, -0.12500717298275815, 0.09044433336892127, 0.1398034101736935, -0.07032586616922783, 0.2196498514008884, 0.042346557552373196, 0.07671987085745843, 0.24644395855604712, -0.18477883361854486, -0.016404086341385096, -0.11098707177673543, -0.0012586843839247058, 0.012018494170115059, 0.059695429095562136, -0.11285124930977512, 0.2683710305095201, 0.03323412158899864, -0.058731746443315684, 0.04785593346690838, -0.24023396738194366, 0.01733149907190357, 0.09384085073030853, 0.042717693476224124, 0.18644508210708782, 0.1752151923710743, -0.06535617677014116, -0.18174623576772828, -0.02862633705871357, 0.14649617397519762, 0.0247125734989883, -0.1960733744160182, 0.09412804672568775, -0.10188272001420166, 0.04041072755976074, 0.06518762856265307, 0.029629588945128515, 0.08380746824663887, 0.0763968839033915, -0.08056626242498907, 0.1699268618540897, -0.06910436913199333, 0.003882995476119094, 0.022499934897868477, -0.12102821492064968, -0.05920948728215704, 0.08896684049857942, -0.09202083916282895, 0.01181313819003829, -0.08388886815184374, -0.06587055065938026, -0.3029185436597476, -0.03668985750102505, 0.003450416678323286, -0.06000936865755448, 0.030041622709200366, 0.14501886398334343, 0.1937166217027577, 0.029041736708582004, -0.17451381490949883, 0.042382805313633844, 0.03722366602749866, 0.2388041348982501, 0.22472207031996777, 0.08051094271644739, 0.09952637985646223, 0.028285026765660262], [-0.37679027239281704, -0.09414574375509097, -0.12895808383686172, 0.07815642310844097, -0.03724577440600106, -0.2721259749146726, -0.15521912240154864, 0.08319469016438162, -0.0684444039728848, 0.13497472972522423, 0.1549523682454745, -0.0805383433088158, 0.08072920656733143, -0.02028968126195819, 0.050094211782867215, 0.20479193555556854, 0.00490433105671372, -0.0023277425601892243, 0.09760681381611772, 0.05045717509940816, 0.007799990312816028, -0.042367405650261404, -0.08046120071289566, 0.04924908486889717, 0.030164346395849764, 0.08072988703620204, -0.09669077013389582, -0.15384943783971086, 0.05909018615715074, -0.001449098617538773, 0.10954916094697058, -0.17502877443487505, 0.05060730542940547, -0.04416112115097442, -0.084781178697843, -0.19702277141475413, 0.02981171365170463, -0.09482829520396766, -0.08522875532082246, 0.07680321521647497, -0.07448366416828564, 0.05260500395567158, 0.03405821950533456, 0.029780155131590266, 0.06598080935872791, -0.03111642749031366, -0.042261115405432724, -0.0936657100270761, -0.05494115584306666, 0.21611963726580433, -0.2284870158198242, 0.01614630719822572, -0.1354762995831581, -0.011352241097037854, -0.08956264075432717, -0.05088450084894761, -0.12215879137076517, -0.23470794674469733, -0.2549770002349052, -0.22802998686497777, -0.06563343175041986, 0.06697247389950862, -0.05153129877588846, -0.020097580470672918, 0.06456321126526197, -0.0410631120314091, 0.039351858789521806, 0.10655119906257039, -0.08489210369191516, 0.0044198066098086256, -0.1585215972960189, -0.1325504647387866, 0.20904641388569137, 0.03242598699122983, 0.08695212560491127, 0.19864877758288038, -0.15096577283949608, 0.07581746621181909, -0.07369364121679679, -0.1189801122330585, -0.0634160814366894, 0.10359904538755545, 0.012576538036062691, -0.05231996239227391, 0.0075799237288566605, 0.0457662221628564, 0.014545739714132694, -0.021962325838546366, 0.1502614072198917, -0.07563313087518145, 0.046201071746450224, -0.00548963403840423, 0.015435017351945286, -0.14069355367280556, 0.010205101549117794, 0.007261505634911026, 0.24275242288185475, -0.0674793726635372, -0.06809705303110422, 0.22657254546605485, -0.05920222843219799, 0.018316117002039667, -0.14962488975635602, 0.328765803941764, -0.19268582724196334, 0.2326173847762051, 0.010481197503864106, -0.14618331099970597, 0.2646788703574912, -0.047919977645382375, -0.07574622022006214, 0.040413696459898917, 0.04640077440587229, -0.09270844832334063, -0.1891351747970512, -0.07172564407912203, -0.04012211832420117, -0.06664609628477439, -0.05590784999741655, 0.0694728396929708, 0.15774859885662046, 0.014166567288318251, -0.2501760298780001, 0.09485304411243337, -0.08605248369601087, 0.002307476037055386, 0.013413037846869967, -0.09981998658002818], [-0.04402095704888532, -0.10869325942033699, -0.07995145808174974, 0.04814286946650965, -0.14549184576795784, -0.03545352761016622, 0.09454576393765009, -0.03914751646546864, -0.0443300441365297, -0.004415444633078344, 0.1538321037006571, 0.10040173196171348, -0.0935805106859669, 0.14121872967721766, -0.17509472581357682, 0.03337282390344176, 0.04809283308472043, 0.015204243051798554, -0.2756262691811966, 0.044131909812862975, 0.11568365065497584, 0.12429079382226653, 0.13943758296847097, -0.18354596411803992, -0.11827081642209623, 0.12710501364675697, 0.07905949382183763, 0.1150265518344035, -0.16331757956923196, -0.03501993181242283, 0.15757791335342836, -0.12699166608353854, 0.027237003219995965, -0.2382042871315926, 0.04026657450794367, -0.022865620842490386, 0.09619648949935282, -0.08571774067244867, 0.17836495289419022, -0.06304224659463288, 0.24202091801857745, 0.13818186233788324, 0.2939989406755483, -0.17485992575033998, 0.08544931804349702, 0.1391810056970013, 0.18105036834070704, 0.03549665803309452, -0.17026893280003655, -0.12832692134995016, 0.13642261005349396, -0.15856658047534097, 0.07107708188343181, 0.047776574045169384, -0.09403246541432832, -0.03655699879758607, -0.017952643363524923, 0.06132161433522782, 0.024123540229658843, 0.08852735637169935, -0.05953003221173159, 0.11958947038445429, -0.08717164679693702, 0.09864366438710664, 0.32743186291302934, -0.05845469706095729, -0.07782250990445023, 0.06514688491446927, 0.18536112989729317, -0.03661564906323304, -0.04294128300895546, 0.04831214207818946, 0.02264915384938454, 0.1598137568959099, 0.16646655667033705, -0.15123091711533654, -0.15646949206388958, 0.07344753501009556, -0.0038797168969226716, -0.04341939096010893, 0.2469445778868166, -0.19844466616633186, 0.0400880976133934, -0.24112928726273394, 0.11129703077066772, -0.10844102291391106, 0.07697978975606307, -0.0034485928444979966, 0.05906685040846471, 0.07866157026488502, 0.13033866270049418, -0.07746860255547508, 0.018880259608235642, 0.058139043721970776, 0.07832340605620926, -0.12095308902237152, -0.2399542995301983, 0.06027057113122623, -0.004819685931011243, 0.04305227352275416, -0.0968607100172879, 0.04366317831358505, -0.028469100865597927, -0.010846623680866663, -0.05246633425448419, 0.04976759207175835, -0.03901490898452336, -0.09727677858659176, -0.045341670034363034, 0.1692397444540607, 0.09050129745626424, -0.1382040851231786, -0.0923098425115325, 0.14583163033866636, -0.04582468611722237, -0.2617938989837707, -0.08038574739890658, 0.05193517567288408, 0.16379505196859248, 0.22188655224025952, 0.021259453050551377, 0.14374555817155682, 0.05455163584492519, 0.004379729387778497, -0.0519712578259717, -0.17608656090476477, -0.12061508093920097, 0.009277061944419551], [-0.1729857503654289, 0.22088959185675683, -0.09131098814375559, -0.039757923523562576, -0.02664111926380713, -0.07073750455668561, -0.039928465858513555, 0.10684790187503099, -0.06546961292198902, -0.024806487539408097, 0.01585333880442822, 0.16893552081209545, 0.024638210218584335, 0.040218876463848495, 0.10708781719548532, -0.151826938306183, 0.09522912407682316, -0.24040150287597772, 0.02998630337486516, -0.16078292886238071, 0.0618749284428697, 0.04768409743181586, 0.08868347616186423, -0.07131273292342843, 0.10384434344744208, -0.12247900876308045, -0.00788437523226738, -0.2695840494374569, -0.035238463347033865, 0.13511785459448056, -0.16523740746023843, 0.04643909958995938, -0.12803643287834116, -0.08691745892970305, 0.16711424006560036, -0.07516247829527453, 0.04533964093300005, 0.09269248542364186, -0.061718120028504346, 0.004405970077069161, 0.06294839751782322, 0.013303874122163625, 0.26092691853330496, -0.009938317192286663, -0.23688075333514907, -0.2098471580331375, -0.12996088320101004, 0.2213303062144777, 0.10840244607843147, -0.019492148821227975, -0.08893898423032101, 0.022777239327545568, 0.12401645825048938, 0.06150450852868874, 0.1135376618477538, 0.13035027463356347, -0.0379478659090625, -0.015878179540103326, -0.02748235923120618, 0.20827579110281078, -0.09464617231003249, 0.07095622472020971, -0.06587513980908682, -0.012627928330835965, 0.15510561890374677, -0.05454286038638998, -0.0724199146572522, -0.0261161785005553, -0.1669238399293277, -0.23288093689887868, -0.0893987355247891, 0.08741874295696173, -0.15400837264012432, -0.28894307152966126, 0.014036901557558839, 0.19595834890013716, 0.18802316450690487, -0.014921484750176794, 0.2395125224776115, 0.1406168297561612, -0.13936385863674325, 0.009919924010789049, -0.15344558437902445, -0.01677754637010652, -0.04867779939697053, -0.2558583876328144, -0.2788989883563372, 0.043069122040959085, -0.24615185898647698, -0.08093381171496403, 0.07222579006826622, -0.024840165127728804, -0.2327218761215728, -0.1515358673874154, -0.006713458764483667, -0.11404268404587578, 0.05457640835123758, 0.19716168750318164, 0.177947974389562, -0.06883711967134583, -0.03340284053918413, -0.05984956537463267, -0.17338091308927328, -0.29891316082170527, -0.06526415913218456, 0.025407196942797396, -0.2871532610687171, -0.2923435876621631, 0.10971499830833692, -0.21640788102985456, 0.03008343464241526, 0.30952525058011837, -0.01266641696733413, 0.1628342115548367, 0.14225431601407965, -0.026277100271526303, -0.08333616144341698, 0.16260504183196717, 0.20217088051487092, -0.25741014943172047, -0.018936439427904312, 0.2080499101440741, 0.13329840979164687, 0.07047609063067442, -0.0799031463246586, -0.0063743894898568255, 0.0603832174039337, -0.17905565577439334], [0.003187163770876085, 0.05494601408108085, -0.13053641353841344, 0.0873363241510856, 0.11911504544365942, -0.036347058208561864, -0.1171475556710176, 0.062370323327819416, 0.03697782796547646, -0.14994140823018384, -0.3612770188491962, -0.07776011536217181, 0.1983920484357828, -0.025174749743485176, 0.24234854974862086, -0.09421331158150921, 0.027777828223998154, -0.10733816804093563, -0.035594531698499916, -0.03844454487714299, -0.054065707308781616, -0.08860975868396666, -0.1225851540801324, 0.2361927277732106, 0.22471180909843633, 0.08894315590261904, -0.23414409709501907, -0.06265067263612817, 0.11423972876207748, -0.16220882059034697, -0.07747184277983614, -0.03139558202363002, -0.05029016074641662, -0.15311470767197263, 0.019876065884802622, 0.06193450750965153, -0.12033694862135086, 0.03919536021978991, 0.11986628121356464, 0.0997924656510288, 0.12520924963901492, -0.0035126962987359405, 0.02207934550198554, -0.165563526774509, 0.1040530669920959, 0.12726887622274968, -0.016454402737345344, -0.11599821543816347, 0.09328716839187419, -0.17959472279511532, -0.09115547338393484, -0.2385000105584793, 0.0013727085648447303, -0.14943531702291746, 0.18650945539372565, -0.1330998154212362, -0.005562706606673656, -0.24219094959197704, -0.16003051671900886, -0.31275688940369417, -0.23366286740608924, 0.09154838442766482, 0.0948151013743059, -0.0686373969310731, 0.08517846222043036, -0.13353682694715913, 0.16387448229027854, 0.18277997507939425, 0.09573112438650724, 0.1064850449979368, -0.045678184470660445, -0.11494068632588732, 0.04740125468371938, -0.025972195804850887, -0.01047101023095834, 0.06433636376854138, -0.10789813353730227, 0.23459387837695736, 0.07749854512620404, 0.24568568490373266, 0.1835881936159655, -0.17124549900472494, 0.07914231609661025, 0.11411661504347798, 0.1761313588994714, -0.1373895513838697, 0.08416699077873921, -0.22093716074548664, -0.05322902398687323, -0.0943886842507734, -0.08686777390758156, -0.01953310337928629, -0.17141193906793625, 0.08591576393225049, -0.14271950250354914, 0.2220865802595106, 0.17616933072742963, -0.1635569410623964, -0.010897971139083135, 0.2546428892532865, 0.09463693696343738, 0.06586285042328684, 0.012494664840890637, -0.035485159300661796, -0.04960332986640884, -0.010346567751054898, -0.1473346364641289, -0.06789555585233104, -0.09214516021206819, 0.2536486223635154, -0.010945558732057862, 0.2123325544382526, 0.21454269346423568, -0.2399512046198938, 0.07850530813538513, 0.1409393859847435, 0.08910066859341317, -0.0035113863079002127, -0.13286088220298592, 0.22328687330845617, 0.007082432796189368, -0.08035452812708864, -0.056584019305728483, 0.15175725590870395, 0.15757625853054782, 0.16528201873484416, 0.0226036155290563, -0.009214957690172887], [0.05496813772167799, 0.04218623678050207, 0.11541152214584725, 0.019673668053791643, -0.03912021891876421, 0.03754391902535023, -0.24032747447651748, -0.020474273641094793, -0.06323394147329979, -0.15951395347353278, -0.10676493440259624, -0.1261492252732313, 0.18465753538201726, 0.14393606331331607, 0.11199411543634272, -0.020670266606116445, -0.011422175910431423, -0.047838097100616116, 0.17266230556318068, -0.10292313800622348, -0.052765748253642324, -0.2872809802654507, 0.0034842284631589173, -0.2363401347324565, 0.09952582968740027, 0.15492032760802227, -0.12667859304376367, -0.014276728424860783, 0.06685235118984811, -0.1752087520930636, 0.1593011583820656, 0.11160574109659589, 0.2247993374604073, -0.06996717194591319, -0.06052110577050338, -0.03775847809675276, 0.06148419605687892, 0.13272450960978507, -0.017176096546069122, 0.3141442445799006, -0.03032225349027825, -0.02609972574299911, 0.10308043543507486, 0.08584040986644703, -0.10244000669826372, 0.19173982098817688, 0.1685499962255813, 0.16641267170667934, -0.18562914132267236, -0.08826021064910292, 0.030280949282212047, 0.017092843245223553, 0.25628587853858803, -0.1440542065955215, -0.0882281998364405, 0.13130370400916616, -0.12473431467255089, 0.07537916772069027, -0.037767585644189514, 